svm_type c_svc
kernel_type rbf
gamma 2.000000
nr_class 2
total_sv 3862
rho 0.4696766138
label 1 -1
nr_sv 1704 2158
SV
-32.0000000000 6:1.0000000000 11:-0.0339489989 12:0.1648250073 13:0.0176270008 14:0.0230679996 15:-0.0230330005 16:0.0322519988 17:-0.1004619971 18:0.0414579995 19:-0.1093050018 20:-0.1007200032 21:0.1031749994 22:0.0258660000 
-11.5953998566 2:1.0000000000 11:-0.5113059878 12:0.3652650118 13:-0.0258889999 14:-0.1413269937 15:0.2138070017 16:0.1974370033 17:0.0516850017 18:-0.0183359999 19:0.0500760004 20:0.0839980021 21:-0.0122900000 22:-0.1099070013 
-3.1003022194 2:1.0000000000 11:0.2352759987 12:0.1990049928 13:-0.2566710114 14:0.1539459974 15:0.0717260018 16:-0.1244380027 17:0.1524250060 18:-0.0743160024 19:-0.1897410005 20:-0.0277319998 21:0.1420110017 22:-0.1386030018 
-1.6378656626 2:1.0000000000 11:-0.5374780297 12:0.4906010032 13:-0.1400800049 14:-0.3612090051 15:-0.1085150018 16:0.2616840005 17:0.1666159928 18:0.0463970006 19:0.1276250035 20:0.2647910118 21:0.2049109936 22:-0.0069289999 
-0.4015130103 6:1.0000000000 11:-0.4033679962 12:0.6845089793 13:0.2676540017 14:0.1210469976 15:-0.3871980011 16:-0.3468039930 17:0.2924399972 18:0.0971049964 19:-0.1913730055 20:0.1435749978 21:0.4048460126 22:0.2213049978 
32.0000000000 2:1.0000000000 11:0.6283239722 12:0.3018800020 13:0.0070469999 14:0.0070050000 15:0.3597550094 16:-0.0554829985 17:-0.1905979961 18:0.0543970019 19:-0.2355570048 20:-0.0572110005 21:0.5773450136 22:-0.2924300134 
32.0000000000 2:1.0000000000 11:0.2150840014 12:0.2006839961 13:-0.0658259988 14:0.1322470009 15:-0.0989549980 16:0.0036040000 17:-0.1007260010 18:-0.0655229986 19:-0.1180360019 20:-0.1051670015 21:0.2484949976 22:-0.0387110002 
-32.0000000000 6:1.0000000000 11:-0.3236030042 12:0.1413570046 13:0.0015730000 14:0.0180709995 15:-0.0071919998 16:0.0094489995 17:0.0304019991 18:-0.0454390012 19:-0.0841889977 20:0.0102270003 21:0.0521750003 22:-0.0170009993 
32.0000000000 6:1.0000000000 11:-0.0826719999 12:0.1747439951 13:0.0050760000 14:0.0141080003 15:-0.0078210002 16:0.0454740003 17:-0.0327129997 18:-0.0117980000 19:-0.0979520008 20:0.0535730012 21:0.1032949984 22:0.0180360004 
32.0000000000 6:1.0000000000 11:-0.3419229984 12:0.1425170004 13:0.0062310002 14:0.0316409990 15:-0.0026070001 16:0.0010210000 17:-0.0150530003 18:-0.1042020023 19:-0.1195639968 20:-0.0044689998 21:0.0619009994 22:-0.0205719993 
-1.3746275902 2:1.0000000000 11:-0.5107979774 12:0.4926759899 13:0.0581540018 14:0.0842500031 15:-0.0776880011 16:0.1425320059 17:0.0512849987 18:-0.1621070057 19:-0.3885439932 20:0.1056270003 21:0.1583729982 22:-0.1347489953 
-32.0000000000 2:1.0000000000 11:-0.0300709996 12:0.1658630073 13:-0.0838019997 14:0.0350919999 15:0.0894400030 16:-0.0031950001 17:-0.0405160002 18:-0.0424109995 19:-0.0859400034 20:0.0337059982 21:0.0464240015 22:0.0309050009 
32.0000000000 6:1.0000000000 11:-0.3459880054 12:0.1430359930 13:-0.0660369992 14:0.0183959994 15:0.0042770002 16:0.0109789995 17:-0.0012070000 18:-0.0675230026 19:-0.0390009992 20:-0.0761889964 21:0.0424339995 22:0.0112159997 
1.4367103577 2:1.0000000000 11:-0.2768979967 12:0.6456599832 13:0.0165880006 14:0.0884329975 15:0.2024299949 16:-0.0614640005 17:-0.1635749936 18:-0.5282959938 19:-0.5133979917 20:0.0423629992 21:0.2832089961 22:0.0381480008 
11.5265378952 6:1.0000000000 11:0.0477869995 12:0.2249449939 13:-0.1249959990 14:-0.0266640000 15:-0.0699039996 16:0.0588099994 17:-0.0464170016 18:0.0427000001 19:-0.2180519998 20:0.0912749991 21:0.2220190018 22:-0.0537579991 
16.9849281311 2:1.0000000000 11:0.5507469773 12:0.4096069932 13:0.0987730026 14:-0.3295930028 15:0.2924610078 16:-0.4570490122 17:0.1431809962 18:-0.1361870021 19:-0.1628510058 20:0.0579980016 21:0.6893749833 22:-0.6420130134 
-6.1276760101 6:1.0000000000 11:-0.5108190179 12:0.3631899953 13:0.0516850017 14:-0.0183359999 15:0.0500760004 16:0.0839980021 17:-0.0122900000 18:-0.1099070013 19:-0.1216659993 20:-0.0502040014 21:-0.0523979999 22:-0.1031479985 
32.0000000000 2:1.0000000000 11:-0.3355090022 12:0.1448670030 13:-0.0078440001 14:0.0110550001 15:0.0525600016 16:-0.0157229993 17:-0.0234389994 18:-0.0604140013 19:0.0046089999 20:0.0352910012 21:0.0313390009 22:-0.0100100003 
-32.0000000000 6:1.0000000000 11:-0.0485799983 12:0.1631159931 13:-0.0704260021 14:-0.0793080032 15:-0.0009440000 16:0.0640679970 17:0.0162530001 18:-0.0231209993 19:-0.1421090066 20:0.0018190000 21:0.0932699963 22:0.0040799999 
-0.8655498028 6:1.0000000000 11:-0.2413199991 12:0.5885310173 13:-0.4213120043 14:-0.0942730010 15:0.0726829991 16:-0.2191340029 17:-0.2149640024 18:-0.1992630064 19:-0.0802770033 20:-0.3847309947 21:-0.0513850003 22:-0.5244590044 
32.0000000000 6:1.0000000000 11:-0.0441440009 12:0.1667789966 13:-0.0204440001 14:0.0057170000 15:-0.0203850009 16:0.0538499989 17:-0.0610359982 18:0.0082149999 19:-0.1236940026 20:0.0545249991 21:0.1000370011 22:0.0085389996 
-0.2222545147 2:1.0000000000 11:0.3361760080 12:0.3294070065 13:0.0200679991 14:-0.0564699993 15:0.4864790142 16:-0.0387849994 17:0.2240149975 18:-0.0390879996 19:-0.1510999948 20:-0.0025060000 21:0.5739179850 22:-0.3782440126 
-3.5432369709 2:1.0000000000 11:-0.7194240093 12:0.1748660058 13:0.0116379997 14:0.0242929999 15:-0.0109689999 16:0.0086770002 17:0.0058590001 18:-0.0037839999 19:0.0235970002 20:-0.0046160002 21:0.0492400005 22:-0.0164030008 
25.3238601685 2:1.0000000000 11:0.5309900045 12:0.3879700005 13:-0.1620700061 14:-0.0160900000 15:0.5504350066 16:-0.6475539804 17:-0.0211350005 18:-0.4825310111 19:-0.2222110033 20:-0.2746599913 21:0.5200380087 22:-0.3289560080 
32.0000000000 6:1.0000000000 11:-0.3668510020 12:0.1503600031 13:0.0079619996 14:0.0315169990 15:-0.0167200007 16:-0.0795020014 17:-0.0049140002 18:-0.0889440030 19:-0.1157710031 20:0.0210059993 21:0.0639469996 22:-0.0061249998 
32.0000000000 2:1.0000000000 11:0.6018840075 12:0.2338259965 13:0.0125789996 14:-0.0881149992 15:0.0764200017 16:-0.0548579991 17:-0.1133679971 18:0.0381999984 19:-0.2029760033 20:0.0252739992 21:0.2011380047 22:-0.1710000038 
-13.2850227356 2:1.0000000000 11:-0.5179029703 12:0.4767760038 13:-0.0253120009 14:0.0415470004 15:0.1168750003 16:-0.1005780026 17:-0.2006649971 18:-0.1750960052 19:-0.1745560020 20:-0.4101040065 21:0.0534039997 22:0.0370070003 
32.0000000000 2:1.0000000000 11:-0.0684849992 12:0.1615599990 13:-0.0745010003 14:0.0023680001 15:-0.0411400013 16:0.0044089998 17:-0.0394340008 18:-0.0864590034 19:-0.0504890010 20:-0.0664779991 21:0.0416919999 22:0.0489050001 
0.5717773438 6:1.0000000000 11:-0.5322790146 12:0.4684140086 13:0.3037230074 14:-0.0038709999 15:-0.2465180010 16:-0.4202730060 17:0.0425379984 18:-0.2131070048 19:-0.1530939937 20:-0.0566309988 21:0.1000130028 22:0.1213190034 
32.0000000000 2:1.0000000000 11:0.0182210002 12:0.2506409883 13:-0.1228369996 14:0.1109310016 15:0.1933130026 16:-0.0712049976 17:-0.1435369998 18:-0.0829870030 19:-0.1151510030 20:-0.1281599998 21:0.0701169968 22:0.0630720034 
32.0000000000 6:1.0000000000 11:-0.3579129875 12:0.1446229964 13:0.0063689998 14:0.0236910004 15:-0.0069169998 16:0.0114120003 17:-0.0261640009 18:-0.0752360001 19:-0.0283780005 20:0.0512310006 21:0.0455030017 22:-0.0123429997 
32.0000000000 6:1.0000000000 11:-0.3408240080 12:0.1437070072 13:0.0035110000 14:0.0211769994 15:-0.0043830001 16:0.0195370000 17:-0.0118910000 18:-0.0666569993 19:-0.0215629991 20:0.0181019995 21:0.0508669987 22:-0.0109740002 
32.0000000000 2:1.0000000000 11:0.0432120003 12:0.5041499734 13:-0.2842319906 14:0.2140219957 15:0.3540889919 16:-0.3217470050 17:-0.2465150058 18:-0.1030689999 19:-0.1656859964 20:-0.0207690001 21:0.4344480038 22:-0.1491439939 
-4.5793070793 6:1.0000000000 11:0.2343299985 12:0.1948239952 13:0.1623679996 14:-0.1204660013 15:0.0101429997 16:0.0481100008 17:0.1595840007 18:0.0021200001 19:-0.1648309976 20:0.1038099974 21:-0.0308459997 22:-0.0799949989 
-4.2042517662 2:1.0000000000 11:-0.5241469741 12:0.3685300052 13:-0.1036569998 14:-0.0658629984 15:-0.0257150009 16:-0.0471640006 17:-0.0666849986 18:-0.0900660008 19:-0.0754769966 20:-0.0773679987 21:-0.1838160008 22:0.1208200008 
32.0000000000 2:1.0000000000 11:-0.0541520007 12:0.1688539982 13:-0.1238640025 14:0.0058769998 15:0.0955289975 16:0.0226339996 17:-0.0777300000 18:-0.0769509971 19:-0.0298050009 20:0.0634460002 21:0.0383009985 22:-0.0190880001 
-1.8731012344 6:1.0000000000 11:-0.3360329866 12:0.6409609914 13:-0.0000420000 14:0.0445189998 15:-0.0076660002 16:0.0082350001 17:0.0927309990 18:-0.0577710010 19:-0.0652609989 20:-0.0617830008 21:-0.5194550157 22:-0.6769040227 
-32.0000000000 6:1.0000000000 11:-0.3429509997 12:0.1447450072 13:0.0014759999 14:0.0246510003 15:0.0007270000 16:0.0260129999 17:0.0325619988 18:-0.0393249989 19:-0.0817909986 20:0.0174679998 21:0.0585479997 22:-0.0184080005 
32.0000000000 2:1.0000000000 11:-0.0617589988 12:0.0514830016 13:-0.1231319979 14:-0.0819019973 15:-0.0935179964 16:-0.1115010008 17:-0.0829290003 18:-0.0960389972 19:-0.0866189972 20:-0.1152739972 21:-0.0754709989 22:-0.0633070022 
32.0000000000 2:1.0000000000 11:0.2330359966 12:0.1975709945 13:-0.1434729993 14:-0.0791200027 15:0.0837299973 16:-0.1927559972 17:0.0671489984 18:-0.2096900046 19:-0.0426709987 20:0.0510590002 21:0.2073999941 22:-0.0597180016 
32.0000000000 2:1.0000000000 11:-0.0822060034 12:0.1769410074 13:-0.0731209964 14:0.0320650004 15:0.1013609990 16:0.0096990000 17:-0.0592069998 18:-0.0719669983 19:-0.0476550013 20:-0.0673950016 21:0.0560690016 22:0.0629639998 
-32.0000000000 2:1.0000000000 11:-0.0514849983 12:0.1606449932 13:-0.0539119989 14:0.0151589997 15:0.1157530025 16:-0.0714970008 17:-0.1134300008 18:-0.1017429978 19:-0.0727339983 20:0.0423999988 21:0.0158970002 22:0.0249230005 
-1.5464535952 6:1.0000000000 11:0.5555980206 12:0.4231869876 13:-0.3391939998 14:0.2113399953 15:-0.2896899879 16:-0.1002810001 17:0.3045189977 18:-0.1614609957 19:-0.2366490066 20:0.1523749977 21:0.4883790016 22:-0.1779730022 
-31.9968662262 6:1.0000000000 11:-0.6553339958 12:0.1099240035 13:-0.0441179983 14:-0.0710130036 15:-0.0128739998 16:-0.0913750008 17:-0.1022989973 18:-0.0899320021 19:-0.0452999994 20:-0.0495809987 21:-0.0606309995 22:-0.0435849987 
-32.0000000000 2:1.0000000000 11:0.0080739995 12:0.2550660074 13:-0.1740220040 14:0.0974999964 15:0.1486939937 16:-0.1784979999 17:-0.1558029950 18:-0.0372649990 19:-0.0138870003 20:0.0603079982 21:0.0593339987 22:-0.0107490001 
-32.0000000000 6:1.0000000000 11:-0.0348820016 12:0.1645510048 13:-0.0303360000 14:0.0117050000 15:-0.0074300002 16:0.0139499996 17:-0.0918100029 18:0.0356799997 19:-0.0796289966 20:0.0501799993 21:0.1066830009 22:0.0050769998 
-20.7940578461 6:1.0000000000 11:-0.1621820033 12:0.5718380213 13:0.1094060019 14:0.1487450004 15:0.0959210023 16:0.0513789989 17:0.2598010004 18:-0.2779279947 19:-0.3576869965 20:0.0682310015 21:0.3656949997 22:0.0413499996 
-2.4666662216 2:1.0000000000 11:-0.2038059980 12:0.5861819983 13:-0.0280169994 14:-0.0202149991 15:-0.2838540077 16:-0.1087990031 17:0.0241030008 18:-0.0460780002 19:-0.3347940147 20:-0.0229189992 21:0.2973310053 22:-0.0005400000 
32.0000000000 2:1.0000000000 11:0.2514779866 12:0.1937869936 13:-0.0927060023 14:-0.1688389927 15:0.1832990050 16:-0.1226390004 17:0.0435459986 18:-0.0615409985 19:-0.1313309968 20:0.0423449986 21:0.2324730009 22:-0.0608469993 
-32.0000000000 6:1.0000000000 11:0.0359059982 12:0.2310789973 13:-0.0184969995 14:0.0823199973 15:-0.0010690000 16:-0.0100419996 17:-0.1064239964 18:-0.0011340000 19:-0.0953299999 20:0.1066749990 21:0.1853699982 22:-0.0789529979 
32.0000000000 2:1.0000000000 11:0.0261649992 12:0.2289730012 13:-0.1234880015 14:0.0823360011 15:0.1725050062 16:-0.0347510017 17:-0.1052379981 18:-0.0491480008 19:-0.0341649987 20:0.0654409975 21:0.0753030032 22:0.0511629991 
-7.6041693687 2:1.0000000000 11:0.4252460003 12:0.4886470139 13:-0.1271730065 14:-0.2810850143 15:0.6937519908 16:-0.4775539935 17:0.3608700037 18:-0.4008210003 19:-0.1496630013 20:-0.2510769963 21:0.8174089789 22:-0.3588649929 
-32.0000000000 2:1.0000000000 11:0.5701730251 12:0.2345889956 13:-0.0194300003 14:-0.0684510022 15:0.1608150005 16:-0.0176509991 17:-0.2737889886 18:0.0351170003 19:-0.2127919942 20:-0.0023200000 21:0.4046170115 22:-0.2251539975 
32.0000000000 2:1.0000000000 11:-0.3493070006 12:0.1447450072 13:-0.1152769998 14:0.0223210007 15:0.0661550015 16:-0.0449259989 17:-0.0989629999 18:-0.0777769983 19:0.0112469997 20:0.0122800004 21:-0.0541660003 22:0.0041950000 
-32.0000000000 6:1.0000000000 11:-0.7333189845 12:0.1731870025 13:0.0061450000 14:0.0196400005 15:0.0152099999 16:-0.0075759999 17:0.0218090005 18:-0.0355999991 19:-0.0202089995 20:0.0207599998 21:-0.0171620008 22:-0.0093569998 
-12.5996856689 2:1.0000000000 11:0.5889840126 12:0.2356259972 13:-0.0695030019 14:-0.0463799983 15:0.3131090105 16:0.0143130003 17:-0.0554980002 18:0.0494729988 19:-0.0657529980 20:0.0511559993 21:0.3284339905 22:-0.3950490057 
-1.5080001354 2:1.0000000000 11:-0.4061500132 12:0.1912840009 13:0.0007240000 14:0.0173439998 15:0.0213389993 16:-0.0674069971 17:-0.1261129975 18:-0.0213580001 19:0.0216109995 20:0.0262690000 21:0.0153029999 22:0.0003540000 
-24.7898044586 2:1.0000000000 11:0.5318700075 12:0.2445069999 13:0.0377260000 14:-0.1461459994 15:0.2619479895 16:-0.2850129902 17:-0.1284859926 18:-0.0866310000 19:-0.1611409932 20:-0.0645989999 21:0.4289819896 22:-0.2072450072 
32.0000000000 6:1.0000000000 11:0.4821909964 12:0.1131900027 13:-0.1526580006 14:-0.1318009943 15:-0.0054939999 16:-0.2020619959 17:0.2343830019 18:-0.3203580081 19:-0.0592410006 20:-0.1623079926 21:0.0129079996 22:-0.0866329968 
6.7933835983 2:1.0000000000 11:-0.7315980196 12:0.1718750000 13:0.0074870000 14:0.0201069992 15:-0.0330200009 16:0.0083149998 17:0.0049239998 18:-0.0789109990 19:-0.0033390000 20:-0.0169949997 21:0.0238630008 22:-0.0787729993 
-32.0000000000 2:1.0000000000 11:0.6238570213 12:0.3094480038 13:-0.0529920012 14:0.0871149972 15:0.3359239995 16:-0.0086700004 17:-0.0488420017 18:0.1140379980 19:-0.1332480013 20:0.1033639982 21:0.1652600020 22:-0.0890630037 
32.0000000000 6:1.0000000000 11:-0.0994649976 12:0.1694030017 13:-0.0189720001 14:-0.0086580003 15:0.0047439998 16:0.0225280002 17:-0.0374520011 18:-0.0487009995 19:-0.1008810028 20:0.0457330011 21:0.0782900006 22:-0.0111370003 
-21.5078372955 2:1.0000000000 11:0.1420200020 12:0.4902040064 13:-0.1895149946 14:0.3411630094 15:-0.1255500019 16:-0.3731330037 17:-0.1096469983 18:-0.0277600009 19:-0.3063220084 20:-0.2006019950 21:0.1488640010 22:-0.3074710071 
-11.0026922226 6:1.0000000000 11:-0.0911720023 12:0.5332340002 13:-0.3534480035 14:-0.3979580104 15:-0.2196040004 16:0.0237429999 17:0.1327680051 18:-0.3902440071 19:-0.5046910048 20:-0.1503670067 21:0.1786810011 22:-0.1304029971 
-32.0000000000 2:1.0000000000 11:0.5858309865 12:0.2384950072 13:-0.0132950004 14:-0.1100500003 15:-0.0114890002 16:-0.0607450008 17:-0.2615399957 18:0.0615769997 19:-0.3258090019 20:-0.0165410005 21:0.2612150013 22:-0.1051980034 
32.0000000000 6:1.0000000000 11:-0.3583639860 12:0.1510010064 13:-0.0041339998 14:0.0159089994 15:0.0098430002 16:0.0313300006 17:0.0063809999 18:-0.0696770027 19:-0.0270860009 20:0.0312779993 21:0.0540560000 22:-0.0160569996 
-32.0000000000 2:1.0000000000 11:-0.0311299991 12:0.3304440081 13:-0.0964559987 14:0.1260460019 15:0.2519699931 16:-0.0132179996 17:-0.0219010003 18:-0.0708660036 19:-0.1828919947 20:0.0561150014 21:0.1578429937 22:0.0494309999 
15.6412515640 6:1.0000000000 11:-0.3780089915 12:0.6573789716 13:0.0957790017 14:-0.0359690003 15:-0.3826020062 16:0.0207499992 17:0.0429250002 18:-0.3145309985 19:-0.1992560029 20:-0.2994279861 21:0.1712629944 22:-0.0762690008 
-16.0530204773 6:1.0000000000 11:-0.3842729926 12:0.5152279735 13:-0.1116259992 14:-0.2724649906 15:0.0572789982 16:0.1771489978 17:0.1323429942 18:-0.1578900069 19:-0.2487740070 20:0.2295839936 21:0.3824239969 22:-0.0575190000 
-32.0000000000 6:1.0000000000 11:-0.0046910001 12:0.3107599914 13:-0.0576970018 14:0.0554430000 15:0.0212399997 16:0.0329260007 17:-0.1338690072 18:-0.0636859983 19:-0.1021310017 20:0.1706659943 21:0.2728109956 22:-0.0537069999 
6.6337361336 6:1.0000000000 11:0.5929509997 12:0.2345889956 13:-0.3021659851 14:0.1004649997 15:-0.1862529963 16:0.0573659986 17:0.1657489985 18:-0.0302380007 19:-0.2844600081 20:0.0408530012 21:0.0762040019 22:0.1656039953 
-24.4371757507 2:1.0000000000 11:0.6002010107 12:0.3502810001 13:-0.3241199851 14:-0.2292930037 15:0.0699779987 16:0.0733560026 17:-0.2989659905 18:0.1340579987 19:-0.1511680037 20:0.2232809961 21:0.1182209998 22:0.0345700011 
-1.0404129028 6:1.0000000000 11:0.3597260118 12:0.4488529861 13:0.0908420011 14:-0.3967489898 15:0.1533939987 16:-0.1195539981 17:0.5737159848 18:-0.5674899817 19:-0.2989430130 20:-0.4902450144 21:0.4343979955 22:-0.1821659952 
-14.9138317108 2:1.0000000000 11:0.5659419894 12:0.3843080103 13:-0.1099269986 14:-0.0313429981 15:0.2504599988 16:-0.1684660017 17:-0.3195129931 18:0.1546549946 19:-0.1150539964 20:0.0817210004 21:0.1318510026 22:-0.3369849920 
32.0000000000 6:1.0000000000 11:-0.4051110148 12:0.1878969967 13:0.0315879993 14:0.0275090002 15:-0.0284109991 16:-0.1053849980 17:-0.0281709991 18:-0.0874679983 19:-0.0322180018 20:0.0496059991 21:0.0744849965 22:0.0215949994 
12.8706150055 2:1.0000000000 11:-0.7480289936 12:0.1712040007 13:-0.0148900002 14:-0.0614119992 15:-0.0254490003 16:-0.0219410006 17:-0.0792199969 18:-0.0946500003 19:0.0023119999 20:-0.0114669995 21:0.0476999991 22:0.0047550001 
-11.9850988388 2:1.0000000000 11:-0.0433380008 12:0.5202029943 13:-0.5812590122 14:0.0290130004 15:0.2652670145 16:-0.2130690068 17:-0.1835869998 18:-0.0656659976 19:-0.2038969994 20:-0.4187879860 21:0.0733140036 22:-0.2220589966 
29.1480445862 6:1.0000000000 11:-0.0430850014 12:0.5347899795 13:-0.0245229993 14:0.0904159993 15:0.0673189983 16:0.1022790000 17:0.1127990037 18:-0.2691259980 19:-0.3911510110 20:0.1710000038 21:0.4546740055 22:-0.0188209992 
32.0000000000 6:1.0000000000 11:0.5961319804 12:0.2333070040 13:0.0216080006 14:-0.1482689977 15:-0.0809490010 16:-0.1912280023 17:0.1425309926 18:-0.2211949974 19:-0.1213259995 20:-0.0035710000 21:0.1904300004 22:-0.0546990000 
-32.0000000000 6:1.0000000000 11:0.2163459957 12:0.2023929954 13:0.1050999984 14:-0.1025300026 15:0.0078419996 16:0.0028450000 17:0.0457499996 18:-0.0781859979 19:-0.0964410007 20:0.1626169980 21:0.0422040001 22:-0.0780310035 
2.3373878002 2:1.0000000000 11:0.2635990083 12:0.1948239952 13:-0.1590690017 14:0.0977210030 15:-0.1098759994 16:0.0356409997 17:-0.1597300023 18:-0.0187919997 19:-0.1516519934 20:0.0517559983 21:0.2368090004 22:-0.0869240016 
-0.5964444876 2:1.0000000000 11:0.2728579938 12:0.1948239952 13:-0.0833019987 14:0.0566730015 15:0.0070529999 16:0.0622290000 17:0.0345950015 18:-0.0254529994 19:-0.0785589963 20:0.0102589997 21:0.2041459978 22:-0.1977159977 
-32.0000000000 6:1.0000000000 11:-0.4042899907 12:0.1847839952 13:0.0544870012 14:0.0375589989 15:0.0213309992 16:0.0047960002 17:-0.1011559963 18:-0.0171809997 19:0.0481970012 20:0.0554269999 21:0.0628139973 22:0.0179699995 
32.0000000000 2:1.0000000000 11:0.2660009861 12:0.0929569975 13:-0.2043170035 14:-0.0982149988 15:-0.1468600035 16:0.0202900004 17:-0.0875340030 18:-0.2038120031 19:-0.0989890024 20:-0.1589230001 21:0.0444860011 22:-0.1084830016 
32.0000000000 6:1.0000000000 11:-0.0283129998 12:0.1737059951 13:-0.0319320001 14:0.0277830008 15:0.0065090000 16:0.0582100004 17:-0.0662539974 18:-0.0003950000 19:-0.1296570003 20:0.0407890007 21:0.0937390029 22:0.0053920001 
-32.0000000000 2:1.0000000000 11:-0.0339699984 12:0.1686100066 13:-0.1002219990 14:0.0462529995 15:0.1017490029 16:-0.0685380027 17:-0.0671660006 18:-0.0348929986 19:0.0094959997 20:0.0491680019 21:0.0362059996 22:0.0533760004 
7.6564192772 6:1.0000000000 11:0.0812330022 12:0.5204470158 13:0.0586309992 14:0.2025630027 15:-0.1665879935 16:-0.2320320010 17:-0.2360790074 18:-0.3888039887 19:-0.4198650122 20:0.4646050036 21:0.3955500126 22:-0.5640869737 
-32.0000000000 2:1.0000000000 11:-0.0195990000 12:0.1644289941 13:-0.1204639971 14:0.0430839993 15:0.0960329995 16:0.0090589998 17:-0.0515710004 18:-0.0628520027 19:-0.1141749993 20:-0.0955990031 21:0.0449169986 22:0.0496030003 
-5.2242035866 2:1.0000000000 11:0.4771479964 12:0.4591679871 13:-0.2297160029 14:0.1209599972 15:0.4722900093 16:-0.2134130001 17:0.0974960029 18:-0.2564469874 19:-0.2507930100 20:-0.1708450019 21:0.6808890104 22:-0.4076189995 
-0.9879099131 2:1.0000000000 11:-0.5178009868 12:0.4470520020 13:0.0024019999 14:-0.0131360004 15:0.1113289967 16:0.0840599984 17:-0.0328949988 18:-0.1752050072 19:-0.3377789855 20:0.0611060001 21:0.0874280035 22:-0.0626470000 
32.0000000000 6:1.0000000000 11:-0.3465360105 12:0.1474909931 13:0.0114529999 14:0.0301890001 15:0.0078059998 16:0.0250589997 17:-0.0122119999 18:-0.0753009990 19:-0.0363009982 20:-0.0717160031 21:0.0466989987 22:0.0086059999 
-2.8238234520 2:1.0000000000 11:0.6221259832 12:0.3018800020 13:0.0468670018 14:-0.2254039943 15:0.3090940118 16:-0.0486520007 17:0.0044880002 18:0.0135559998 19:-0.1260199994 20:0.0301569998 21:0.4251509905 22:-0.2364950031 
-6.1220116615 2:1.0000000000 11:0.6198250055 12:0.3099670112 13:-0.1132619977 14:0.0473240018 15:0.3303889930 16:-0.2290260047 17:-0.0621890016 18:-0.1665029973 19:-0.0523420013 20:0.0170270000 21:0.4304890037 22:-0.2760170102 
0.7991476655 2:1.0000000000 11:-0.3388899863 12:0.6468200088 13:-0.0408249982 14:0.0622950010 15:0.1793709993 16:-0.2445040047 17:-0.5358830094 18:-0.6365320086 19:-0.4604859948 20:0.0691839978 21:0.2616060078 22:0.0729409978 
-0.3475697637 2:1.0000000000 11:0.4315660000 12:0.4886470139 13:-0.8304730058 14:0.4915719926 15:0.1581629962 16:0.0505499989 17:0.0241310000 18:0.0830169991 19:-0.1247040033 20:0.0307839997 21:0.6874330044 22:-0.8143540025 
32.0000000000 2:1.0000000000 11:0.0839300007 12:0.2186889946 13:-0.2069990039 14:0.1069680005 15:0.2448340058 16:-0.0755269974 17:-0.0714979991 18:0.0150790000 19:-0.0476000011 20:-0.0075300001 21:0.2654460073 22:0.0085359998 
3.3525829315 2:1.0000000000 11:0.2315640002 12:0.1997680068 13:-0.1118550003 14:0.1243069991 15:0.0540169999 16:-0.1006620005 17:0.0459659994 18:-0.1177510023 19:-0.0919520035 20:0.0539080016 21:0.2002830058 22:-0.0742280036 
-3.6300387383 6:1.0000000000 11:0.0531359985 12:0.4836730063 13:-0.1522369981 14:-0.0783340037 15:-0.1872030050 16:-0.1525270045 17:0.0908830017 18:-0.2442499995 19:-0.2357500046 20:0.2909219861 21:0.4333029985 22:-0.4992470145 
32.0000000000 6:1.0000000000 11:-0.7287099957 12:0.1684879959 13:0.0177120008 14:0.0259489994 15:0.0123870000 16:-0.0415810011 17:0.0144980000 18:-0.0842140019 19:-0.0443149991 20:0.0279409997 21:-0.0019560000 22:-0.0026070001 
-19.5422515869 2:1.0000000000 11:-0.7304689884 12:0.1719969958 13:0.0065400000 14:0.0152730001 15:-0.0214970000 16:-0.0027880000 17:0.0094360001 18:-0.0106800003 19:0.0141009996 20:-0.0304090008 21:0.0243309997 22:-0.0086949999 
32.0000000000 2:1.0000000000 11:-0.3601439893 12:0.1474909931 13:-0.0047929999 14:0.0213479996 15:0.0601489991 16:-0.0114860004 17:-0.0273119994 18:-0.0633009970 19:-0.0274180006 20:-0.0659840032 21:-0.0109479995 22:-0.0516549982 
-10.6810312271 6:1.0000000000 11:-0.7350270152 12:0.1710810065 13:0.0155959995 14:0.0239109993 15:0.0116100004 16:-0.0423780009 17:-0.0719100013 18:-0.0321060009 19:0.0166720003 20:0.0211469997 21:-0.0017100000 22:-0.0029889999 
-0.8530595303 6:1.0000000000 11:0.4901350141 12:0.4132690132 13:0.0395749994 14:-0.2540900111 15:-0.1412950009 16:-0.0296170004 17:0.5891429782 18:-0.6652010083 19:-0.1168299988 20:-0.5838549733 21:0.2464330047 22:-0.5672230124 
-14.0195779800 6:1.0000000000 11:-0.5003700256 12:0.3904420137 13:-0.1305239946 14:0.2821980119 15:0.2816759944 16:0.1920340061 17:-0.0040210001 18:-0.1568270028 19:-0.2204280049 20:-0.2881000042 21:-0.0070549999 22:-0.0909700021 
32.0000000000 2:1.0000000000 11:0.6118199825 12:0.2333070040 13:-0.0592419989 14:-0.0249320008 15:0.1355859935 16:0.0631029978 17:-0.3835189939 18:0.0915590003 19:-0.2010650039 20:0.0569700003 21:0.3107070029 22:-0.3173620105 
30.2940711975 6:1.0000000000 11:-0.5486959815 12:0.4534299970 13:0.0047579999 14:0.0362860002 15:0.0613059998 16:-0.0016139999 17:-0.2604320049 18:-0.0690350011 19:0.1729360074 20:-0.0686749965 21:0.2105039954 22:0.2031929940 
-32.0000000000 6:1.0000000000 11:-0.3923009932 12:0.1828310043 13:0.0085760001 14:0.0181990005 15:0.0069060000 16:-0.0117229996 17:-0.1114299968 18:-0.0452420004 19:0.0131540000 20:0.0248729996 21:0.0540810004 22:-0.0489500016 
6.5513305664 2:1.0000000000 11:0.2307099998 12:0.2004390061 13:-0.1239940003 14:0.1010999978 15:-0.1041909978 16:-0.0974749997 17:0.0808050036 18:-0.1145929992 19:-0.0829939991 20:0.0974650010 21:0.2208199948 22:-0.1094489992 
-32.0000000000 2:1.0000000000 11:-0.7374680042 12:0.1494449973 13:-0.0365930013 14:-0.0121550001 15:-0.0654129982 16:-0.0435190015 17:-0.0888449997 18:-0.0475489981 19:-0.0217160005 20:-0.0404770002 21:-0.0046259998 22:-0.0382220000 
14.5659580231 2:1.0000000000 11:0.2627499998 12:0.3543089926 13:-0.1173119992 14:0.2441249937 15:-0.2243379951 16:-0.0434379987 17:-0.0110080000 18:-0.1135509983 19:-0.2637529969 20:-0.0756779984 21:0.2777430117 22:-0.0770319998 
-0.3839936256 2:1.0000000000 11:-0.0471590012 12:0.5216370225 13:-0.2106180042 14:0.1647060066 15:0.1661970019 16:-0.3076879978 17:-0.2093189955 18:-0.0812819973 19:-0.2252819985 20:0.1038900018 21:0.2879570127 22:-0.0450149998 
32.0000000000 2:1.0000000000 11:0.3377420008 12:0.0941469967 13:-0.1773959994 14:-0.1245620027 15:-0.0904290006 16:0.0402520001 17:-0.1608480066 18:-0.1783310026 19:-0.1293780059 20:-0.1583759934 21:0.0833770037 22:-0.1623360068 
31.9920253754 6:1.0000000000 11:-0.4142749906 12:0.1919559985 13:-0.1307290047 14:-0.1097939983 15:0.0285139997 16:0.0550180003 17:0.0104139997 18:-0.0850979984 19:-0.0145509997 20:0.0546949990 21:0.0733669996 22:0.0246329997 
-7.5771517754 6:1.0000000000 11:0.0587849990 12:0.2219540030 13:-0.0891600028 14:0.0792689994 15:0.0068979999 16:-0.0445670001 17:0.0401320010 18:-0.1803130060 19:-0.1401160061 20:0.0421519987 21:0.2061399966 22:-0.0474830009 
32.0000000000 2:1.0000000000 11:-0.4994600117 12:0.0866999999 13:-0.0875929967 14:-0.0777970031 15:-0.0687050000 16:-0.0794870034 17:-0.0582659990 18:-0.0689859986 19:-0.0753739998 20:-0.0523220003 21:-0.0524390005 22:-0.0593100004 
-27.5671672821 6:1.0000000000 11:0.0121010002 12:0.2521969974 13:-0.0698629990 14:0.0328419991 15:-0.0773940012 16:-0.1593530029 17:0.0375499986 18:-0.1097880006 19:-0.2084069997 20:0.0149490004 21:0.1859180033 22:-0.0225460008 
-32.0000000000 6:1.0000000000 11:-0.0188909993 12:0.1644289941 13:-0.0072240001 14:-0.0081630005 15:-0.0099179996 16:0.0575410016 17:0.0045179999 18:0.0046190000 19:-0.1142280027 20:0.0533110015 21:0.0619679987 22:-0.1144099981 
32.0000000000 6:1.0000000000 11:-0.7247539759 12:0.1686100066 13:0.0061769998 14:0.0101439999 15:0.0222849995 16:-0.0314080007 17:0.0102739995 18:-0.0788889974 19:-0.0221069995 20:0.0135639999 21:-0.0249959994 22:-0.0256650001 
-32.0000000000 2:1.0000000000 11:0.1303489953 12:0.4176940024 13:-0.2530530095 14:0.3170709908 15:-0.0881090015 16:-0.3645089865 17:-0.0958070010 18:-0.0248879995 19:-0.2763380110 20:-0.0656360015 21:0.4393959939 22:-0.1363569945 
32.0000000000 6:1.0000000000 11:-0.0340950005 12:0.1670529991 13:-0.0204620007 14:0.0257859994 15:-0.0130519997 16:0.0533589981 17:-0.0568559989 18:0.0133269997 19:-0.1344549954 20:0.0417339988 21:0.1220249981 22:0.0219790004 
-1.3634552956 2:1.0000000000 11:-0.7628840208 12:0.1715999991 13:-0.0903550014 14:-0.0231229998 15:-0.0184199996 16:-0.0174930003 17:-0.0323130004 18:-0.0307870004 19:-0.0065549999 20:-0.0291120000 21:-0.0159840006 22:-0.0301840007 
-10.7726135254 6:1.0000000000 11:-0.4120999873 12:0.2092899978 13:0.0005200000 14:0.0064679999 15:0.0309430007 16:-0.0067770001 17:-0.1264239997 18:-0.0244479999 19:0.0279910006 20:0.0350149982 21:0.0568469986 22:0.0172060002 
-32.0000000000 6:1.0000000000 11:0.1296299994 12:0.0521549992 13:-0.0717720017 14:-0.1426600069 15:-0.1104950011 16:-0.1381269991 17:-0.0196170006 18:-0.0978550017 19:-0.1910019964 20:-0.1026510000 21:-0.0388370007 22:-0.2089899927 
-4.1063799858 2:1.0000000000 11:-0.5170869827 12:0.3429569900 13:0.1131149977 14:-0.0336459987 15:-0.0108289998 16:0.0109639997 17:-0.0172630008 18:-0.0484930016 19:-0.0565549992 20:-0.0090950001 21:-0.0188229997 22:-0.0734990016 
-32.0000000000 2:1.0000000000 11:-0.0257849991 12:0.1528320014 13:-0.1419029981 14:-0.0022410001 15:0.0990120023 16:-0.0073770001 17:-0.0436940007 18:-0.0472569987 19:-0.0801120028 20:-0.0020639999 21:0.0442540012 22:0.0372599997 
-7.7510542870 6:1.0000000000 11:0.0930979997 12:0.5204470158 13:0.2287780046 14:0.3245129883 15:-0.0993290022 16:-0.0428010002 17:0.1765169948 18:-0.5786049962 19:-0.4215500057 20:-0.2403730005 21:0.3964110017 22:-0.3700380027 
32.0000000000 6:1.0000000000 11:0.0323610008 12:0.2489320040 13:-0.0341899991 14:-0.0259990003 15:-0.1344799995 16:-0.0405200012 17:-0.0211759992 18:-0.0116769997 19:-0.2309769988 20:0.1033869982 21:0.2325199991 22:-0.1500750035 
-6.8466753960 2:1.0000000000 11:0.5514249802 12:0.2368160039 13:-0.0658809990 14:0.0351030007 15:0.2270510048 16:-0.0126649998 17:-0.0494650006 18:-0.0777330026 19:-0.1165869981 20:-0.0870790035 21:0.2662149966 22:-0.2069019973 
-6.1692800522 6:1.0000000000 11:0.0709130019 12:0.0437930003 13:-0.0197509993 14:-0.1483979970 15:-0.1204349995 16:-0.1322519928 17:-0.0023030001 18:-0.1007089987 19:-0.1866849959 20:-0.1259910017 21:-0.0320000015 22:-0.1805779934 
32.0000000000 2:1.0000000000 11:0.0269230008 12:0.1792909950 13:-0.1035199985 14:0.0944769979 15:0.0997610018 16:-0.0398610011 17:-0.0730179995 18:-0.0458439998 19:-0.0309059992 20:0.0486240014 21:0.0516760014 22:0.0477639996 
32.0000000000 2:1.0000000000 11:0.0533180013 12:0.2233889997 13:-0.1633149981 14:0.0842590034 15:0.1610130072 16:-0.1044500023 17:-0.1138100028 18:-0.0618110001 19:-0.0912460014 20:-0.0965429991 21:0.0418470018 22:-0.1554629952 
12.5760469437 6:1.0000000000 11:-0.4025650024 12:0.1976930052 13:0.0236300007 14:0.0270559993 15:0.0173630007 16:0.0339239985 17:-0.0153000001 18:-0.1166220009 19:-0.0640669987 20:-0.0995120034 21:0.0270179994 22:0.0248130001 
32.0000000000 6:1.0000000000 11:-0.0566090010 12:0.1854249984 13:-0.1037689969 14:-0.0698039979 15:-0.0582639985 16:0.0643730015 17:-0.0002530000 18:-0.0085850004 19:-0.0943289995 20:0.0622440018 21:0.1091130003 22:0.0169360004 
32.0000000000 2:1.0000000000 11:-0.0390519984 12:0.1652220041 13:-0.1099449992 14:0.0276759993 15:0.0934709981 16:0.0021080000 17:-0.0679600015 18:-0.0790439993 19:-0.0319969989 20:0.0722820014 21:0.0242149998 22:-0.0260230005 
32.0000000000 2:1.0000000000 11:0.0291050002 12:0.1781309992 13:-0.1231369972 14:0.0865010023 15:0.1071410030 16:-0.0571639985 17:-0.0955540016 18:-0.0272969995 19:-0.0414149985 20:0.0334479995 21:0.0383809991 22:0.0634720027 
-32.0000000000 2:1.0000000000 11:0.2350369990 12:0.2471009940 13:-0.3031010032 14:0.0808139965 15:0.0984620005 16:-0.1455440074 17:0.1561630070 18:-0.1987829953 19:-0.0753299966 20:0.0217669997 21:0.3176119924 22:-0.0093649998 
32.0000000000 2:1.0000000000 11:-0.3421689868 12:0.1473390013 13:-0.0282879993 14:0.0369249992 15:0.0415089987 16:-0.0105280001 17:-0.0221379995 18:-0.0681290030 19:-0.0024300001 20:0.0225370005 21:0.0278580002 22:0.0137689998 
-32.0000000000 6:1.0000000000 11:-0.3413540125 12:0.1404419988 13:-0.0167830009 14:-0.0081860004 15:-0.0770929977 16:0.0194520000 17:0.0221439991 18:-0.0395449996 19:-0.0766170025 20:0.0122370003 21:0.0575570017 22:-0.0122680003 
-0.1862672567 6:1.0000000000 11:0.5072739720 12:0.4538269937 13:0.1684110016 14:-0.3563959897 15:-0.0241289996 16:-0.3447009921 17:0.6485249996 18:-0.6922169924 19:0.0455849990 20:-0.2371969968 21:0.7671610117 22:-0.3169299960 
32.0000000000 6:1.0000000000 11:0.0310619995 12:0.0437930003 13:-0.0448689982 14:-0.1104599983 15:-0.1178700030 16:-0.0840990022 17:-0.1688109934 18:0.0071160002 19:-0.1571310014 20:-0.1156420037 21:-0.0657849982 22:-0.1562660038 
-32.0000000000 6:1.0000000000 11:0.0236360002 12:0.2501220107 13:-0.2227029949 14:-0.1597770005 15:-0.0611540005 16:0.0233050007 17:-0.0932129994 18:-0.0035659999 19:-0.1089010015 20:0.1152210012 21:0.2001039982 22:-0.0650350004 
-0.4955945611 6:1.0000000000 11:-0.5237159729 12:0.3762210011 13:-0.2910400033 14:-0.0780780017 15:-0.2215570062 16:0.0034040001 17:0.0224239994 18:-0.0573409982 19:-0.0212120004 20:0.0413080007 21:0.0830539986 22:0.0169789996 
32.0000000000 2:1.0000000000 11:0.1937559992 12:0.2012020051 13:-0.1385640055 14:0.1189370006 15:-0.1029440016 16:-0.0672969967 17:-0.0944359973 18:-0.0599110015 19:-0.0682659969 20:-0.0188660007 21:0.2518230081 22:-0.0731090009 
-32.0000000000 6:1.0000000000 11:-0.3971250057 12:0.1872559935 13:0.0294349995 14:0.0192479994 15:0.0027069999 16:0.0028959999 17:-0.0227819998 18:-0.0778919980 19:-0.0331050009 20:0.0311409999 21:0.0503440015 22:-0.0092329998 
32.0000000000 2:1.0000000000 11:0.1757519990 12:0.2062990069 13:-0.1169740036 14:0.0093679996 15:0.0035359999 16:-0.0116950003 17:-0.1220770031 18:-0.0142959999 19:-0.0666999966 20:0.0443140008 21:0.2607569993 22:-0.0636549965 
-32.0000000000 2:1.0000000000 11:0.0203339998 12:0.2498469949 13:-0.1125639975 14:0.1123190001 15:0.2162690014 16:-0.0727970004 17:-0.0620019995 18:-0.0317590013 19:-0.1489419937 20:-0.0110860001 21:0.1173179969 22:0.0194119997 
32.0000000000 6:1.0000000000 11:-0.3917919993 12:0.1859440058 13:0.0164780002 14:0.0229090005 15:0.0179450009 16:0.0384039991 17:-0.0182910003 18:-0.1047360003 19:-0.0563130006 20:-0.0941739976 21:0.0376750007 22:0.0259639993 
32.0000000000 2:1.0000000000 11:0.0140540004 12:0.4641110003 13:-0.1611360013 14:0.2187059969 15:0.3247799873 16:-0.2213869989 17:-0.2268120050 18:-0.1165179983 19:-0.1927130073 20:-0.2717280090 21:0.2179960012 22:-0.0284369998 
-32.0000000000 6:1.0000000000 11:-0.0286970008 12:0.1524350047 13:-0.0520499982 14:-0.0095269997 15:-0.0006450000 16:0.0395230018 17:0.0125869997 18:-0.0520269983 19:-0.1295190006 20:-0.0033400001 21:0.0991590023 22:-0.0075160000 
32.0000000000 2:1.0000000000 11:0.6022859812 12:0.2482910007 13:-0.0132280001 14:-0.1076690033 15:0.3152100146 16:-0.1969850063 17:-0.0620100014 18:-0.1293170005 19:-0.1006089970 20:-0.0132539999 21:0.3175770044 22:-0.1651390046 
-32.0000000000 2:1.0000000000 11:-0.0676700026 12:0.1572570056 13:-0.0814379975 14:0.0265570004 15:0.0681800023 16:0.0120160002 17:-0.0292559993 18:-0.0522589982 19:-0.0872320011 20:0.0238039996 21:0.0622630008 22:0.0227550007 
-14.6961364746 2:1.0000000000 11:0.0348690003 12:0.2268979996 13:-0.1583469957 14:0.0750610009 15:0.0496900007 16:-0.2932099998 17:-0.2035170048 18:-0.0363360010 19:0.0043150000 20:0.0994720012 21:0.0536310002 22:0.0217359997 
-14.9146642685 2:1.0000000000 11:0.5454990268 12:0.2411189973 13:-0.0365520008 14:-0.0747070014 15:0.0753260031 16:-0.0994390026 17:-0.0149149997 18:0.0328410007 19:-0.0917470008 20:0.0810450017 21:0.1599909961 22:-0.1073210016 
32.0000000000 2:1.0000000000 11:0.0533180013 12:0.2211609930 13:-0.1239160001 14:0.0533809997 15:-0.0308960006 16:-0.1135070026 17:-0.0568149984 18:-0.0820090026 19:-0.1783200055 20:-0.0185979996 21:0.0997629985 22:0.0891780034 
-32.0000000000 2:1.0000000000 11:0.0421909988 12:0.2250670046 13:-0.2476669997 14:0.1123260036 15:0.1658000052 16:-0.1604930013 17:-0.1018600017 18:-0.0139119998 19:-0.0101410002 20:0.0796540007 21:0.0639069974 22:-0.0486599989 
32.0000000000 2:1.0000000000 11:0.0587959997 12:0.2265010029 13:-0.0639050007 14:0.1047319993 15:0.2247440070 16:-0.0530910008 17:-0.0720629990 18:0.0005950000 19:-0.0430449992 20:0.0690250024 21:0.0956220031 22:0.0885569975 
-32.0000000000 6:1.0000000000 11:0.0399830006 12:0.2282100022 13:-0.0924689993 14:0.0761139989 15:0.0128830001 16:0.0318790004 17:-0.1198220029 18:-0.0008760000 19:-0.1068880036 20:0.0918489993 21:0.0143120000 22:-0.0912220031 
-1.8441011906 2:1.0000000000 11:-0.3942539990 12:0.1854249984 13:-0.0033970000 14:0.0172850005 15:0.0371019989 16:-0.0590929985 17:-0.1136649996 18:-0.0533410013 19:-0.1010560021 20:0.0214620009 21:0.0574520007 22:0.0149459997 
-1.2835500240 2:1.0000000000 11:-0.7504919767 12:0.1761779934 13:0.0026750001 14:0.0080890004 15:-0.0750790015 16:0.0022239999 17:-0.0738869980 18:-0.0036609999 19:0.0477899984 20:0.0360939987 21:0.0348049998 22:-0.0022140001 
-0.2385023534 6:1.0000000000 11:0.5324119925 12:0.3926700056 13:0.1937389970 14:-0.0644719973 15:-0.1570640057 16:-0.2672750056 17:0.4811770022 18:-0.3205910027 19:-0.2156510055 20:0.1418679953 21:0.5264250040 22:-0.3244299889 
-31.1471576691 6:1.0000000000 11:0.2608560026 12:0.1929930001 13:0.0956669971 14:-0.0061610001 15:-0.0760470033 16:-0.0390259996 17:0.1101799980 18:-0.1116229966 19:-0.1438789964 20:0.1058669984 21:0.0392320007 22:0.0411829986 
32.0000000000 2:1.0000000000 11:-0.0242679995 12:0.1647029966 13:-0.1142280027 14:0.0533110015 15:0.0619679987 16:-0.1144099981 17:-0.0862430036 18:-0.0635040030 19:-0.0255420003 20:0.0252030008 21:-0.0825380012 22:0.0388180017 
-32.0000000000 6:1.0000000000 11:-0.3707259893 12:0.1429139972 13:-0.0253379997 14:-0.0058940002 15:-0.0183669999 16:-0.0086939996 17:-0.0076979999 18:-0.0677860007 19:-0.1052619964 20:-0.0168249998 21:0.0235859994 22:-0.0313379988 
-32.0000000000 2:1.0000000000 11:0.1814450026 12:0.2048649937 13:-0.2420420051 14:0.0556199998 15:0.1683260053 16:-0.1740310043 17:0.0779939964 18:-0.0557489991 19:-0.0448610000 20:0.0959020033 21:0.2111140043 22:-0.0823749974 
32.0000000000 6:1.0000000000 11:-0.0862110034 12:0.5025939941 13:-0.0252500009 14:0.0543150008 15:-0.0826980025 16:-0.3220640123 17:0.0275350008 18:-0.1834869981 19:-0.2255939990 20:0.0857859999 21:-0.0550890006 22:0.0053539998 
-32.0000000000 6:1.0000000000 11:-0.3220109940 12:0.1384889930 13:-0.0061510000 14:0.0234760009 15:0.0117269997 16:0.0172160007 17:0.0179520007 18:-0.0295480005 19:-0.0120320003 20:0.0136799999 21:-0.0651409999 22:-0.0299950000 
-1.6795978546 6:1.0000000000 11:-0.0494569987 12:0.1602479964 13:-0.0771220028 14:-0.0751930028 15:-0.0236910004 16:0.0505779982 17:0.0188239999 18:-0.0163930003 19:-0.1417309940 20:-0.0047990000 21:0.0770480037 22:-0.0492740013 
21.0345726013 2:1.0000000000 11:0.3931919932 12:0.4562990069 13:-0.1773820072 14:0.1909960061 15:0.3750379980 16:-0.4392130077 17:-0.1004040018 18:-0.5985249877 19:-0.0405949987 20:-0.0559309982 21:0.6221330166 22:-0.2753129900 
-32.0000000000 6:1.0000000000 11:-0.2177489996 12:0.0561829992 13:-0.0981900021 14:-0.0769980028 15:-0.0675060004 16:-0.0914689973 17:-0.0686499998 18:-0.0874840021 19:-0.0921050012 20:-0.0762680024 21:-0.0587630011 22:-0.0997909978 
29.1178131104 2:1.0000000000 11:0.1206789985 12:0.4272159934 13:-0.5717750192 14:-0.0350000001 15:0.2970229983 16:-0.2559570074 17:0.0051679998 18:-0.0090110004 19:-0.2448700070 20:0.0755949989 21:0.5159379840 22:-0.1970250010 
-21.4503707886 2:1.0000000000 11:0.4488259852 12:0.1131900027 13:-0.1197249964 14:-0.1184369996 15:-0.0135840001 16:0.0309200007 17:-0.2264350057 18:-0.1517149955 19:-0.1447660029 20:-0.1257050037 21:0.1619829983 22:-0.2239439934 
-1.8646221161 6:1.0000000000 11:-0.5909150243 12:0.6976929903 13:-0.2359849960 14:-0.6442559958 15:-0.3156729937 16:0.1904879957 17:0.1118540019 18:0.0164810009 19:0.2917880118 20:0.3022029996 21:0.0863230005 22:-0.1842830032 
32.0000000000 6:1.0000000000 11:-0.0408749990 12:0.1596069932 13:-0.0176599994 14:-0.0024260001 15:-0.0408160016 16:-0.0679650009 17:-0.0548020005 18:-0.0646750033 19:-0.1727979928 20:-0.0175730009 21:-0.0765440017 22:-0.1746219993 
-1.6508716345 2:1.0000000000 11:0.4451580048 12:0.2698059976 13:-0.0786039978 14:0.0962300003 15:0.2638339996 16:0.0765160024 17:0.0120500000 18:0.0527479984 19:-0.0775460005 20:0.1006229967 21:0.4282419980 22:-0.2206960022 
-32.0000000000 2:1.0000000000 11:0.1989050061 12:0.2009579986 13:-0.1548900008 14:0.1082189977 15:0.0366719998 16:-0.0917479992 17:0.1125639975 18:-0.0822229981 19:-0.2061019987 20:-0.0485300012 21:0.2480899990 22:-0.1912530065 
6.2143611908 6:1.0000000000 11:0.5191609859 12:0.3926700056 13:-0.4791379869 14:0.3156279922 15:-0.2380360067 16:0.1026389971 17:-0.1581809968 18:-0.4795989990 19:-0.4878750145 20:0.0516740009 21:0.4882969856 22:-0.1945459992 
30.2581424713 2:1.0000000000 11:0.6248469949 12:0.3069759905 13:-0.1271850020 14:-0.0062130000 15:0.4659489989 16:-0.1429360062 17:-0.1496639997 18:-0.0534829982 19:-0.1803500056 20:-0.0299379993 21:0.5407760143 22:-0.2844470143 
32.0000000000 6:1.0000000000 11:-0.0774310008 12:0.1650999933 13:-0.0339000002 14:-0.0052339998 15:-0.0194440000 16:0.0213210005 17:-0.0539930016 18:-0.0362569988 19:-0.1141979992 20:0.0005130000 21:-0.0635429993 22:-0.0013260000 
-0.1433418989 2:1.0000000000 11:-0.3783139884 12:0.4823909998 13:-0.2382140011 14:-0.4208799899 15:-0.2372149974 16:0.0060120001 17:0.0080890004 18:-0.0959260017 19:-0.1123159975 20:-0.0714830011 21:-0.1175820008 22:0.1156760007 
32.0000000000 2:1.0000000000 11:0.2313259989 12:0.1979369968 13:-0.1029179990 14:0.0978050008 15:0.0861869976 16:-0.1151679978 17:0.0516939983 18:-0.0942159966 19:-0.1093280017 20:0.0393720008 21:0.2379540056 22:-0.0917930007 
-32.0000000000 2:1.0000000000 11:0.0155360000 12:0.1547850072 13:-0.1662950069 14:0.0476469994 15:0.0939470008 16:-0.0144280000 17:-0.0516019985 18:-0.0445370004 19:-0.1010869965 20:-0.0187650006 21:0.0537699983 22:0.0498340018 
32.0000000000 6:1.0000000000 11:-0.0333650000 12:0.1645510048 13:-0.0232839994 14:-0.0108880000 15:-0.0017980000 16:0.0731879994 17:-0.0612110011 18:0.0035319999 19:-0.1487610042 20:0.0389610007 21:0.1010159999 22:0.0036539999 
32.0000000000 2:1.0000000000 11:0.0441659987 12:0.2270199955 13:-0.1785050035 14:-0.0213339999 15:-0.0342620015 16:-0.0480669998 17:-0.0451380014 18:-0.0157370009 19:-0.0547249988 20:0.0017810001 21:0.2208849937 22:-0.0864449963 
-32.0000000000 2:1.0000000000 11:-0.1269530058 12:0.5327150226 13:-0.1144070029 14:0.1177219972 15:0.2771579921 16:-0.2185789943 17:-0.2835089862 18:-0.1898760051 19:-0.2520520091 20:0.0253919996 21:0.3734900057 22:0.0317629986 
-32.0000000000 2:1.0000000000 11:0.2310889959 12:0.0929569975 13:-0.2044370025 14:-0.1213769987 15:-0.1587669998 16:-0.0245639998 17:-0.0920389965 18:-0.1999080032 19:-0.1121599972 20:-0.1571020037 21:-0.0072949999 22:-0.0907180011 
32.0000000000 6:1.0000000000 11:-0.0576369986 12:0.1881709993 13:0.0238259993 14:0.0378260016 15:0.0164759997 16:0.0695649981 17:-0.0355880000 18:-0.0125380000 19:-0.0992500037 20:0.0620770007 21:0.1389860064 22:0.0340070017 
-32.0000000000 2:1.0000000000 11:-0.4228239954 12:0.0747070014 13:-0.0723130032 14:-0.0699030012 15:-0.0580440015 16:-0.0654409975 17:-0.0760999992 18:-0.0619140007 19:-0.0700670034 20:-0.0460009985 21:-0.0376579985 22:-0.0572549999 
-1.0185492039 2:1.0000000000 11:-0.5438600183 12:0.4534299970 13:-0.1533869952 14:-0.1142940000 15:-0.1025779992 16:-0.1975020021 17:-0.1591800004 18:-0.1020070016 19:-0.0265439991 20:-0.0435740016 21:0.0879990011 22:0.0726760030 
-16.3610858917 6:1.0000000000 11:0.3038370013 12:0.2425539941 13:0.1757220030 14:-0.0476710014 15:-0.1461129934 16:-0.1543779969 17:0.1999550015 18:-0.0467909984 19:-0.2304490060 20:-0.0890230015 21:0.1553989947 22:-0.1066170037 
32.0000000000 2:1.0000000000 11:-0.3423449993 12:0.1461790055 13:-0.0081280004 14:0.0207930002 15:0.0481959991 16:-0.0181580000 17:-0.0252540000 18:-0.0568489991 19:0.0038050001 20:0.0318900011 21:0.0305920001 22:-0.0099919997 
-6.1369009018 6:1.0000000000 11:-0.4566639960 12:0.2288510054 13:0.0341570005 14:0.0252020005 15:0.0192970000 16:-0.0178759992 17:-0.1332020015 18:-0.0300570000 19:0.0366009995 20:0.0250339992 21:0.0620930009 22:0.0122860000 
32.0000000000 6:1.0000000000 11:0.0305640008 12:0.2317200005 13:-0.0492310002 14:0.0665329993 15:0.0387019999 16:0.0351839997 17:0.0644520000 18:-0.0888850018 19:-0.2264200002 20:0.1012559980 21:0.2194669992 22:-0.0074490001 
-32.0000000000 6:1.0000000000 11:-0.3973290026 12:0.1906429976 13:0.0185180008 14:0.0063990001 15:-0.0268200003 16:-0.0862289965 17:-0.1596210003 18:-0.0948129967 19:-0.0758699998 20:0.0088950004 21:0.0488470010 22:-0.0054540001 
-32.0000000000 2:1.0000000000 11:-0.0661450028 12:0.1623540074 13:-0.0807949975 14:0.0126090003 15:0.0710650012 16:-0.0108209997 17:-0.0421090014 18:-0.0550559983 19:-0.1117589995 20:0.0074089998 21:0.0371089987 22:-0.0519570000 
-3.4654593468 2:1.0000000000 11:-0.4014570117 12:0.1872559935 13:0.0409869999 14:0.0528439991 15:0.0653470010 16:-0.0310479999 17:-0.1080039963 18:0.0007070000 19:0.0388350002 20:0.0538160019 21:0.0566410013 22:0.0158130005 
-32.0000000000 2:1.0000000000 11:-0.0502449982 12:0.1697690040 13:-0.0815149993 14:0.0285149999 15:0.1013770029 16:0.0121660000 17:-0.0258029997 18:-0.0414980017 19:-0.0997179970 20:0.0304749999 21:0.0452620015 22:0.0492069982 
-32.0000000000 2:1.0000000000 11:0.2311369926 12:0.2000429928 13:-0.2750859857 14:0.1660719961 15:-0.0871319994 16:-0.1182549968 17:-0.0155950002 18:-0.0824439973 19:-0.0015490000 20:0.0277180001 21:0.2241279930 22:-0.1828269958 
32.0000000000 2:1.0000000000 11:0.5859090090 12:0.2381290048 13:-0.2192530036 14:0.0097660003 15:0.2566570044 16:0.0329300016 17:-0.2115879953 18:0.0428690016 19:-0.1335770041 20:0.0264660008 21:0.4319480062 22:-0.2746619880 
-32.0000000000 2:1.0000000000 11:-0.0483219996 12:0.1672970057 13:-0.0900800005 14:0.0339699984 15:0.0883999988 16:0.0190609992 17:-0.0163729992 18:-0.0511969998 19:-0.0937189981 20:0.0198149998 21:-0.0160060003 22:0.0090490002 
-1.5109553337 6:1.0000000000 11:-0.7189949751 12:0.1751399934 13:0.0350320004 14:0.0403020009 15:0.0287009999 16:0.0043819998 17:0.0221050009 18:-0.0175909996 19:-0.0003560000 20:0.0309519991 21:0.0005500000 22:-0.0103289997 
-32.0000000000 2:1.0000000000 11:0.2781000137 12:0.1988520026 13:-0.1445489973 14:0.0639640018 15:0.0554849990 16:-0.1131120026 17:0.0722019970 18:-0.2588840127 19:-0.0505549982 20:-0.0778020024 21:0.2686359882 22:-0.1638900042 
14.5710296631 6:1.0000000000 11:-0.3149220049 12:0.5307620168 13:-0.1297249943 14:-0.2911460102 15:-0.0136439996 16:0.1398269981 17:0.0545179993 18:-0.3165920079 19:-0.2215940058 20:-0.2843349874 21:0.0203380007 22:-0.4118939936 
22.7334728241 2:1.0000000000 11:0.6114140153 12:0.3128359914 13:0.0799729973 14:-0.2248490006 15:0.2355719954 16:-0.2801110148 17:-0.3385689855 18:-0.1115809977 19:-0.2204159945 20:0.1155169979 21:0.5805130005 22:-0.2335609943 
-9.2946567535 6:1.0000000000 11:0.2118290067 12:0.4536739886 13:0.0972200036 14:-0.2004770041 15:-0.0441300012 16:0.2324990034 17:0.1198590025 18:-0.0776690021 19:-0.1979520023 20:0.1855379939 21:0.1870439947 22:-0.1304820031 
-25.3848800659 6:1.0000000000 11:-0.4090029895 12:0.0756229982 13:-0.0796559975 14:-0.0749709979 15:-0.0692770034 16:-0.0814870000 17:-0.0859299973 18:-0.0747940019 19:-0.0723130032 20:-0.0699030012 21:-0.0580440015 22:-0.0654409975 
-32.0000000000 6:1.0000000000 11:0.0534479991 12:0.2243040055 13:-0.0476719998 14:0.0743440017 15:-0.0353589989 16:-0.0213169996 17:-0.1293359995 18:0.0000130000 19:-0.1399269998 20:0.0982529968 21:0.1727740020 22:-0.1056199968 
3.4843451977 6:1.0000000000 11:-0.0345330015 12:0.1596069932 13:-0.0601599999 14:0.0018640000 15:-0.0117640002 16:0.0379219986 17:-0.0513579994 18:-0.0683910027 19:-0.1649820060 20:0.0081829997 21:0.0893279985 22:0.0104999999 
-32.0000000000 2:1.0000000000 11:-0.4705399871 12:0.0817570016 13:-0.0591370016 14:-0.0785019994 15:-0.0540350005 16:-0.0666460022 17:-0.0984679982 18:-0.0818670020 19:-0.0845040008 20:-0.0674149990 21:-0.0671290010 22:-0.0848089978 
32.0000000000 2:1.0000000000 11:0.0614329986 12:0.2211609930 13:-0.1037100032 14:0.1056620032 15:0.2005179971 16:-0.0665460005 17:-0.0781029984 18:-0.0180779994 19:-0.0751980022 20:-0.0255619995 21:0.2304739952 22:0.0026149999 
-32.0000000000 6:1.0000000000 11:-0.0693489984 12:0.1567379981 13:-0.0319069996 14:-0.0206289999 15:-0.0257939994 16:-0.0118709998 17:-0.0996790007 18:-0.0885739997 19:-0.1870190054 20:-0.0184370000 21:0.0424209982 22:-0.0691960007 
2.8443777561 2:1.0000000000 11:-0.5344259739 12:0.4333499968 13:0.0625459999 14:0.0803409964 15:0.0753329992 16:-0.1178409979 17:-0.3584530056 18:-0.1562339962 19:0.1788170040 20:0.1058830023 21:-0.0609799996 22:-0.1681060046 
32.0000000000 6:1.0000000000 11:-0.3566600084 12:0.1476130038 13:0.0254299995 14:0.0412140004 15:0.0077780001 16:0.0303070005 17:-0.0065110000 18:-0.0819350034 19:-0.0376590006 20:0.0289420001 21:0.0677039996 22:-0.0019070000 
-32.0000000000 2:1.0000000000 11:0.5393949747 12:0.2438659966 13:0.0665099993 14:-0.0161589999 15:0.1835999936 16:0.0096260002 17:-0.2208980024 18:0.0322719999 19:-0.1811469942 20:-0.0268339999 21:0.3675299883 22:-0.2264679968 
32.0000000000 2:1.0000000000 11:0.2334170043 12:0.1979369968 13:-0.1270360053 14:0.1041029990 15:0.0805609971 16:-0.1156819984 17:0.0256629996 18:-0.0828630030 19:-0.1070960015 20:0.0598019995 21:0.2041669935 22:-0.0861869976 
31.9913940430 2:1.0000000000 11:0.0178319998 12:0.2510380149 13:-0.2275599986 14:0.0396240018 15:0.1757110059 16:-0.0393129997 17:-0.1065870002 18:-0.0530730002 19:-0.0641530007 20:0.0463869981 21:0.0959409997 22:0.0575819984 
-32.0000000000 2:1.0000000000 11:0.3022609949 12:0.2422789931 13:-0.0927089974 14:0.1111230031 15:0.0561090000 16:-0.0832929984 17:0.0610219985 18:-0.2558479905 19:0.0623130016 20:-0.0130190002 21:0.1139980033 22:-0.0016780000 
1.8438987732 2:1.0000000000 11:0.6176109910 12:0.3228760064 13:-0.0662190020 14:-0.0254689995 15:0.4147379994 16:-0.1682250053 17:-0.1616809964 18:-0.0396940000 19:-0.2234870046 20:-0.0088250004 21:0.5459859967 22:-0.2614710033 
-1.4095513821 6:1.0000000000 11:-0.0178970005 12:0.3206790090 13:-0.1006840020 14:0.0616630018 15:0.0448819995 16:0.0073370002 17:-0.0012170000 18:-0.1155629978 19:-0.1160280034 20:0.1392190009 21:0.2940630019 22:-0.0115839997 
-32.0000000000 2:1.0000000000 11:0.2292429954 12:0.1948239952 13:-0.1648309976 14:0.1038099974 15:-0.0308459997 16:-0.0799949989 17:-0.0214779992 18:-0.1200570017 19:-0.1433289945 20:-0.0900650024 21:0.2320190072 22:-0.1893119961 
-8.8867626190 2:1.0000000000 11:-0.5319989920 12:0.4513550103 13:-0.0454710014 14:-0.3422549963 15:0.0290370006 16:0.0664300025 17:-0.0603940003 18:-0.0799869969 19:0.0271290001 20:-0.0245580003 21:0.0376540013 22:-0.0321849994 
-10.0183591843 2:1.0000000000 11:-0.5318819880 12:0.4982909858 13:0.0681900010 14:0.0548929982 15:0.0494440012 16:-0.0134079996 17:-0.0519989990 18:-0.1226179972 19:-0.1001959965 20:-0.1378819942 21:-0.0644380003 22:-0.0873119980 
-4.6108851433 6:1.0000000000 11:-0.3885239959 12:0.6571350098 13:0.1548870057 14:-0.0150640002 15:-0.5055230260 16:-0.4647530019 17:0.1668580025 18:0.1254290044 19:0.0830669999 20:0.1532910019 21:0.2561210096 22:0.0262770001 
-2.4944503307 2:1.0000000000 11:0.5859090090 12:0.3441469967 13:-0.0258600004 14:-0.2032220066 15:0.2010059953 16:-0.1418679953 17:-0.2796080112 18:0.1985020041 19:-0.1770700067 20:0.1568360031 21:0.4706580043 22:-0.2440000027 
-11.8039865494 6:1.0000000000 11:-0.2520749867 12:0.5989689827 13:-0.0385029987 14:0.0520710014 15:-0.0957909971 16:-0.6711350083 17:-0.3221609890 18:-0.2408780009 19:-0.3434279859 20:0.0360729992 21:0.2956340015 22:-0.0097049996 
32.0000000000 6:1.0000000000 11:-0.0478149988 12:0.1624760032 13:-0.0312479995 14:0.0096490001 15:-0.0091800001 16:0.0413740017 17:-0.0564740002 18:0.0011590000 19:-0.1129489988 20:0.0446919985 21:0.0843409970 22:-0.0469620004 
-32.0000000000 2:1.0000000000 11:0.5827680230 12:0.2378540039 13:0.0369060002 14:-0.1720339954 15:0.2073729932 16:-0.2292609960 17:-0.1178029999 18:-0.1687899977 19:-0.1510650069 20:-0.1025239974 21:0.4647659957 22:-0.4334569871 
32.0000000000 2:1.0000000000 11:0.3052920103 12:0.2546690106 13:-0.4156039953 14:0.2874409854 15:0.1291780025 16:-0.0973140001 17:0.1065969989 18:-0.1488949955 19:-0.1319530010 20:0.0698899999 21:0.2992529869 22:-0.0678939968 
-14.4957427979 6:1.0000000000 11:0.6179379821 12:0.3228760064 13:-0.0022300000 14:0.0469370000 15:-0.1326510012 16:-0.0957809985 17:0.2767769992 18:-0.3812949955 19:-0.1389549971 20:0.0737480000 21:0.3549169898 22:-0.0752120018 
-20.7986965179 2:1.0000000000 11:-0.5286870003 12:0.4287720025 13:-0.0033489999 14:-0.0539949983 15:-0.2612209916 16:-0.0468080007 17:-0.0444630012 18:-0.0806690007 19:-0.0495719984 20:0.0174260009 21:-0.0107770003 22:-0.1650689989 
11.5055999756 2:1.0000000000 11:0.1049889997 12:0.5135499835 13:-0.4030950069 14:-0.1118810028 15:-0.0726540014 16:-0.3649600148 17:-0.2896629870 18:-0.0512369983 19:-0.1858659983 20:0.1011399999 21:0.5882210135 22:-0.2276889980 
-32.0000000000 6:1.0000000000 11:-0.3925090134 12:0.1850280017 13:0.0239279997 14:0.0360140018 15:0.0156319998 16:0.0336619988 17:0.0209299996 18:-0.0448510014 19:-0.1135910004 20:0.0037789999 21:0.0574860014 22:0.0126000000 
9.1459331512 6:1.0000000000 11:-0.0112770004 12:0.3135069907 13:-0.0462229997 14:0.0479299985 15:0.0196100008 16:0.0875450000 17:-0.0754029974 18:-0.1068520024 19:-0.3109300137 20:-0.1517300010 21:0.1222959980 22:-0.1556140035 
-32.0000000000 2:1.0000000000 11:0.5828469992 12:0.2384950072 13:-0.0505779982 14:-0.0211490002 15:0.2311419994 16:-0.0233410001 17:-0.1983419955 18:0.0115259998 19:-0.1634439975 20:-0.0348590016 21:0.3225390017 22:-0.1361690015 
-32.0000000000 6:1.0000000000 11:-0.5135729909 12:0.4268189967 13:0.0653640032 14:-0.0313519984 15:-0.0824119970 16:-0.0776169971 17:-0.0557559989 18:-0.1753740013 19:-0.1537590027 20:-0.0731860027 21:-0.0462240018 22:-0.0827040002 
-32.0000000000 6:1.0000000000 11:0.0371830016 12:0.2488099933 13:-0.0185199995 14:0.0888400003 15:0.0007640000 16:0.0283569992 17:0.0728899986 18:-0.0691519976 19:-0.2151550055 20:0.0406330004 21:0.1530189961 22:-0.0455130003 
32.0000000000 6:1.0000000000 11:-0.3488110006 12:0.1409610063 13:-0.0029829999 14:0.0103789996 15:-0.0175589994 16:0.0166539997 17:-0.0221820008 18:-0.0715589970 19:-0.0471259989 20:0.0185339991 21:0.0006890000 22:-0.0811320022 
-32.0000000000 2:1.0000000000 11:-0.0354570001 12:0.1645510048 13:-0.0956740007 14:0.0348739997 15:0.1014550030 16:-0.0612820014 17:-0.0810829997 18:-0.0403980017 19:-0.0017000000 20:0.0490380004 21:0.0260920003 22:0.0557609983 
-12.1727113724 2:1.0000000000 11:0.5845729709 12:0.2344669998 13:-0.0195819996 14:-0.0345339999 15:0.1389440000 16:-0.1736149937 17:-0.2180940062 18:-0.1255750060 19:-0.1950870007 20:-0.1521670073 21:0.2294979990 22:-0.2039429992 
6.8111357689 2:1.0000000000 11:0.1192660034 12:0.5112000108 13:-0.2516860068 14:0.3447900116 15:0.2578629851 16:-0.3937630057 17:-0.0543380007 18:-0.1345320046 19:-0.3325180113 20:0.0838960037 21:0.5295709968 22:-0.2727890015 
32.0000000000 2:1.0000000000 11:-0.5797529817 12:0.0997620001 13:-0.0636110008 14:-0.0443510003 15:-0.0550169982 16:-0.0613900013 17:-0.0450390019 18:-0.0757590011 19:-0.0785980001 20:-0.0215750001 21:-0.0275449995 22:-0.0266640000 
-32.0000000000 6:1.0000000000 11:-0.3786979914 12:0.1825560033 13:-0.0037730001 14:0.0021980000 15:-0.0088940002 16:0.0124620004 17:0.0130510004 18:-0.0455299988 19:-0.0206950009 20:0.0110400002 21:0.0356869996 22:-0.0334779993 
-18.1922988892 2:1.0000000000 11:0.2495210022 12:0.0929569975 13:-0.2342739999 14:-0.1180450022 15:-0.1024279967 16:-0.0060999999 17:-0.0546839982 18:-0.1993860006 19:-0.1214850023 20:-0.1419769973 21:0.0085760001 22:-0.0874100029 
-32.0000000000 2:1.0000000000 11:0.0607989989 12:0.2218019962 13:-0.1525570005 14:0.0747620016 15:0.1722549945 16:-0.2031320035 17:-0.1102410033 18:-0.0948930010 19:-0.1473930031 20:-0.0031099999 21:0.0655009970 22:0.0450620018 
-32.0000000000 6:1.0000000000 11:-0.3359920084 12:0.1438290030 13:-0.0520070009 14:0.0040750001 15:0.0224239994 16:0.0319710001 17:0.0274560004 18:-0.0439670011 19:-0.0852349997 20:0.0155220004 21:0.0677839965 22:-0.0160429999 
0.6249084473 2:1.0000000000 11:0.0273850001 12:0.4989320040 13:-0.5451120138 14:0.2046300024 15:0.4552949965 16:-0.5115129948 17:-0.4069109857 18:-0.2823089957 19:-0.1557790041 20:0.0317110009 21:0.4844360054 22:-0.1357219964 
31.9929695129 6:1.0000000000 11:-0.0373519994 12:0.1686100066 13:-0.0274250004 14:0.0087209996 15:-0.0085619995 16:0.0628210008 17:-0.0522699989 18:0.0060290000 19:-0.1248439997 20:0.0345520005 21:0.1043440029 22:0.0201709997 
23.1178913116 6:1.0000000000 11:0.0187110007 12:0.1892089993 13:-0.0484739989 14:0.0495389998 15:0.0264730006 16:0.0681660026 17:-0.0707859993 18:-0.0650530010 19:-0.2287259996 20:-0.1508229971 21:-0.0232839994 22:0.0516569987 
32.0000000000 2:1.0000000000 11:0.0073750000 12:0.1929930001 13:-0.1328189969 14:0.1169689968 15:0.1629679948 16:-0.0257399995 17:-0.0975050032 18:-0.0420150012 19:-0.0233980007 20:0.0554260015 21:0.0494929999 22:0.0583899990 
32.0000000000 2:1.0000000000 11:-0.1666709930 12:0.0529169999 13:-0.1244520023 14:-0.0791900009 15:-0.0848440006 16:-0.0915940031 17:-0.1054750010 18:-0.1024129987 19:-0.0909359977 20:-0.1135630012 21:-0.0573399998 22:-0.0728980005 
5.1660165787 2:1.0000000000 11:-0.2741389871 12:0.6121519804 13:-0.2447530031 14:-0.3408710063 15:0.0260920003 16:-0.2772499919 17:-0.1295659989 18:-0.2172880024 19:0.0533210002 20:0.2034460008 21:0.2872129977 22:0.0718080029 
32.0000000000 6:1.0000000000 11:-0.3965440094 12:0.1900019944 13:-0.0982350037 14:0.0141409999 15:0.0478620008 16:0.0531420000 17:0.0063850000 18:-0.0944570005 19:-0.0540320016 20:-0.0938839987 21:0.0434199981 22:0.0411820002 
-32.0000000000 2:1.0000000000 11:-0.7121369839 12:0.1691280007 13:-0.0179709997 14:0.0046000001 15:-0.0276640002 16:-0.0015250000 17:-0.0155149996 18:-0.0444310009 19:-0.0136129996 20:-0.0233239997 21:-0.0080100000 22:-0.0117980000 
-23.1277313232 6:1.0000000000 11:-0.3278540075 12:0.1395259947 13:-0.0010710000 14:0.0359980017 15:0.0196850002 16:0.0256270003 17:0.0073420000 18:-0.0290430002 19:-0.0227019992 20:0.0083039999 21:0.0436469987 22:-0.0097599998 
32.0000000000 2:1.0000000000 11:-0.3541449904 12:0.1482540071 13:-0.0325510018 14:0.0198689997 15:-0.0602030009 16:-0.0103430003 17:-0.0048280000 18:-0.0948880017 19:-0.1175940037 20:-0.0806270018 21:0.0570160002 22:0.0355760008 
-32.0000000000 2:1.0000000000 11:0.2993499935 12:0.2446289957 13:-0.1246059984 14:-0.1044740006 15:0.0664810017 16:-0.1557389945 17:-0.1364399940 18:-0.1056109965 19:-0.0100189997 20:0.0627989992 21:0.3238579929 22:-0.0953639969 
-32.0000000000 6:1.0000000000 11:-0.1526799947 12:0.0529169999 13:-0.0907469988 14:-0.0827300027 15:-0.0681649968 16:-0.1120759994 17:-0.0688410029 18:-0.0862810016 19:-0.1244520023 20:-0.0791900009 21:-0.0848440006 22:-0.0915940031 
32.0000000000 2:1.0000000000 11:0.2282039970 12:0.1995240003 13:-0.2619279921 14:0.1608459949 15:0.0712959990 16:-0.1028150022 17:0.0830020010 18:-0.1110379994 19:-0.1083059981 20:0.0451399982 21:0.2331079990 22:-0.0971620008 
23.7079772949 6:1.0000000000 11:-0.7432799935 12:0.1763000041 13:-0.0719290003 14:-0.0073110000 15:0.0301779993 16:-0.0069829999 17:0.0175579991 18:-0.0715020001 19:-0.0076569999 20:0.0454850011 21:0.0179609992 22:0.0300260000 
32.0000000000 6:1.0000000000 11:-0.3461880088 12:0.1455380023 13:-0.0327170007 14:-0.0740920007 15:-0.0168340001 16:0.0369069986 17:-0.0029690000 18:-0.0705529973 19:-0.0289530009 20:0.0073650000 21:0.0083740000 22:-0.0138870003 
5.4937138557 6:1.0000000000 11:-0.2882040143 12:0.6363829970 13:-0.3308880031 14:-0.0179479998 15:0.0828099996 16:0.0807029977 17:-0.0633779988 18:-0.3905200064 19:-0.1343750060 20:0.1444289982 21:0.2890079916 22:-0.2132160068 
18.9909973145 2:1.0000000000 11:-0.3743830025 12:0.4798890054 13:0.0094079999 14:0.0777129978 15:0.0249589998 16:-0.3215630054 17:-0.1680060029 18:-0.2146629989 19:-0.1089340001 20:-0.2433789968 21:0.0752940029 22:0.0865589976 
-32.0000000000 2:1.0000000000 11:-0.0565520003 12:0.1854249984 13:-0.0766870007 14:0.0442220010 15:0.1364720017 16:-0.0637890026 17:-0.1037689969 18:-0.0698039979 19:-0.0582639985 20:0.0643730015 21:-0.0002530000 22:-0.0085850004 
-7.2025785446 2:1.0000000000 11:0.5891420245 12:0.3441469967 13:-0.2333060056 14:0.0659509972 15:0.4158099890 16:-0.2246810049 17:-0.1183800027 18:-0.0447189994 19:-0.1659040004 20:-0.2224660069 21:0.5634959936 22:-0.9090639949 
-3.9682197571 2:1.0000000000 11:0.6309829950 12:0.3018800020 13:-0.1147880033 14:-0.0067520002 15:0.3273169994 16:-0.0216000006 17:-0.1234569997 18:-0.0267069992 19:-0.1896789968 20:-0.1721770018 21:0.2811529934 22:-0.1973409951 
-9.3845272064 6:1.0000000000 11:0.0503339991 12:0.5035099983 13:-0.0533530004 14:0.1604789943 15:-0.2118899971 16:-0.3778029978 17:0.1414020061 18:-0.0872789994 19:-0.2428860068 20:0.2432799935 21:0.3293179870 22:-0.3547840118 
32.0000000000 6:1.0000000000 11:-0.3548420072 12:0.1489260048 13:0.0068480000 14:0.0318149999 15:0.0149649996 16:0.0346780010 17:-0.0052359998 18:-0.0778909996 19:-0.0249819998 20:0.0312689990 21:0.0425419994 22:-0.0031359999 
-5.8155364990 6:1.0000000000 11:-0.0876709968 12:0.4992069900 13:-0.1108160019 14:-0.0459939986 15:-0.0549690016 16:-0.0580849983 17:-0.2501429915 18:-0.1514880061 19:-0.1259229928 20:0.0741249993 21:0.2728880048 22:-0.0662249997 
32.0000000000 6:1.0000000000 11:-0.0425690003 12:0.1554259956 13:-0.0700699985 14:-0.0451209992 15:-0.0067969998 16:0.0484840013 17:-0.0489009991 18:0.0138299996 19:-0.1406289935 20:0.0410449989 21:0.0906800032 22:0.0072260001 
-20.8622093201 2:1.0000000000 11:0.4099690020 12:0.0951839983 13:-0.1158770025 14:-0.1110140011 15:-0.0480660014 16:0.0391459987 17:-0.2166129947 18:-0.1539980024 19:-0.1219960004 20:-0.1203939989 21:0.0857649967 22:-0.1922000051 
-0.9232318401 2:1.0000000000 11:0.5834739804 12:0.2384950072 13:-0.1511780024 14:0.0658830032 15:0.0699269995 16:-0.0981839970 17:-0.1989530027 18:-0.1128870025 19:-0.1698700041 20:-0.1334149987 21:0.3468619883 22:-0.2042060047 
32.0000000000 6:1.0000000000 11:0.5495669842 12:0.2391660064 13:-0.0494650006 14:-0.0777330026 15:-0.1165869981 16:-0.0870790035 17:0.2662149966 18:-0.2069019973 19:-0.2051019967 20:0.0467169993 21:0.1159270033 22:0.0393229984 
-32.0000000000 6:1.0000000000 11:-0.0483539999 12:0.1600040048 13:-0.0042710002 14:0.0001550000 15:-0.0265650004 16:0.0399410017 17:0.0203029998 18:-0.0217739996 19:-0.1462190002 20:-0.0048580002 21:0.1187219992 22:0.0067960001 
14.6609306335 2:1.0000000000 11:-0.0365610011 12:0.1649470031 13:-0.1407459974 14:-0.0059150001 15:0.1109170020 16:0.0050820000 17:-0.0852800012 18:-0.0838399976 19:-0.0072329999 20:0.0573359989 21:0.0441900007 22:0.0344399996 
32.0000000000 6:1.0000000000 11:-0.3718259931 12:0.1487729996 13:0.0049029998 14:0.0253289994 15:0.0182610005 16:0.0383649990 17:-0.0108289998 18:-0.0835319981 19:-0.0444810018 20:-0.0727400035 21:0.0361110009 22:0.0087649999 
-10.7855672836 6:1.0000000000 11:-0.0006150000 12:0.4555050135 13:-0.0884990022 14:-0.0326669998 15:-0.2337920070 16:-0.1269000024 17:-0.0711610019 18:-0.1442130059 19:-0.1126340032 20:0.2289579958 21:0.4044800103 22:-0.1519380063 
-32.0000000000 2:1.0000000000 11:0.5906450152 12:0.2345889956 13:-0.0639310032 14:-0.0160440002 15:0.1773349941 16:-0.0736010000 17:-0.2259510010 18:-0.0385009982 19:-0.2166289985 20:-0.1359069943 21:0.3894169927 22:-0.2062319964 
-6.0484004021 2:1.0000000000 11:0.5935789943 12:0.3653869927 13:-0.0826279968 14:-0.0220529996 15:0.4673660100 16:-0.1685280055 17:-0.0491960011 18:0.0247259997 19:-0.0793400034 20:-0.0308599994 21:0.5088880062 22:-0.6636589766 
-1.4406480789 6:1.0000000000 11:-0.3143199980 12:0.4908449948 13:-0.0589819998 14:0.0037550000 15:-0.0468810014 16:-0.1260679960 17:-0.2776600122 18:-0.1422179937 19:-0.0183969997 20:0.0391060002 21:0.1011760011 22:-0.0820360035 
-15.9473228455 2:1.0000000000 11:0.3881100118 12:0.4480899870 13:-0.2215510011 14:0.1894840002 15:0.3760809898 16:-0.2120269984 17:0.1237329990 18:-0.2190420032 19:-0.3267230093 20:-0.1484560072 21:0.6156989932 22:-0.3574390113 
-6.9554853439 2:1.0000000000 11:-0.0365319997 12:0.1666560024 13:-0.1051620021 14:0.0432180017 15:0.1152700037 16:-0.0780180022 17:-0.0836410001 18:-0.0262480006 19:0.0165490005 20:0.0447850004 21:-0.0468120016 22:0.0047260001 
25.1606674194 6:1.0000000000 11:-0.7314739823 12:0.1731870025 13:0.0277810004 14:0.0343259983 15:0.0285620000 16:0.0072369999 17:0.0157130007 18:-0.0777850002 19:-0.0160840005 20:0.0138790002 21:-0.0050369999 22:0.0235939994 
-3.0581223965 2:1.0000000000 11:-0.0477549993 12:0.1637880057 13:-0.0867019966 14:0.0314130001 15:0.0984369963 16:-0.0526870005 17:-0.0787039995 18:-0.0228179991 19:0.0111050000 20:0.0521829985 21:-0.0457159989 22:-0.0109770000 
32.0000000000 2:1.0000000000 11:0.5336340070 12:0.4482119977 13:-0.1099319980 14:-0.0497150011 15:0.2620480061 16:-0.3302299976 17:-0.0269579999 18:-0.0247000009 19:-0.2179580033 20:0.0357839987 21:0.3406110108 22:-0.4099090099 
11.8184118271 6:1.0000000000 11:-0.3748109937 12:0.1378169954 13:-0.0176309999 14:-0.0038870000 15:-0.0047289999 16:0.0226259995 17:-0.0332739986 18:-0.0975549966 19:-0.0651329979 20:0.0023850000 21:0.0139859999 22:-0.0430790000 
-3.0027489662 2:1.0000000000 11:0.5388020277 12:0.4482119977 13:-0.1927369982 14:0.0928990021 15:0.3591929972 16:-0.4465920031 17:-0.0264650006 18:-0.4436010122 19:0.0124180000 20:-0.2480210066 21:0.7910900116 22:-0.6736869812 
-11.2996912003 6:1.0000000000 11:0.2970150113 12:0.2803649902 13:0.1790640056 14:0.0423090011 15:-0.1301160008 16:-0.1789830029 17:0.2276210040 18:-0.1321070045 19:-0.2236090004 20:0.1261599958 21:0.1579400003 22:-0.1229910031 
-5.7844476700 2:1.0000000000 11:0.5407310128 12:0.4482119977 13:-0.1114310026 14:0.0697270036 15:0.5735189915 16:-0.6146240234 17:0.1465059966 18:-0.4105139971 19:0.1211579964 20:-0.1305219978 21:0.7990639806 22:-0.5820459723 
-1.5593737364 6:1.0000000000 11:-0.4542250037 12:0.0786129981 13:-0.0589589998 14:-0.0653589964 15:-0.0591810010 16:-0.0694120005 17:-0.0834849998 18:-0.0714199990 19:-0.0591370016 20:-0.0785019994 21:-0.0540350005 22:-0.0666460022 
-1.6063597202 2:1.0000000000 11:-0.0271189995 12:0.5188900232 13:-0.4364970028 14:-0.0090220002 15:0.3910839856 16:-0.1086779982 17:-0.1083299965 18:0.0422880016 19:-0.0251819994 20:-0.0606959984 21:-0.4842610061 22:-0.5290300250 
32.0000000000 6:1.0000000000 11:-0.3650400043 12:0.1474909931 13:-0.0273119994 14:-0.0633009970 15:-0.0274180006 16:-0.0659840032 17:-0.0109479995 18:-0.0516549982 19:-0.0307160001 20:0.0301130004 21:0.0587269999 22:-0.0065190000 
-6.7561259270 6:1.0000000000 11:-0.5416380167 12:0.4802860022 13:-0.1036679968 14:-0.0978759974 15:-0.0428199992 16:-0.1616960019 17:-0.0959440023 18:-0.2481269985 19:-0.3869979978 20:0.0867789984 21:0.1678369939 22:0.0486119986 
-4.9671072960 2:1.0000000000 11:0.5099440217 12:0.1453859955 13:-0.0351799987 14:-0.1922760010 15:0.1285350025 16:-0.0686260015 17:-0.1413539946 18:-0.0781420022 19:-0.0882719979 20:-0.0808790028 21:0.1888229996 22:-0.3175669909 
-1.0105620623 6:1.0000000000 11:0.3106249869 12:0.2541500032 13:0.1493570060 14:-0.0373999998 15:-0.0880360007 16:0.0002820000 17:0.2562679946 18:-0.0927809998 19:-0.2059119940 20:0.1398759931 21:0.1194360033 22:-0.1820019931 
9.4724102020 2:1.0000000000 11:0.0599900000 12:0.2243040055 13:-0.1635980010 14:0.0652059987 15:0.1396490037 16:-0.1196589991 17:-0.1046030000 18:-0.1415829957 19:-0.2152529955 20:-0.0652109981 21:-0.0323639996 22:0.0385550000 
-18.9277935028 6:1.0000000000 11:0.1909759939 12:0.2077330053 13:0.1095030010 14:0.0199110005 15:-0.0678580031 16:0.0024450000 17:0.1101230010 18:-0.1044270024 19:-0.1200300008 20:0.2016669959 21:0.0658269972 22:-0.0774279982 
24.4017753601 2:1.0000000000 11:0.5446770191 12:0.2391660064 13:-0.2051019967 14:0.0467169993 15:0.1159270033 16:0.0393229984 17:-0.3793649971 18:0.0039260001 19:-0.2178339958 20:-0.0333870016 21:0.4001399875 22:-0.2397360057 
-24.6011409760 2:1.0000000000 11:0.5755130053 12:0.3441469967 13:-0.1492709965 14:0.0100579998 15:0.1006629989 16:-0.1526570022 17:-0.4349189997 18:0.1638679951 19:-0.2153860033 20:0.0698300004 21:0.4652560055 22:-0.2764630020 
-32.0000000000 2:1.0000000000 11:-0.0271780007 12:0.1737059951 13:-0.1029760018 14:0.0481109992 15:0.1244470030 16:-0.0045349998 17:-0.0175790004 18:-0.0586489998 19:-0.0839909986 20:0.0395109989 21:0.0656990036 22:0.0256719999 
-4.0457496643 2:1.0000000000 11:0.5655580163 12:0.4231869876 13:-0.0790779963 14:-0.0127590001 15:0.6392470002 16:-0.4621939957 17:0.1123519987 18:-0.0193470009 19:-0.0730390027 20:-0.1569280028 21:0.3945190012 22:-0.9304350019 
-0.0968727469 6:1.0000000000 11:-0.3649390042 12:0.6649479866 13:0.1764039993 14:0.1313659996 15:0.1170329973 16:0.1108549982 17:0.1642120034 18:-0.1376779974 19:-0.3582020104 20:-0.0264049992 21:-0.4246659875 22:-0.4195089936 
-32.0000000000 2:1.0000000000 11:-0.3766649961 12:0.0749820024 13:-0.0844520032 14:-0.0475029983 15:-0.0394439995 16:-0.0650430024 17:-0.0740130022 18:-0.0625220016 19:-0.0669540018 20:-0.0519989990 21:-0.0511920005 22:-0.0662269965 
32.0000000000 6:1.0000000000 11:-0.1604000032 12:0.4307250082 13:0.1034379974 14:0.1384679973 15:0.0935759991 16:0.0519049987 17:0.0560030006 18:-0.1881580055 19:-0.0918119997 20:0.1831510067 21:0.2868129909 22:0.0487999991 
1.0386941433 2:1.0000000000 11:-0.3412880003 12:0.6275330186 13:-0.4373799860 14:-0.0244030003 15:0.2066339999 16:-0.0226550009 17:-0.1307229996 18:-0.3622849882 19:-0.0412320010 20:-0.0372320004 21:-0.4624890089 22:-0.3982470036 
-32.0000000000 6:1.0000000000 11:-0.7351040244 12:0.1735530049 13:0.0031620001 14:0.0094309999 15:-0.0005890000 16:-0.0002180000 17:0.0032770000 18:-0.0274650007 19:0.0070150001 20:0.0201050006 21:-0.0281150006 22:0.0018190000 
-0.3026177883 2:1.0000000000 11:0.1323509961 12:0.5028690100 13:-0.5068470240 14:0.4305180013 15:0.4796720147 16:-0.4225400090 17:0.2010750026 18:0.1336939931 19:-0.1971029937 20:0.0950459987 21:0.5255720019 22:-0.3219049871 
-32.0000000000 6:1.0000000000 11:-0.3918040097 12:0.1889649928 13:-0.0014590001 14:0.0142409997 15:0.0087080002 16:-0.0013090000 17:-0.1144360006 18:-0.0379050002 19:0.0142500000 20:0.0259860009 21:0.0335830003 22:-0.0160700008 
-0.5772074461 2:1.0000000000 11:-0.0586920008 12:0.1593630016 13:-0.0392850004 14:0.0020940001 15:-0.0425660014 16:0.0230359994 17:0.0083109997 18:-0.0143830003 19:-0.0044030002 20:0.0694639981 21:-0.0329310000 22:-0.0190869998 
15.3428564072 2:1.0000000000 11:0.1092830002 12:0.5160220265 13:-0.2799139917 14:0.3848389983 15:0.3790960014 16:-0.3686609864 17:-0.0619920008 18:-0.0025480001 19:-0.2410790026 20:0.0743030012 21:0.6211990118 22:-0.4207180142 
-5.5704240799 6:1.0000000000 11:-0.3951170146 12:0.1905210018 13:0.0013100000 14:0.0108589996 15:-0.0002280000 16:-0.0256159995 17:-0.1192710027 18:-0.0311609991 19:0.0202389993 20:0.0228950009 21:0.0255280007 22:-0.0162460003 
-32.0000000000 2:1.0000000000 11:-0.3943000138 12:0.1830749959 13:0.0098099997 14:0.0237089992 15:0.0378010012 16:-0.0555020012 17:-0.1094570011 18:-0.0589450002 19:-0.1088860035 20:0.0118890004 21:0.0572549999 22:0.0103770001 
-0.5690005422 6:1.0000000000 11:0.5798860192 12:0.3441469967 13:-0.1183800027 14:-0.0447189994 15:-0.1659040004 16:-0.2224660069 17:0.5634959936 18:-0.9090639949 19:-0.1919399947 20:-0.2651639879 21:0.5600159764 22:-0.4344449937 
-15.4113254547 6:1.0000000000 11:0.0457650013 12:0.2268979996 13:-0.0201830007 14:0.0555239990 15:-0.0334680006 16:0.0532249995 17:0.0249809995 18:0.0191389993 19:-0.1583469957 20:0.0750610009 21:0.0496900007 22:-0.2932099998 
-30.1059112549 2:1.0000000000 11:0.6307330132 12:0.3016360104 13:-0.1619540006 14:0.0473809987 15:0.2727249861 16:-0.0216600001 17:-0.1029459983 18:0.0479319990 19:-0.1557919979 20:0.0160690006 21:0.3981589973 22:-0.4961580038 
-32.0000000000 6:1.0000000000 11:-0.3756040037 12:0.1489260048 13:0.0147270001 14:0.0304429997 15:0.0069329999 16:0.0078860000 17:-0.0648690015 18:-0.0411150008 19:-0.0686649978 20:0.0276950002 21:0.0572189987 22:0.0049049999 
32.0000000000 6:1.0000000000 11:0.0181920007 12:0.1547850072 13:-0.0485050008 14:0.0247029997 15:-0.0298379995 16:0.0250330009 17:-0.0819730014 18:0.0241429992 19:-0.1662950069 20:0.0476469994 21:0.0939470008 22:-0.0144280000 
32.0000000000 2:1.0000000000 11:0.1221349984 12:0.5112000108 13:-0.2357320040 14:0.4310419858 15:0.2515999973 16:-0.3413250148 17:0.0210410003 18:-0.1421909928 19:-0.3265370131 20:0.0908389986 21:0.5700150132 22:-0.2642050087 
12.5389480591 2:1.0000000000 11:0.1079759970 12:0.5161439776 13:-0.5702880025 14:0.3333120048 15:-0.3709329963 16:-0.4836350083 17:-0.2094399929 18:-0.0025680000 19:-0.2821510136 20:-0.2094130069 21:0.5660399795 22:-0.1277659982 
-11.5063114166 6:1.0000000000 11:-0.3842970133 12:0.0721129999 13:-0.0740130022 14:-0.0625220016 15:-0.0669540018 16:-0.0519989990 17:-0.0511920005 18:-0.0662269965 19:-0.0821869969 20:-0.0673020035 21:-0.0595199987 22:-0.0701889992 
32.0000000000 6:1.0000000000 11:-0.0382210016 12:0.1542659998 13:-0.0849450007 14:-0.0862269998 15:-0.0182240009 16:0.0780080035 17:-0.0466360003 18:-0.0107220002 19:-0.1631640047 20:-0.0714029968 21:0.0704059973 22:0.0265529994 
-32.0000000000 2:1.0000000000 11:0.5874850154 12:0.2356259972 13:-0.0195829999 14:-0.0661579967 15:0.1705140024 16:-0.1299919933 17:-0.1935680062 18:-0.0571690015 19:-0.2213079929 20:-0.0727799982 21:0.3499130011 22:-0.1430010051 
-32.0000000000 2:1.0000000000 11:0.2765179873 12:0.1954649985 13:-0.1784950048 14:0.0959319994 15:-0.0095480001 16:0.0339169987 17:0.0287309997 18:-0.0386330001 19:-0.0989179984 20:0.0229279995 21:0.1734949946 22:-0.0559079982 
-23.7065696716 6:1.0000000000 11:-0.3471499979 12:0.1449889988 13:0.0073009999 14:0.0206349995 15:-0.0077970000 16:0.0256939996 17:0.0500070006 18:-0.0374410003 19:-0.0901810005 20:0.0030630000 21:0.0531760007 22:0.0094860001 
-1.9671700001 6:1.0000000000 11:-0.2819859982 12:0.0655819997 13:-0.0864299983 14:-0.0678730011 15:-0.0771690011 16:-0.0905459970 17:-0.0756660029 18:-0.0709500015 19:-0.1081319973 20:-0.0679830015 21:-0.0621340014 22:-0.0888380036 
23.5097885132 2:1.0000000000 11:0.5170390010 12:0.4525150061 13:-0.2841939926 14:-0.2334219962 15:0.4037190080 16:-0.2503300011 17:-0.0111440001 18:-0.1942240000 19:-0.1716690063 20:-0.0338720009 21:0.3883250058 22:-0.5178599954 
4.7941641808 2:1.0000000000 11:-0.3145479858 12:0.5156250000 13:-0.4943419993 14:0.0088600004 15:0.2240010053 16:-0.0211459994 17:-0.1295409948 18:-0.2934469879 19:-0.1424410045 20:-0.2693060040 21:0.1367100030 22:0.0901409984 
28.8727474213 6:1.0000000000 11:0.1791180074 12:0.2055049986 13:0.0798519999 14:0.0190699995 15:-0.0830760002 16:-0.0067190002 17:0.1034860015 18:-0.0739549994 19:-0.2516869903 20:0.1392170042 21:-0.1206979975 22:-0.2409179956 
-3.7651939392 2:1.0000000000 11:0.1329530030 12:0.4176940024 13:-0.4825400114 14:0.3533430099 15:0.3308149874 16:-0.5181639791 17:0.0651400015 18:0.0114200003 19:-0.1749060005 20:0.1426959932 21:0.4540889859 22:-0.2192710042 
3.2046961784 2:1.0000000000 11:-0.7727410197 12:0.2308039963 13:-0.0061539998 14:-0.0015530000 15:-0.1370140016 16:-0.0198870003 17:-0.0109150000 18:-0.1413660049 19:-0.1476619989 20:-0.0180530008 21:0.0444450006 22:0.0226470008 
-32.0000000000 6:1.0000000000 11:0.0438189991 12:0.2250670046 13:-0.1018600017 14:-0.0139119998 15:-0.0101410002 16:0.0796540007 17:0.0639069974 18:-0.0486599989 19:-0.1945279986 20:0.0111429999 21:0.1536040008 22:-0.0283589996 
32.0000000000 6:1.0000000000 11:-0.0458829999 12:0.1592099965 13:-0.0299789999 14:-0.0079619996 15:-0.0093489997 16:0.0387730002 17:-0.0594630018 18:-0.0055020000 19:-0.1324940026 20:0.0353929996 21:0.0751200020 22:0.0056250002 
-0.4049813151 6:1.0000000000 11:0.5942220092 12:0.3145450056 13:-0.0807870030 14:0.1197270006 15:-0.1047710031 16:-0.0057259998 17:0.4203090072 18:-0.3097510040 19:-0.2472749949 20:-0.2607010007 21:0.3144730031 22:-0.3176929951 
-14.6063470840 2:1.0000000000 11:0.4502069950 12:0.4304809868 13:-0.1148089990 14:0.1902859956 15:0.1988929957 16:-0.3407100141 17:-0.2941319942 18:-0.1089959964 19:-0.0263550002 20:0.0916299969 21:0.6466810107 22:-0.2963190079 
-0.6949849129 2:1.0000000000 11:0.5263839960 12:0.4075320065 13:-0.1690050066 14:0.1130359992 15:0.5045059919 16:-0.3490009904 17:0.1235489994 18:-0.2367749959 19:-0.1811289936 20:-0.2061740011 21:0.6503779888 22:-0.7643160224 
-32.0000000000 6:1.0000000000 11:0.0093850000 12:0.1508789957 13:-0.0479440019 14:0.0045779999 15:-0.0142299999 16:-0.0120289996 17:-0.0996910036 18:0.0069129998 19:-0.0918620005 20:0.0405840017 21:0.0443309993 22:-0.1310669929 
32.0000000000 2:1.0000000000 11:0.5843369961 12:0.2378540039 13:-0.2071059942 14:-0.0338939987 15:0.0450409986 16:0.0699699968 17:-0.1862069964 18:0.0302469991 19:-0.1268460006 20:0.1132550016 21:0.3439680040 22:-0.2241960019 
-0.7420598269 6:1.0000000000 11:-0.4417720139 12:0.6965029836 13:0.2005970031 14:0.2457890064 15:0.2330760062 16:0.2441149950 17:0.3241519928 18:0.2247039974 19:0.2196249962 20:0.2932240069 21:0.3517630100 22:0.1997130066 
-14.1074314117 6:1.0000000000 11:-0.5196310282 12:0.4499210119 13:0.1447609961 14:-0.0054830001 15:-0.0959120020 16:-0.1126430035 17:-0.0043779998 18:-0.1483159959 19:-0.1500049978 20:-0.1155240014 21:-0.0526069999 22:-0.0606550016 
-32.0000000000 2:1.0000000000 11:0.2666540146 12:0.1948239952 13:-0.1533060074 14:0.0852390006 15:0.0232020002 16:-0.0882029980 17:0.0562339984 18:-0.1560799927 19:-0.0516530015 20:0.0423519984 21:0.1693660021 22:-0.0395019986 
24.5155467987 2:1.0000000000 11:0.3199540079 12:0.2792049944 13:-0.0736929998 14:0.1782180071 15:0.2401109934 16:-0.0529900007 17:0.0142580001 18:-0.1825879961 19:-0.3797790110 20:-0.1732410043 21:0.3938019872 22:-0.0613819994 
-10.7049636841 2:1.0000000000 11:0.2346079946 12:0.1984860003 13:-0.1337500066 14:0.0986849964 15:-0.0964099988 16:0.0343570001 17:-0.0538129993 18:-0.0623980016 19:-0.0898950025 20:-0.1037139967 21:0.3212609887 22:-0.0862770006 
-1.0900712013 6:1.0000000000 11:0.3094440103 12:0.4629519880 13:0.0138149997 14:-0.3129470050 15:-0.5282589793 16:-0.1761769950 17:0.4070770144 18:-0.0188449994 19:-0.1634719968 20:0.3368520141 21:0.3791770041 22:-0.1025419980 
-0.2234734297 6:1.0000000000 11:0.0144130001 12:0.5713199973 13:-0.1004370004 14:0.1454920024 15:-0.0053229998 16:-0.0968820006 17:-0.1667709947 18:-0.2140849978 19:-0.2372139990 20:0.2338390052 21:0.4724229872 22:-0.2699829936 
-0.9349449277 2:1.0000000000 11:0.4730629921 12:0.4132690132 13:-0.1168299988 14:-0.5838549733 15:0.2464330047 16:-0.5672230124 17:0.0059239999 18:-0.2493889928 19:0.2413350046 20:-0.1370719969 21:0.7465549707 22:-0.7479299903 
-1.1279780865 2:1.0000000000 11:0.4338130057 12:0.4311220050 13:-0.1695249975 14:0.1274140030 15:0.3901959956 16:-0.1563010067 17:0.1130139977 18:-0.2402109951 19:-0.2995310128 20:-0.1782959998 21:0.6410850286 22:-0.3804920018 
-5.4801526070 2:1.0000000000 11:0.6154040098 12:0.2334289998 13:-0.0464100018 14:-0.1117319986 15:0.1758569926 16:-0.1742250025 17:-0.1545480043 18:-0.0065930001 19:-0.0976080000 20:0.0437470004 21:0.3601399958 22:-0.1879390031 
-11.7269058228 6:1.0000000000 11:0.6226180196 12:0.3094480038 13:-0.1507290006 14:-0.2572630048 15:-0.2222619951 16:-0.2842299938 17:0.3658669889 18:-0.3437530100 19:-0.0666389987 20:-0.1990009993 21:0.2693870068 22:0.0179949999 
32.0000000000 2:1.0000000000 11:-0.7361570001 12:0.1709599942 13:-0.0443149991 14:0.0279409997 15:-0.0019560000 16:-0.0026070001 17:-0.0080239996 18:-0.0707520023 19:-0.0014780000 20:-0.0206950009 21:0.0370890014 22:0.0288919993 
-32.0000000000 6:1.0000000000 11:-0.3320670128 12:0.1430359930 13:0.0075460002 14:0.0338939987 15:0.0120130004 16:0.0225680005 17:0.0289900005 18:-0.0413060002 19:-0.0867070034 20:0.0133590000 21:0.0492869988 22:0.0009530000 
-32.0000000000 6:1.0000000000 11:0.2064789981 12:0.1995240003 13:0.1050269976 14:-0.0203639995 15:-0.1050779969 16:-0.0348029993 17:0.1046909988 18:-0.1514679939 19:-0.2553890049 20:-0.0783789977 21:-0.0227620006 22:-0.0595670007 
-32.0000000000 2:1.0000000000 11:-0.0455369987 12:0.1688539982 13:-0.1173340008 14:0.0587930009 15:0.0894130021 16:-0.0625059977 17:-0.0681850016 18:-0.0243110005 19:0.0029150001 20:0.0510049984 21:0.0439309999 22:-0.0218090005 
32.0000000000 6:1.0000000000 11:-0.3546729982 12:0.1379700005 13:-0.0191050004 14:0.0050829998 15:-0.0421090014 16:-0.0919120014 17:-0.0336880013 18:-0.0758209974 19:-0.0584629998 20:-0.0055630002 21:0.0297289994 22:-0.0575920008 
-16.4186668396 6:1.0000000000 11:0.0326270014 12:0.2268979996 13:-0.1084960029 14:0.0745640025 15:0.0251269992 16:0.0023790000 17:-0.1281230003 18:-0.0151089998 19:-0.1030550003 20:0.1144070029 21:0.2047220021 22:-0.1716829985 
-32.0000000000 2:1.0000000000 11:-0.0513730012 12:0.1672970057 13:-0.0522270016 14:0.0433279984 15:0.1193210036 16:-0.0725620016 17:-0.0995749980 18:-0.0333320014 19:0.0071500000 20:0.0558659993 21:0.0482680015 22:0.0495750010 
-32.0000000000 2:1.0000000000 11:-0.7339749932 12:0.1727900058 13:-0.0043959999 14:0.0101370001 15:-0.0265159998 16:-0.0047269999 17:0.0063370001 18:-0.0066930000 19:0.0211020000 20:-0.0048000002 21:0.0277689993 22:0.0026140001 
2.4724459648 6:1.0000000000 11:0.1843149960 12:0.2048649937 13:0.1229429990 14:0.0090399999 15:-0.0898149982 16:0.0574619994 17:0.1108559966 18:-0.1658210009 19:-0.2420420051 20:0.0556199998 21:0.1683260053 22:-0.1740310043 
0.5664580464 2:1.0000000000 11:-0.3493070006 12:0.6296079755 13:-0.0351370014 14:0.0612320006 15:0.1509030014 16:-0.1032489985 17:-0.1405739933 18:-0.3514679968 19:-0.1693550050 20:-0.4958370030 21:-0.3745389879 22:0.0012990000 
-1.8096724749 6:1.0000000000 11:-0.5439530015 12:0.6813960075 13:0.3303259909 14:0.0121459998 15:0.0611749999 16:0.1054710001 17:0.1358470023 18:-0.2178599983 19:-0.3262940049 20:-0.1376650035 21:-0.1972720027 22:-0.5664280057 
-32.0000000000 2:1.0000000000 11:0.5351070166 12:0.2445069999 13:-0.0927710012 14:0.0239279997 15:0.1883359998 16:-0.0020880001 17:-0.2308810055 18:0.0205809996 19:-0.1624179929 20:-0.0036650000 21:0.4042829871 22:-0.2253510058 
24.4786891937 2:1.0000000000 11:0.3142549992 12:0.4629519880 13:-0.2139360011 14:-0.2008849978 15:0.0348419994 16:-0.2504310012 17:0.0138149997 18:-0.3129470050 19:-0.5282589793 20:-0.1761769950 21:0.4070770144 22:-0.0188449994 
-32.0000000000 2:1.0000000000 11:0.0398180000 12:0.2469789982 13:-0.1345160007 14:0.0712649971 15:0.1954369992 16:-0.1847849935 17:-0.1331959963 18:-0.0191459991 19:-0.0275030006 20:0.0880480036 21:0.0721450001 22:0.0489359982 
-32.0000000000 2:1.0000000000 11:0.5908030272 12:0.2339480072 13:-0.0383919999 14:0.0032460000 15:0.2392259985 16:0.0586070009 17:-0.0744080022 18:-0.0258930009 19:-0.1853780001 20:0.0011239999 21:0.3282139897 22:-0.1877900064 
32.0000000000 2:1.0000000000 11:0.2285339981 12:0.2013549954 13:-0.1431480050 14:0.1031809971 15:0.0946480036 16:-0.1262619942 17:0.0482689999 18:-0.1082020029 19:-0.1084150001 20:0.0653349981 21:0.2073089927 22:-0.0739229992 
-0.5922576189 2:1.0000000000 11:0.5641790032 12:0.2368160039 13:-0.0673770010 14:-0.3055480123 15:0.3678700030 16:-0.1375270039 17:0.0223420002 18:-0.0073650000 19:-0.0488249995 20:0.0220120009 21:0.3654299974 22:-0.2718110085 
-32.0000000000 6:1.0000000000 11:0.1666409969 12:0.0521549992 13:-0.0558179989 14:-0.1869550049 15:-0.1641760021 16:-0.0956529975 17:-0.0393280014 18:-0.0949679986 19:-0.2021970004 20:-0.1128659993 21:-0.0973870009 22:-0.0534819998 
31.4189567566 2:1.0000000000 11:0.5804989934 12:0.3707579970 13:-0.1306139976 14:0.0717070028 15:0.4224869907 16:-0.1288329959 17:-0.1731989980 18:-0.0813670009 19:-0.1625330001 20:-0.0160319991 21:0.5814970136 22:-0.6305480003 
32.0000000000 6:1.0000000000 11:0.0548029989 12:0.2241519988 13:-0.1046030000 14:-0.1415829957 15:-0.2152529955 16:-0.0652109981 17:-0.0323639996 18:0.0385550000 19:-0.2803260088 20:-0.1116250008 21:0.0930339992 22:-0.1575949937 
-32.0000000000 6:1.0000000000 11:-0.3995699883 12:0.1452639997 13:-0.0164379999 14:-0.0087829996 15:-0.0053619999 16:0.0210400000 17:-0.0034169999 18:-0.0347269997 19:-0.0215939991 20:0.0004520000 21:0.0098400004 22:-0.0192489997 
-32.0000000000 2:1.0000000000 11:-0.0652979985 12:0.1764219999 13:-0.0539099984 14:0.0458760001 15:0.1085020006 16:-0.0493590012 17:-0.0754979998 18:-0.0308320001 19:0.0113190003 20:0.0480870008 21:0.0596520007 22:0.0453549996 
8.1766128540 6:1.0000000000 11:-0.3485060036 12:0.1482540071 13:0.0313730016 14:0.0284310002 15:0.0104029998 16:0.0379140005 17:0.0109240003 18:-0.0768819973 19:-0.0325510018 20:0.0198689997 21:-0.0602030009 22:-0.0103430003 
32.0000000000 6:1.0000000000 11:-0.3688499928 12:0.1502079964 13:-0.0843050033 14:0.0031900001 15:0.0227240007 16:0.0410469994 17:-0.0073110000 18:-0.0683180019 19:-0.0282499995 20:0.0285230000 21:0.0507580005 22:0.0029650000 
-32.0000000000 2:1.0000000000 11:-0.0320679992 12:0.1672970057 13:-0.0986810029 14:0.0575350001 15:0.1216010004 16:-0.0004260000 17:-0.0403949991 18:-0.0493040010 19:-0.0909589976 20:0.0378829986 21:0.0531070009 22:-0.0176320001 
-32.0000000000 6:1.0000000000 11:0.0571050011 12:0.2278140038 13:-0.0329519995 14:0.0707279965 15:-0.0224879999 16:0.0393700004 17:0.0432059988 18:-0.0699850023 19:-0.1889809966 20:0.0053619999 21:0.1639730036 22:-0.0618349984 
32.0000000000 6:1.0000000000 11:0.0201089997 12:0.2496030033 13:-0.0592879988 14:0.0696030036 15:-0.0497189984 16:-0.1467680037 17:-0.0845910013 18:-0.1285890043 19:-0.3212440014 20:-0.1893330067 21:0.1948820055 22:0.0425059982 
-0.7607460022 2:1.0000000000 11:-0.2325569987 12:0.6076959968 13:-0.0282749999 14:0.0837180018 15:0.2167969942 16:-0.2619329989 17:-0.3640280068 18:-0.0153860003 19:-0.0518330000 20:-0.5392810106 21:-0.3255800009 22:-0.0309330001 
-32.0000000000 2:1.0000000000 11:-0.1125300005 12:0.1708370000 13:-0.1258459985 14:0.0193680003 15:0.0924559981 16:0.0019560000 17:-0.0331710018 18:-0.0501369983 19:-0.0983010009 20:-0.0002740000 21:0.0722990036 22:0.0203970000 
32.0000000000 6:1.0000000000 11:-0.3648130000 12:0.0718379989 13:-0.0766460001 14:-0.0655289963 15:-0.0738070011 16:-0.0495860018 17:-0.0556319989 18:-0.0775670037 19:-0.0844520032 20:-0.0475029983 21:-0.0394439995 22:-0.0650430024 
32.0000000000 6:1.0000000000 11:-0.0423969999 12:0.1772159934 13:-0.0108660003 14:0.0221890006 15:0.0110440003 16:0.0649639964 17:-0.0462119989 18:-0.0025990000 19:-0.1011449993 20:0.0643870011 21:0.1074889973 22:-0.0654539987 
23.7570323944 2:1.0000000000 11:0.3086059988 12:0.2548219860 13:-0.1706809998 14:0.1258209944 15:0.1791930050 16:-0.1331550032 17:0.0621000007 18:-0.1569990069 19:-0.1331820041 20:0.0108709997 21:0.1431879997 22:-0.1970590055 
-13.0410375595 2:1.0000000000 11:-0.1309639961 12:0.5303649902 13:-0.1927949935 14:0.0501199998 15:0.2232840061 16:-0.2683939934 17:-0.3428280056 18:-0.1093750000 19:0.0375170000 20:-0.0912510008 21:-0.1782619953 22:-0.1617199928 
-32.0000000000 6:1.0000000000 11:-0.5150920153 12:0.4466550052 13:0.1057820022 14:0.0080100000 15:0.0138490004 16:-0.0586679988 17:0.0219400004 18:-0.1500319988 19:-0.1487379968 20:-0.0451840013 21:-0.0535110012 22:-0.0875250027 
-32.0000000000 2:1.0000000000 11:-0.7103499770 12:0.1764219999 13:0.0117859999 14:0.0190619994 15:-0.0082820002 16:0.0220309999 17:0.0154449996 18:-0.0030850000 19:0.0285390001 20:-0.0225789994 21:0.0438879989 22:0.0054359999 
26.2416858673 6:1.0000000000 11:-0.0543490015 12:0.5932310224 13:-0.2242259979 14:-0.1656350046 15:-0.1421640068 16:-0.2154529989 17:0.0092179999 18:-0.0959889963 19:-0.2298679948 20:0.3206509948 21:0.5855000019 22:0.0267469995 
32.0000000000 2:1.0000000000 11:0.0451559983 12:0.2421569973 13:-0.1742949933 14:0.0828030035 15:0.1707549989 16:-0.1007789969 17:-0.1387780011 18:-0.0641150028 19:-0.0958229974 20:0.0212539993 21:0.0888890028 22:0.0459970012 
9.5418491364 6:1.0000000000 11:-0.4140929878 12:0.1902469993 13:-0.0011810000 14:-0.0131010003 15:-0.1157979965 16:-0.0259729996 17:-0.1311440021 18:-0.1206699982 19:-0.0390099995 20:-0.1267179996 21:-0.0899960026 22:0.0372270010 
32.0000000000 2:1.0000000000 11:-0.0457080007 12:0.1620790064 13:-0.1174239963 14:0.0260669999 15:0.0920630023 16:0.0086009996 17:-0.0792900026 18:-0.0747909993 19:-0.0255939998 20:0.0672390014 21:0.0247740000 22:0.0287149996 
-32.0000000000 2:1.0000000000 11:-0.0360970013 12:0.1686100066 13:-0.1061019972 14:0.0333009996 15:0.1063650027 16:-0.0020210000 17:-0.0148369996 18:-0.0586070009 19:-0.0854569972 20:0.0252010003 21:0.0396649987 22:0.0313110016 
5.9351229668 2:1.0000000000 11:-0.1065519974 12:0.1759030074 13:-0.0737769976 14:-0.1187369972 15:0.0801090002 16:-0.0348960012 17:-0.1091030017 18:-0.0925899968 19:0.0172719993 20:0.0515270010 21:0.0156720001 22:-0.0379780009 
32.0000000000 6:1.0000000000 11:0.1023690030 12:0.2117619962 13:-0.0697769970 14:-0.0089290002 15:-0.0929730013 16:-0.0323779993 17:0.1199729964 18:-0.0131099997 19:-0.2340990007 20:0.0864820033 21:0.1926719993 22:-0.0906879976 
32.0000000000 6:1.0000000000 11:-0.0457130000 12:0.1592099965 13:-0.0231669992 14:-0.0052359998 15:-0.0257060006 16:0.0551019982 17:-0.0690020025 18:-0.0014210000 19:-0.1258130074 20:0.0489250012 21:0.0982640013 22:-0.0146639999 
-3.1841518879 6:1.0000000000 11:-0.5055009723 12:0.4480899870 13:-0.1216859967 14:-0.2326609939 15:0.2696020007 16:0.3486410081 17:0.0876609981 18:-0.0969050005 19:-0.0128290001 20:0.0611400008 21:-0.0131470002 22:-0.2055409998 
32.0000000000 2:1.0000000000 11:-0.7501000166 12:0.1644289941 13:-0.0549390018 14:0.0227819998 15:0.0095309997 16:0.0402050018 17:-0.0114810001 18:-0.0696619973 19:0.0157210007 20:-0.0226600002 21:-0.0170210004 22:-0.0855560005 
32.0000000000 2:1.0000000000 11:-0.7236840129 12:0.1690060049 13:-0.0003560000 14:0.0309519991 15:0.0005500000 16:-0.0103289997 17:-0.0065899999 18:-0.0795959979 19:-0.0134880003 20:-0.0186180007 21:0.0274650007 22:-0.0191459991 
-32.0000000000 6:1.0000000000 11:-0.4012899995 12:0.1884150058 13:-0.0119810002 14:0.0445859991 15:0.0191649999 16:0.0002930000 17:-0.0930700004 18:-0.0179980006 19:0.0364399999 20:0.0448409989 21:0.0637570024 22:0.0275359992 
32.0000000000 2:1.0000000000 11:0.0470389985 12:0.2232359946 13:-0.0907879993 14:0.1074870005 15:0.1935829967 16:-0.0555850007 17:-0.0902929977 18:-0.0032329999 19:-0.0248860009 20:0.0641679987 21:0.0937570035 22:0.0922000036 
-1.0436794758 2:1.0000000000 11:0.5815929770 12:0.3145450056 13:-0.2785840034 14:-0.1247669980 15:0.4507580101 16:-0.1221039966 17:0.0556299984 18:0.0424039997 19:-0.1074670032 20:0.0452309996 21:0.4846760035 22:-0.3168340027 
-32.0000000000 2:1.0000000000 11:-0.0762649998 12:0.1759030074 13:-0.0879679993 14:0.0545829982 15:0.1066259965 16:-0.0431240015 17:-0.0648090020 18:-0.0200500004 19:0.0077410000 20:0.0484369993 21:0.0471629985 22:0.0542859994 
32.0000000000 2:1.0000000000 11:0.6123890281 12:0.2333070040 13:-0.2306530029 14:-0.0577349998 15:0.0896740034 16:-0.0027020001 17:-0.1276549995 18:0.0327129997 19:-0.1099020019 20:0.0243190005 21:0.3707700074 22:-0.1542890072 
-8.5329856873 6:1.0000000000 11:-0.7157520056 12:0.1705629975 13:0.0058590001 14:-0.0037839999 15:0.0235970002 16:-0.0046160002 17:0.0492400005 18:-0.0164030008 19:-0.0002440000 20:0.0233459994 21:-0.0224730000 22:-0.0068359999 
-28.5155258179 2:1.0000000000 11:0.2291010022 12:0.1996459961 13:-0.1423269957 14:0.1374340057 15:0.1233939976 16:-0.1056620032 17:0.0974619985 18:-0.0529469997 19:-0.1663500071 20:-0.0296500009 21:0.2352119982 22:-0.0505679995 
32.0000000000 6:1.0000000000 11:0.0715589970 12:0.2265010029 13:-0.0102220001 14:0.1307159960 15:-0.0110320002 16:-0.0742160007 17:-0.0446659997 18:-0.0468269996 19:-0.1812900007 20:0.1425269991 21:0.1494009942 22:-0.1465079933 
-32.0000000000 2:1.0000000000 11:-0.4052430093 12:0.1466979980 13:0.0078889998 14:-0.0043370002 15:0.0213259999 16:0.0017690000 17:-0.0003330000 18:-0.0145110004 19:-0.0161639992 20:0.0183559991 21:0.0224840008 22:-0.0217579994 
-32.0000000000 2:1.0000000000 11:0.2305680066 12:0.1988520026 13:-0.1508409977 14:0.1337099969 15:-0.0988169983 16:-0.1094209999 17:-0.0331530012 18:-0.0882010013 19:-0.0015030000 20:0.0248220004 21:0.2120130062 22:-0.1591559947 
-32.0000000000 6:1.0000000000 11:0.0486110002 12:0.2309570014 13:-0.0417499989 14:0.0907009989 15:-0.0306349993 16:-0.0004910000 17:0.0417400002 18:-0.0670770034 19:-0.2006999999 20:-0.0032240001 21:-0.0746330023 22:-0.0654740036 
-32.0000000000 6:1.0000000000 11:-0.0321360007 12:0.3228760064 13:-0.0377219990 14:0.0250070002 15:0.0064829998 16:-0.0063880002 17:-0.0031590001 18:-0.2303059995 19:-0.1942390054 20:0.0713040009 21:0.1804949939 22:-0.1389719993 
-32.0000000000 6:1.0000000000 11:-0.3820360005 12:0.1812440008 13:-0.1107890010 14:-0.0204329994 15:0.0117140003 16:0.0319989994 17:0.0261160005 18:-0.0612850003 19:-0.1107240021 20:-0.0075949999 21:0.0370300002 22:-0.0065049999 
-32.0000000000 2:1.0000000000 11:0.6042960286 12:0.2333070040 13:-0.2280369997 14:-0.0046440000 15:0.1218390018 16:0.0033859999 17:-0.2887420058 18:-0.0197080001 19:-0.2682990134 20:-0.0899069980 21:0.2011979967 22:-0.1902530044 
32.0000000000 2:1.0000000000 11:0.5915160179 12:0.2339480072 13:-0.0322440006 14:-0.0286720004 15:0.1646440029 16:-0.0230449997 17:-0.2889930010 18:0.0812980011 19:-0.1919700056 20:0.0073150001 21:0.1775290072 22:-0.2125959992 
-16.2579956055 2:1.0000000000 11:0.2265540063 12:0.1990049928 13:-0.2480549961 14:0.0247339997 15:0.1815260053 16:-0.2157900035 17:0.1001330018 18:-0.1658059955 19:-0.0732650012 20:-0.0180200003 21:0.2202060074 22:-0.0563100018 
-3.7334458828 6:1.0000000000 11:-0.4210830033 12:0.4653019905 13:-0.0439920016 14:-0.0579750016 15:-0.0752969980 16:-0.1672710031 17:-0.3574590087 18:-0.1632460058 19:-0.0361940004 20:-0.0275379997 21:-0.0129509997 22:-0.0786589980 
4.0663137436 2:1.0000000000 11:0.4316940010 12:0.4955439866 13:-0.7556329966 14:0.5300760269 15:0.2549799979 16:0.1018790007 17:-0.1733620018 18:-0.0408839993 19:-0.3752900064 20:0.0944250003 21:0.3379670084 22:-0.4869160056 
10.0000610352 6:1.0000000000 11:-0.3488650024 12:0.1444700062 13:-0.0740510002 14:0.0111590000 15:0.0295829996 16:0.0197039992 17:-0.0160869993 18:-0.0802609995 19:-0.0286270007 20:0.0280510001 21:-0.0666040033 22:-0.0090619996 
32.0000000000 6:1.0000000000 11:-0.3431130052 12:0.1446229964 13:-0.0002190000 14:0.0190570001 15:0.0091509996 16:0.0301409997 17:-0.0029130001 18:-0.0696360022 19:-0.0187100004 20:0.0335239992 21:0.0492179990 22:-0.0087139998 
1.9218313694 2:1.0000000000 11:-0.3552399874 12:0.1504819989 13:-0.0094929999 14:0.0386219993 15:0.0453290008 16:-0.0192399994 17:-0.0298689995 18:-0.0676800013 19:-0.0018680000 20:0.0298500005 21:0.0414730012 22:0.0065660002 
-6.7943286896 2:1.0000000000 11:0.3046529889 12:0.2426760048 13:-0.1031859964 14:0.2053250074 15:-0.0761699975 16:0.0766360015 17:-0.1652009934 18:-0.0057919999 19:-0.1559000015 20:-0.1056699976 21:0.4495140016 22:-0.1444250047 
32.0000000000 6:1.0000000000 11:-0.0347950011 12:0.1645510048 13:-0.0415670015 14:-0.0221110005 15:0.0081200004 16:0.0504710004 17:-0.0609380007 18:0.0258740000 19:-0.1230039969 20:0.0389049985 21:0.1050089970 22:0.0106309997 
32.0000000000 2:1.0000000000 11:-0.0557999983 12:0.1695249975 13:-0.0647739992 14:0.0362970009 15:0.1019190028 16:0.0065730000 17:-0.0854389966 18:-0.0871760026 19:-0.0584379993 20:-0.0532260016 21:0.0518950000 22:0.0741790012 
-32.0000000000 6:1.0000000000 11:0.0484739989 12:0.2255859971 13:-0.0383439995 14:0.0700239986 15:-0.0129640000 16:-0.0264240000 17:-0.1285250038 18:-0.1267759949 19:-0.2041960061 20:-0.1628759950 21:0.1309439987 22:-0.0088769998 
-32.0000000000 6:1.0000000000 11:-0.0251729991 12:0.1647029966 13:-0.0862430036 14:-0.0635040030 15:-0.0255420003 16:0.0252030008 17:-0.0825380012 18:0.0388180017 19:-0.0847709998 20:0.0526599996 21:0.1135199964 22:-0.0073710000 
-3.6650459766 2:1.0000000000 11:0.3112359941 12:0.2550660074 13:-0.1969279945 14:0.1372819990 15:-0.0355629995 16:0.0146169998 17:-0.1915140003 18:0.0788540021 19:-0.0744479969 20:0.0351400003 21:0.3431119919 22:-0.1606709957 
3.6598491669 2:1.0000000000 11:-0.3347069919 12:0.4674989879 13:-0.0998039991 14:0.0364109986 15:-0.1833110005 16:-0.0395070016 17:-0.0009190000 18:-0.3019169867 19:-0.3277289867 20:-0.0219100006 21:-0.2396869957 22:-0.3512479961 
-32.0000000000 2:1.0000000000 11:0.3148500025 12:0.2433470041 13:-0.1399489939 14:0.1583490074 15:0.0668879971 16:0.0466249995 17:0.0346809998 18:-0.0234910008 19:-0.0682130009 20:0.0208960008 21:0.1176699996 22:-0.0577370003 
-1.6132007837 2:1.0000000000 11:0.2891829908 12:0.4629519880 13:-0.6991609931 14:0.1218679994 15:0.0053190002 16:-0.1549839973 17:-0.1498800069 18:0.1612749994 19:-0.0526250005 20:0.0757139996 21:0.5429260135 22:-0.2541140020 
5.3746643066 6:1.0000000000 11:-0.3704659939 12:0.6362609863 13:-0.1307229996 14:-0.3622849882 15:-0.0412320010 16:-0.0372320004 17:-0.4624890089 18:-0.3982470036 19:0.0133119998 20:0.0876410007 21:-0.4321680069 22:-0.4303950071 
-32.0000000000 6:1.0000000000 11:-0.3458809853 12:0.1434330046 13:-0.0086639998 14:0.0369360000 15:0.0029930000 16:0.0249589998 17:0.0241669994 18:-0.0376069993 19:-0.0850680023 20:0.0086629996 21:0.0565310009 22:-0.0004050000 
-32.0000000000 6:1.0000000000 11:-0.0479860008 12:0.1692509949 13:-0.0109249996 14:0.0165400002 15:-0.0188430008 16:0.0129730003 17:-0.0944200009 18:-0.0231309999 19:-0.1182539985 20:0.0098010004 21:0.1083419994 22:0.0162950009 
-32.0000000000 6:1.0000000000 11:-0.0245180000 12:0.1656190008 13:0.0012170000 14:0.0034690001 15:-0.0109289996 16:0.0801649988 17:0.0071089999 18:-0.0248249993 19:-0.1627970040 20:0.0007520000 21:0.1259589940 22:0.0070340000 
13.1039876938 6:1.0000000000 11:0.5812919736 12:0.3145450056 13:-0.0117210001 14:-0.2319519967 15:0.0221849997 16:-0.0790679976 17:0.3125979900 18:-0.5281329751 19:-0.2785840034 20:-0.1247669980 21:0.4507580101 22:-0.1221039966 
32.0000000000 6:1.0000000000 11:-0.3369280100 12:0.1455380023 13:-0.0011740000 14:0.0257079992 15:0.0073600002 16:-0.0067799999 17:-0.1040529981 18:-0.0754949972 19:-0.0105160000 20:0.0269859992 21:0.0603949986 22:-0.0202290006 
-4.5426282883 6:1.0000000000 11:0.1135020033 12:0.5161439776 13:0.1212069988 14:0.1301279962 15:-0.1740310043 16:-0.0728359967 17:0.1115650013 18:-0.3805980086 19:-0.2239300013 20:0.4738470018 21:0.0692320019 22:-0.4350210130 
-12.6997709274 6:1.0000000000 11:0.1224130020 12:0.5112000108 13:0.1212270036 14:0.0978330001 15:-0.2292860001 16:-0.0778699964 17:0.0857789963 18:-0.4004330039 19:-0.2357320040 20:0.4310419858 21:0.2515999973 22:-0.3413250148 
32.0000000000 2:1.0000000000 11:-0.0313940011 12:0.1656190008 13:-0.1093730032 14:0.0492839999 15:0.1179540008 16:-0.0046259998 17:-0.0776910037 18:-0.0751020014 19:-0.0374029987 20:0.0734089985 21:-0.0316700004 22:-0.0048409998 
32.0000000000 2:1.0000000000 11:0.0614329986 12:0.2253420055 13:-0.1442310065 14:0.0631930009 15:0.1733089983 16:-0.1195209995 17:-0.1120010018 18:-0.0330680013 19:-0.0919499993 20:0.0245750006 21:0.0641660020 22:0.0361119993 
-0.8278416395 6:1.0000000000 11:0.4756250083 12:0.4151000082 13:0.1411560029 14:-0.3632690012 15:-0.0104550002 16:-0.4939529896 17:0.3733130097 18:-0.5147179961 19:-0.0234370008 20:0.1211510003 21:0.5547789931 22:-0.4367879927 
32.0000000000 6:1.0000000000 11:-0.3499900103 12:0.1438290030 13:0.0040500001 14:0.0315710008 15:0.0148649998 16:0.0004070000 17:-0.1169689968 18:-0.0790240020 19:0.0032720000 20:0.0444459990 21:0.0083959997 22:-0.0956849977 
32.0000000000 2:1.0000000000 11:-0.3420200050 12:0.1438290030 13:-0.0005220000 14:0.0297609996 15:0.0559049994 16:-0.0213350002 17:-0.0212399997 18:-0.0645729974 19:-0.0046640001 20:0.0301150009 21:0.0377629995 22:-0.0068509998 
-32.0000000000 2:1.0000000000 11:0.2314209938 12:0.2000429928 13:-0.1004929990 14:0.1011530012 15:0.0982289985 16:-0.2094839960 17:0.1136619970 18:-0.2118500024 19:-0.0715380013 20:-0.0216130000 21:0.2377679944 22:-0.0448840000 
