svm_type c_svc
kernel_type rbf
gamma 2.000000
nr_class 2
total_sv 4468
rho 0.0680211857
label 1 -1
nr_sv 2016 2452
SV
32.0000000000 5:1.0000000000 11:-0.4033359885 12:0.1417540014 13:-0.1183290035 14:-0.1195480004 15:-0.0110820001 16:0.0071999999 17:-0.0042750002 18:-0.0804959983 19:-0.0241509993 20:0.0010019999 21:-0.0020880001 22:0.0227310006 
-32.0000000000 4:1.0000000000 11:0.6116520166 12:0.3446649909 13:0.3545629978 14:-0.1612980068 15:-0.0422750004 16:-0.1390559971 17:-0.1703920066 18:-0.2312480062 19:0.5293800235 20:-0.3063090146 21:-0.0855960026 22:-0.0052550002 
4.9414196014 4:1.0000000000 11:0.3467119932 12:0.4488529861 13:0.4343979955 14:-0.1821659952 15:0.2311789989 16:-0.0402849987 17:-0.1780519933 18:-0.3569610119 19:-0.2740980089 20:-0.1344310045 21:-0.5992019773 22:0.6060720086 
31.9260730743 3:1.0000000000 11:0.2709159851 12:0.2913210094 13:-0.1043099985 14:0.1098259985 15:-0.0630389974 16:0.1637499928 17:-0.0772970021 18:-0.1622920036 19:-0.1270119995 20:0.3604219854 21:-0.1975599974 22:-0.2463469952 
2.8912818432 8:1.0000000000 11:0.2928439975 12:0.2734679878 13:-0.1383800060 14:-0.0688830018 15:0.4058229923 16:-0.1114739999 17:-0.2064329982 18:-0.0297510009 19:0.1199920028 20:-0.0547740012 21:0.1264699996 22:0.0520850010 
-9.2222604752 1:1.0000000000 11:-0.1767220050 12:0.5500490069 13:-0.1274369955 14:0.0362670012 15:0.1855960041 16:0.1403249949 17:-0.2970589995 18:-0.1093809977 19:0.1515139937 20:0.1132209972 21:0.1348949969 22:0.3397330046 
-32.0000000000 8:1.0000000000 11:0.0650620013 12:0.0437930003 13:-0.1204349995 14:-0.1322519928 15:-0.0023030001 16:-0.1007089987 17:-0.1866849959 18:-0.1259910017 19:-0.0320000015 20:-0.1805779934 21:-0.0312019996 22:-0.1314810067 
-31.8822860718 3:1.0000000000 11:-0.0348230004 12:0.1661379933 13:-0.0882730037 14:0.0760480016 15:0.0179130007 16:-0.0700440034 17:-0.0645650029 18:-0.0256880000 19:0.0659760013 20:0.0262129996 21:0.0460730009 22:-0.1409440041 
-3.6643049717 6:1.0000000000 11:0.5763030052 12:0.3629150093 13:0.0683159977 14:-0.2977510095 15:0.0778720006 16:-0.2002020031 17:0.4749799967 18:-0.5546119809 19:-0.0010660000 20:-0.0387200005 21:0.1310130060 22:-0.1214279979 
-2.0746240616 9:1.0000000000 11:0.6270350218 12:0.3074949980 13:-0.0360199995 14:0.6113359928 15:-0.3771030009 16:-0.0064880000 17:-0.0260840002 18:0.4311630130 19:-0.3097040057 20:-0.0555289984 21:-0.2399030030 22:-0.2310660034 
-29.1638412476 7:1.0000000000 11:-0.0398319997 12:0.5202029943 13:0.0022970000 14:-0.1326889992 15:-0.1063169986 16:-0.0982709974 17:-0.3295469880 18:-0.5812590122 19:0.0290130004 20:0.2652670145 21:-0.2130690068 22:-0.1835869998 
-32.0000000000 9:1.0000000000 11:-0.4592750072 12:0.1961369962 13:0.0790600032 14:0.0763550028 15:0.0374640003 16:0.0357219987 17:0.0350599997 18:0.0030940000 19:0.0625739992 20:0.0264560003 21:-0.0759890005 22:0.0224140007 
32.0000000000 3:1.0000000000 11:0.3210810125 12:0.0941469967 13:-0.1046449989 14:-0.1404500008 15:0.0560499988 16:-0.1675119996 17:-0.1181690022 18:-0.1169060022 19:-0.1588329971 20:0.0904600024 21:-0.1224810034 22:-0.1915089935 
31.9971427917 4:1.0000000000 11:-0.4048820138 12:0.1468199939 13:-0.0107070003 14:-0.0051219999 15:-0.0122950003 16:0.0030739999 17:-0.0324169993 18:-0.0902419984 19:-0.0284189992 20:-0.0856899992 21:-0.0390699990 22:0.0303360000 
-29.5402259827 6:1.0000000000 11:-0.0339489989 12:0.1648250073 13:0.0176270008 14:0.0230679996 15:-0.0230330005 16:0.0322519988 17:-0.1004619971 18:0.0414579995 19:-0.1093050018 20:-0.1007200032 21:0.1031749994 22:0.0258660000 
28.3898353577 9:1.0000000000 11:0.2203540057 12:0.1999209970 13:0.0508639999 14:0.2148579955 15:-0.2066410035 16:-0.0956630036 17:-0.0641660020 18:-0.1826190054 19:0.0264749993 20:-0.0615190007 21:0.0874779969 22:-0.0208209995 
-2.0469348431 10:1.0000000000 11:-0.5237069726 12:0.4859009981 13:0.0439359993 14:-0.0976340026 15:-0.1144739985 16:-0.0575970002 17:-0.0477950014 18:-0.1202280000 19:-0.0990950018 20:-0.1531179994 21:-0.2994019985 22:0.1337620020 
32.0000000000 3:1.0000000000 11:-0.7408930063 12:0.1780090034 13:0.0417230017 14:0.0165870003 15:0.0251790006 16:0.0262819994 17:0.0294749998 18:-0.0766960010 19:-0.0093369996 20:0.0557130016 21:0.0185880009 22:0.0146880001 
32.0000000000 10:1.0000000000 11:0.2037589997 12:0.2055049986 13:0.2115959972 14:-0.0855069980 15:-0.1413059980 16:-0.0382359996 17:-0.0696510002 18:-0.0000590000 19:-0.0167030003 20:0.0398960002 21:0.0056329998 22:-0.0015030000 
-32.0000000000 10:1.0000000000 11:-0.3485719860 12:0.1448670030 13:0.0253020003 14:-0.0013320000 15:-0.0286270007 16:0.0297780000 17:0.0386350006 18:-0.0302610006 19:-0.0147089995 20:0.0223360006 21:0.0047660000 22:0.0387150012 
32.0000000000 10:1.0000000000 11:-0.3426330090 12:0.1433109939 13:0.0288219992 14:-0.0240659993 15:-0.0902369991 16:0.0122969998 17:0.0199289992 18:-0.0875940025 19:-0.0059920000 20:0.0449340008 21:0.0064719999 22:0.0203520004 
-12.5976533890 2:1.0000000000 11:-0.5113059878 12:0.3652650118 13:-0.0258889999 14:-0.1413269937 15:0.2138070017 16:0.1974370033 17:0.0516850017 18:-0.0183359999 19:0.0500760004 20:0.0839980021 21:-0.0122900000 22:-0.1099070013 
-32.0000000000 3:1.0000000000 11:0.3358069956 12:0.0941469967 13:-0.1245620027 14:-0.0904290006 15:0.0402520001 16:-0.1608480066 17:-0.1783310026 18:-0.1293780059 19:-0.1583759934 20:0.0833770037 21:-0.1623360068 22:-0.1495199949 
32.0000000000 7:1.0000000000 11:-0.3502590060 12:0.1443479955 13:0.0361919999 14:-0.0103979995 15:0.0196339991 16:0.0260119997 17:-0.0186609998 18:-0.0887399986 19:0.0043569999 20:0.0582909994 21:0.0051560001 22:0.0077920002 
32.0000000000 4:1.0000000000 11:-0.0238879994 12:0.1644289941 13:0.0960329995 14:0.0090589998 15:-0.0515710004 16:-0.0628520027 17:-0.1141749993 18:-0.0955990031 19:0.0449169986 20:0.0496030003 21:-0.0986640006 22:0.0486180000 
32.0000000000 8:1.0000000000 11:0.1994969994 12:0.2065429986 13:-0.0320530012 14:0.0016100000 15:0.2354349941 16:-0.0847849995 17:-0.1503760070 18:-0.0319809988 19:0.0582350008 20:-0.0514740013 21:0.0317590013 22:-0.0525030009 
32.0000000000 10:1.0000000000 11:-0.1090219989 12:0.1806029975 13:0.1041409969 14:0.0331109986 15:-0.0384460017 16:0.0438290015 17:0.0646570027 18:-0.1030969992 19:0.0142740002 20:0.0481030010 21:0.0450999998 22:0.0291850008 
-30.4217700958 1:1.0000000000 11:-0.0726419985 12:0.5332340002 13:-0.2220589966 14:-0.2786279917 15:0.0522419997 16:0.2091359943 17:-0.2382220030 18:-0.3534480035 19:-0.3979580104 20:-0.2196040004 21:0.0237429999 22:0.1327680051 
-24.9874629974 7:1.0000000000 11:-0.3475799859 12:0.1418759972 13:0.0221779998 14:-0.0153390002 15:-0.0768200010 16:-0.0121900002 17:-0.0536889993 18:-0.0245270003 19:0.0278229993 20:0.0599079989 21:-0.0143780001 22:-0.0003280000 
-32.0000000000 10:1.0000000000 11:0.0457060002 12:0.2293699980 13:0.0521360002 14:0.0410830006 15:-0.1004630029 16:0.0685210004 17:-0.0326909982 18:-0.0928300023 19:0.0084389998 20:0.1045299992 21:-0.0142099997 22:-0.0218610000 
-3.6626100540 6:1.0000000000 11:0.4008280039 12:0.4483340085 13:0.0562399998 14:-0.3448260128 15:0.1007189974 16:-0.2490060031 17:0.4276340008 18:-0.5599939823 19:-0.2190819979 20:-0.2114329934 21:0.0281440001 22:-0.2592670023 
9.6980085373 8:1.0000000000 11:0.4100379944 12:0.4886470139 13:-0.3312599957 14:-0.3266690075 15:0.3981550038 16:-0.5413039923 17:-0.1862439960 18:-0.2594160140 19:0.5076130033 20:-0.1157160029 21:0.2135369927 22:0.0627780035 
10.8070535660 6:1.0000000000 11:-0.1837199926 12:0.5554199815 13:0.0100029996 14:0.1204510033 15:0.0759570003 16:0.0687960014 17:0.0174330007 18:-0.3234759867 19:-0.1982139945 20:0.1914090067 21:0.2881250083 22:0.0051799999 
32.0000000000 9:1.0000000000 11:-0.5161730051 12:0.0865779966 13:-0.0523220003 14:-0.0524390005 15:-0.0593100004 16:-0.0604780018 17:-0.0489340015 18:-0.0624580011 19:-0.0574829988 20:-0.0597999990 21:-0.0396360010 22:-0.0351530015 
-17.7672863007 9:1.0000000000 11:0.6153079867 12:0.2390439957 13:-0.0737309977 14:0.4300450087 15:-0.2662070096 16:-0.0066229999 17:-0.1036100015 18:0.2666960061 19:-0.0551309995 20:0.0036670000 21:-0.0197800007 22:-0.1170419976 
32.0000000000 8:1.0000000000 11:-0.3755669892 12:0.1487729996 13:0.0182610005 14:0.0383649990 15:-0.0108289998 16:-0.0835319981 17:-0.0444810018 18:-0.0727400035 19:0.0361110009 20:0.0087649999 21:0.0147270001 22:0.0304429997 
-15.6352100372 3:1.0000000000 11:0.2572329938 12:0.1937869936 13:0.1058669984 14:0.0392320007 15:0.0411829986 16:-0.0425480008 17:-0.0970079973 18:-0.1312180012 19:-0.0134389997 20:0.1182710007 21:-0.2473009974 22:-0.0927060023 
-1.3221509457 5:1.0000000000 11:-0.2020439953 12:0.5872189999 13:0.0466069989 14:0.0498359986 15:0.1111719981 16:0.0742470026 17:0.0357219987 18:-0.0160499997 19:-0.3435400128 20:-0.1325930059 21:0.1926659942 22:0.2739230096 
32.0000000000 8:1.0000000000 11:0.3006739914 12:0.2437130064 13:-0.1360789984 14:-0.1514440030 15:0.2283699960 16:-0.0572710000 17:-0.2208089978 18:-0.0791340023 19:-0.0743440017 20:-0.0550840013 21:-0.1524620056 22:-0.0671899989 
32.0000000000 4:1.0000000000 11:0.2796559930 12:0.2863770127 13:0.1800259948 14:-0.0474109985 15:0.1516250074 16:-0.0291620009 17:-0.1009799987 18:-0.1379519999 19:0.2084639966 20:-0.0792089999 21:-0.1342349946 22:0.1823180020 
-0.7345520258 3:1.0000000000 11:-0.3058399856 12:0.5616760254 13:-0.3738610148 14:0.1334500015 15:0.0458259992 16:0.0860060006 17:0.0764459968 18:-0.1064850017 19:-0.3784660101 20:0.1032230034 21:0.0502500013 22:0.0247620009 
-0.8510837555 10:1.0000000000 11:-0.0315669999 12:0.1649470031 13:0.0193200000 14:0.0349540003 15:-0.0975539982 16:0.0278830007 17:0.1003779992 18:-0.0643170029 19:-0.0587209985 20:-0.0292879995 21:-0.0116910003 22:0.0675370023 
-10.0193157196 2:1.0000000000 11:0.2139299959 12:0.2468570024 13:-0.0534350015 14:0.2379540056 15:0.0588359982 16:-0.0467710011 17:0.1930450052 18:-0.0625559986 19:-0.1676869988 20:-0.0132710002 21:0.3098329902 22:-0.0471520014 
-18.4001235962 8:1.0000000000 11:-0.7205730081 12:0.1721190065 13:0.0469000004 14:-0.0007660000 15:0.0261470005 16:0.0036740000 17:0.0084149996 18:0.0162760001 19:-0.0068890001 20:0.0103580002 21:0.0061769998 22:0.0101439999 
32.0000000000 9:1.0000000000 11:0.6106809974 12:0.2390439957 13:-0.0405430011 14:0.3689590096 15:-0.2519479990 16:0.0260419995 17:-0.1289889961 18:0.1220880002 19:-0.1850389987 20:0.0485490002 21:-0.1304080039 22:-0.0371670015 
32.0000000000 5:1.0000000000 11:0.0622560009 12:0.2221989930 13:-0.0832780004 14:-0.0293509997 15:0.0851429999 16:-0.0100459997 17:-0.0689999983 18:0.0289619993 19:-0.0704839975 20:-0.1668930054 21:-0.0686979964 22:0.1557909995 
-4.2970852852 8:1.0000000000 11:-0.2777949870 12:0.4949040115 13:0.1044630036 14:0.1189879999 15:0.1622669995 16:-0.1262159944 17:-0.3123959899 18:-0.0668070018 19:-0.1549499929 20:-0.0095929997 21:0.1420489997 22:0.1658859998 
-32.0000000000 7:1.0000000000 11:0.0869520009 12:0.0437930003 13:-0.1499730051 14:-0.1302369982 15:-0.1391869932 16:-0.0054469998 17:-0.1048419997 18:-0.1703840047 19:-0.0961859971 20:-0.0415830016 21:-0.2036249936 22:-0.0197509993 
-7.8087859154 2:1.0000000000 11:-0.3712080121 12:0.1382140070 13:-0.0482430011 14:0.0096730003 15:0.0070739998 16:-0.0260029994 17:-0.0176309999 18:-0.0038870000 19:-0.0047289999 20:0.0226259995 21:-0.0332739986 22:-0.0975549966 
-2.6642861366 9:1.0000000000 11:0.3030169904 12:0.2422789931 13:-0.0130190002 14:0.1139980033 15:-0.0016780000 16:-0.4747569859 17:0.2611629963 18:0.1008040011 19:-0.1309860051 20:0.1984570026 21:-0.0889960006 22:0.0104329996 
-13.4170436859 1:1.0000000000 11:-0.5210909843 12:0.4316410124 13:0.0689349994 14:-0.0398209989 15:-0.0572899990 16:-0.0285149999 17:-0.0711290017 18:-0.1138250008 19:-0.0987320021 20:-0.0823120028 21:-0.0994289964 22:0.0434830002 
9.4809532166 10:1.0000000000 11:-0.4072029889 12:0.6588129997 13:0.1258019954 14:0.1016509980 15:0.0366690010 16:-0.0211050007 17:-0.4876230061 18:-0.4279269874 19:-0.0603770018 20:-0.2371989936 21:0.0612460002 22:0.2235939950 
-2.1525835991 1:1.0000000000 11:-0.5207030177 12:0.4733889997 13:0.0234660003 14:-0.0432889983 15:-0.2005430013 16:0.1906419992 17:0.1559650004 18:0.0190919992 19:0.0434140004 20:0.0842659995 21:0.0751380026 22:0.0489379987 
-29.1395092010 7:1.0000000000 11:0.3043340147 12:0.2548219860 13:-0.1569990069 14:-0.1331820041 15:0.0108709997 16:0.1431879997 17:-0.1970590055 18:-0.1032399982 19:0.1635060012 20:0.1959339976 21:-0.1011890024 22:0.1425440013 
32.0000000000 5:1.0000000000 11:-0.0806759968 12:0.1773380041 13:0.0099170003 14:-0.0571379997 15:-0.0860280022 16:-0.0068160002 17:0.0164710004 18:-0.0583340004 19:0.0381070003 20:-0.0599949993 21:-0.0961449966 22:0.1033990011 
-32.0000000000 4:1.0000000000 11:0.5837759972 12:0.2356259972 13:0.1705140024 14:-0.1299919933 15:-0.1935680062 16:-0.0571690015 17:-0.2213079929 18:-0.0727799982 19:0.3499130011 20:-0.1430010051 21:-0.0695030019 22:-0.0463799983 
32.0000000000 4:1.0000000000 11:0.2114049941 12:0.2006839961 13:-0.0989549980 14:0.0036040000 15:-0.1007260010 16:-0.0655229986 17:-0.1180360019 18:-0.1051670015 19:0.2484949976 20:-0.0387110002 21:-0.1268710047 22:0.1366879940 
-5.7097473145 1:1.0000000000 11:0.4803380072 12:0.4132690132 13:-0.7479299903 14:0.0669799969 15:-0.2597450018 16:0.7013769746 17:-0.4292800128 18:0.3542189896 19:-0.2260310054 20:0.1164359972 21:-0.1782339960 22:0.6678040028 
32.0000000000 1:1.0000000000 11:-0.0550750010 12:0.1854249984 13:0.0891859978 14:-0.0766870007 15:0.0442220010 16:0.1364720017 17:-0.0637890026 18:-0.1037689969 19:-0.0698039979 20:-0.0582639985 21:0.0643730015 22:-0.0002530000 
4.5827550888 10:1.0000000000 11:0.2104949951 12:0.4424740076 13:0.2669630051 14:-0.1651789993 15:-0.2090470046 16:0.2015320063 17:-0.4473220110 18:-0.3224630058 19:-0.0939550027 20:0.1210500002 21:0.0219829995 22:0.0588230006 
32.0000000000 2:1.0000000000 11:0.6283239722 12:0.3018800020 13:0.0070469999 14:0.0070050000 15:0.3597550094 16:-0.0554829985 17:-0.1905979961 18:0.0543970019 19:-0.2355570048 20:-0.0572110005 21:0.5773450136 22:-0.2924300134 
-14.6115045547 7:1.0000000000 11:-0.0240589995 12:0.1502079964 13:0.0343189985 14:-0.0302670002 15:0.0106239999 16:0.0101739997 17:0.0161119998 18:-0.1235440001 19:0.0180229992 20:0.1184770018 21:-0.0043879999 22:-0.0482610017 
3.8460440636 2:1.0000000000 11:0.1346420050 12:0.4921570122 13:-0.4715799987 14:0.3858000040 15:0.3780600131 16:-0.3929699957 17:0.0317029990 18:-0.0892700031 19:-0.3180339932 20:0.1131130010 21:0.6050580144 22:-0.3210609853 
32.0000000000 9:1.0000000000 11:0.6035079956 12:0.2338259965 13:-0.1161039993 14:0.5185369849 15:-0.3531599939 16:0.0125789996 17:-0.0881149992 18:0.0764200017 19:-0.0548579991 20:-0.1133679971 21:0.0381999984 22:-0.2029760033 
6.9595346451 1:1.0000000000 11:0.5622100234 12:0.3707579970 13:-0.6296430230 14:-0.0673699975 15:-0.4775060117 16:0.5635610223 17:-0.6418870091 18:0.3539890051 19:-0.3224909902 20:0.2308139950 21:-0.1494929940 22:0.8176929951 
-25.6042461395 7:1.0000000000 11:-0.0612899996 12:0.1597290039 13:0.0233079996 14:-0.0107829999 15:0.0354770012 16:0.0151549997 17:0.0303680003 18:-0.1131289974 19:-0.1009029970 20:0.0868180022 21:0.0369479991 22:-0.0810649991 
32.0000000000 2:1.0000000000 11:0.2150840014 12:0.2006839961 13:-0.0658259988 14:0.1322470009 15:-0.0989549980 16:0.0036040000 17:-0.1007260010 18:-0.0655229986 19:-0.1180360019 20:-0.1051670015 21:0.2484949976 22:-0.0387110002 
-32.0000000000 3:1.0000000000 11:-0.0545860007 12:0.1620790064 13:-0.0350410007 14:0.0820999965 15:-0.0958940014 16:-0.1670379937 17:-0.1200020015 18:-0.0709709972 19:0.0264679994 20:0.0262909997 21:0.0539399981 22:-0.0544430017 
-31.9919757843 4:1.0000000000 11:0.2481579930 12:0.1937869936 13:-0.0220209993 14:0.0336799994 15:0.0591370016 16:-0.1201160029 17:-0.1131440029 18:-0.1157810017 19:0.1640470028 20:-0.1094530001 21:-0.1219149977 22:0.1372289956 
32.0000000000 10:1.0000000000 11:0.0688519999 12:0.2298890054 13:0.0858549997 14:-0.0410449989 15:-0.2516910136 16:0.1401209980 17:0.1546809971 18:-0.1822510064 19:-0.0960699990 20:0.0464820005 21:-0.1129460037 22:-0.0415499993 
-32.0000000000 6:1.0000000000 11:-0.3236030042 12:0.1413570046 13:0.0015730000 14:0.0180709995 15:-0.0071919998 16:0.0094489995 17:0.0304019991 18:-0.0454390012 19:-0.0841889977 20:0.0102270003 21:0.0521750003 22:-0.0170009993 
32.0000000000 6:1.0000000000 11:-0.0826719999 12:0.1747439951 13:0.0050760000 14:0.0141080003 15:-0.0078210002 16:0.0454740003 17:-0.0327129997 18:-0.0117980000 19:-0.0979520008 20:0.0535730012 21:0.1032949984 22:0.0180360004 
-32.0000000000 9:1.0000000000 11:0.6069650054 12:0.2582089901 13:-0.0201939996 14:0.4951989949 15:-0.2636829913 16:-0.0716440007 17:0.0148569997 18:0.0635230020 19:0.0162530001 20:-0.2496290058 21:0.1550589949 22:-0.1338980049 
-6.3683457375 7:1.0000000000 11:-0.7371640205 12:0.1740719974 13:-0.0029380000 14:0.0155579997 15:-0.0493960008 16:0.0263240002 17:0.0087879999 18:-0.0043000001 19:-0.0521069989 20:-0.0010680000 21:0.0147460001 22:0.0200529993 
-16.2822113037 7:1.0000000000 11:-0.3057489991 12:0.0655819997 13:-0.0698570013 14:-0.0809670016 15:-0.0732399970 16:-0.0537770018 17:-0.0752820000 18:-0.0790980011 19:-0.0713910013 20:-0.0665000007 21:-0.1077250019 22:-0.0796499997 
-32.0000000000 8:1.0000000000 11:0.6004700065 12:0.3481749892 13:-0.0826369971 14:-0.0399780013 15:0.3472880125 16:-0.2573390007 17:-0.3241199851 18:-0.2292930037 19:0.0699779987 20:0.0733560026 21:-0.2989659905 22:0.1340579987 
-32.0000000000 2:1.0000000000 11:-0.0300709996 12:0.1658630073 13:-0.0838019997 14:0.0350919999 15:0.0894400030 16:-0.0031950001 17:-0.0405160002 18:-0.0424109995 19:-0.0859400034 20:0.0337059982 21:0.0464240015 22:0.0309050009 
32.0000000000 6:1.0000000000 11:-0.3459880054 12:0.1430359930 13:-0.0660369992 14:0.0183959994 15:0.0042770002 16:0.0109789995 17:-0.0012070000 18:-0.0675230026 19:-0.0390009992 20:-0.0761889964 21:0.0424339995 22:0.0112159997 
10.8941278458 2:1.0000000000 11:-0.2768979967 12:0.6456599832 13:0.0165880006 14:0.0884329975 15:0.2024299949 16:-0.0614640005 17:-0.1635749936 18:-0.5282959938 19:-0.5133979917 20:0.0423629992 21:0.2832089961 22:0.0381480008 
32.0000000000 6:1.0000000000 11:0.0477869995 12:0.2249449939 13:-0.1249959990 14:-0.0266640000 15:-0.0699039996 16:0.0588099994 17:-0.0464170016 18:0.0427000001 19:-0.2180519998 20:0.0912749991 21:0.2220190018 22:-0.0537579991 
32.0000000000 8:1.0000000000 11:-0.7411569953 12:0.1740719974 13:0.0155579997 14:-0.0493960008 15:0.0263240002 16:0.0087879999 17:-0.0043000001 18:-0.0521069989 19:-0.0010680000 20:0.0147460001 21:0.0200529993 22:-0.0124169998 
-5.3559012413 10:1.0000000000 11:0.0407090001 12:0.4989320040 13:0.0622910000 14:-0.2612890005 15:-0.5451120138 16:0.2046300024 17:0.4552949965 18:-0.5115129948 19:-0.4069109857 20:-0.2823089957 21:-0.1557790041 22:0.0317110009 
-25.8860187531 3:1.0000000000 11:-0.3590810001 12:0.0718379989 13:-0.0656509995 14:-0.0530619994 15:-0.0729259998 16:-0.0766460001 17:-0.0655289963 18:-0.0738070011 19:-0.0495860018 20:-0.0556319989 21:-0.0775670037 22:-0.0844520032 
5.7450308800 7:1.0000000000 11:-0.2087139934 12:0.6004030108 13:0.0719600022 14:0.0573789999 15:-0.0830079988 16:0.2375120074 17:-0.2807309926 18:-0.4178330004 19:-0.0331179984 20:0.2846280038 21:-0.2032870054 22:-0.3737039864 
-32.0000000000 9:1.0000000000 11:-0.3465920091 12:0.1455380023 13:0.0369069986 14:-0.0029690000 15:-0.0705529973 16:-0.0289530009 17:0.0073650000 18:0.0083740000 19:-0.0138870003 20:-0.0104019996 21:0.0404560007 22:0.0025530001 
-27.5520591736 1:1.0000000000 11:-0.0343579985 12:0.6039119959 13:-0.2178889960 14:-0.2423059940 15:0.1761280000 16:0.1935289949 17:-0.4341680110 18:-0.3075470030 19:0.0767280012 20:-0.0512810014 21:-0.3078030050 22:0.1474159956 
13.0378971100 2:1.0000000000 11:0.5507469773 12:0.4096069932 13:0.0987730026 14:-0.3295930028 15:0.2924610078 16:-0.4570490122 17:0.1431809962 18:-0.1361870021 19:-0.1628510058 20:0.0579980016 21:0.6893749833 22:-0.6420130134 
-26.4685001373 10:1.0000000000 11:-0.7290930152 12:0.1695249975 13:0.0102739995 14:-0.0788889974 15:-0.0221069995 16:0.0135639999 17:-0.0249959994 18:-0.0256650001 19:0.0001050000 20:-0.0054899999 21:0.0147740003 22:-0.0226169992 
-32.0000000000 7:1.0000000000 11:-0.0889030024 12:0.1571349949 13:-0.0052230000 14:-0.0122309998 15:0.0059549999 16:0.0280939993 17:0.0000220000 18:-0.0943230018 19:0.0115609998 20:0.0580540001 21:-0.0110539999 22:-0.0415350012 
32.0000000000 2:1.0000000000 11:-0.3355090022 12:0.1448670030 13:-0.0078440001 14:0.0110550001 15:0.0525600016 16:-0.0157229993 17:-0.0234389994 18:-0.0604140013 19:0.0046089999 20:0.0352910012 21:0.0313390009 22:-0.0100100003 
32.0000000000 1:1.0000000000 11:-0.3402940035 12:0.1457830071 13:-0.0141260000 14:-0.0861150026 15:0.0100819999 16:0.0658949986 17:-0.0559629984 18:-0.0740389973 19:0.0098339999 20:0.0253890008 21:0.0484529994 22:0.0243730005 
-18.3918247223 10:1.0000000000 11:-0.3620580137 12:0.5059810281 13:0.0381320007 14:-0.1181100011 15:-0.1238280013 16:-0.0620829985 17:-0.0251010004 18:-0.2300679982 19:-0.1546919942 20:-0.0812830031 21:-0.0896539986 22:-0.2028770000 
-32.0000000000 5:1.0000000000 11:-0.0283049997 12:0.1737059951 13:0.0139699997 14:-0.0319320001 15:0.0277830008 16:0.0065090000 17:0.0582100004 18:-0.0662539974 19:-0.0003950000 20:-0.1296570003 21:0.0407890007 22:0.0937390029 
32.0000000000 9:1.0000000000 11:-0.4237369895 12:0.1516419947 13:0.0133199999 14:0.0136719998 15:-0.0477590002 16:-0.1178369969 17:-0.1387050003 18:-0.0819709972 19:0.0154410005 20:0.0239950009 21:0.0091890004 22:0.0112960003 
-31.9969348907 8:1.0000000000 11:-0.0515309982 12:0.1631159931 13:-0.0009440000 14:0.0640679970 15:0.0162530001 16:-0.0231209993 17:-0.1421090066 18:0.0018190000 19:0.0932699963 20:0.0040799999 21:-0.0043239999 22:0.0082069999 
-32.0000000000 10:1.0000000000 11:0.5854409933 12:0.2384950072 13:0.2637729943 14:-0.2868390083 15:0.0429029986 16:-0.1087889969 17:0.1259080023 18:-0.0793209970 19:-0.2479889989 20:-0.0257239994 21:-0.1939319968 22:-0.0775619969 
-32.0000000000 5:1.0000000000 11:-0.0600830019 12:0.1625979990 13:0.0254139993 14:0.0068609999 15:0.0168730002 16:-0.0225150008 17:0.0316010006 18:-0.0237409994 19:0.0146749998 20:-0.0934349969 21:-0.0029259999 22:0.0677269995 
-32.0000000000 4:1.0000000000 11:0.0373109989 12:0.2331539989 13:0.1956699938 14:-0.0936499983 15:-0.0431209989 16:-0.0191510003 17:-0.1186579987 18:-0.0256760009 19:0.0781899989 20:0.0482020006 21:-0.1225579977 22:0.0934889987 
32.0000000000 6:1.0000000000 11:0.2335200012 12:0.1976930052 13:0.1140550002 14:-0.0889670029 15:-0.1015900001 16:-0.0482660010 17:0.1216150001 18:-0.0331580006 19:-0.2635909915 20:0.2026930004 21:0.0686160028 22:-0.1151150018 
32.0000000000 1:1.0000000000 11:-0.0359879993 12:0.1666560024 13:0.0443030000 14:-0.1051620021 15:0.0432180017 16:0.1152700037 17:-0.0780180022 18:-0.0836410001 19:-0.0262480006 20:0.0165490005 21:0.0447850004 22:-0.0468120016 
-1.9758489132 2:1.0000000000 11:-0.0752229989 12:0.5025939941 13:-0.3467560112 14:0.0786039978 15:0.3026309907 16:-0.0308270007 17:-0.1010349989 18:-0.0176199991 19:-0.0342909992 20:0.0102399997 21:0.2662050128 22:-0.1316950023 
3.1399831772 9:1.0000000000 11:0.3821409941 12:0.4536739886 13:-0.2642000020 14:0.4097819924 15:-0.2149810046 16:-0.3056719899 17:-0.2751779854 18:-0.3816629946 19:-0.0356579982 20:-0.2372359931 21:0.3370369971 22:-0.1050539985 
-5.9884061813 2:1.0000000000 11:0.0217039995 12:0.2309570014 13:-0.1417990029 14:-0.0656389967 15:0.1658499986 16:-0.1251060069 17:-0.0838589966 18:-0.0067920000 19:0.0365529992 20:0.0600880012 21:0.2127790004 22:-0.0033420001 
-13.4412965775 4:1.0000000000 11:0.6018249989 12:0.3481749892 13:0.5064989924 14:-0.1579580009 15:-0.0490900017 16:0.1158820018 17:-0.0947349966 18:-0.1098100021 19:0.0156929996 20:-0.2221740037 21:-0.4780679941 22:0.1866769940 
32.0000000000 8:1.0000000000 11:0.5317440033 12:0.2411189973 13:0.0182869993 14:-0.1109699979 15:0.5758910179 16:-0.4420799911 17:-0.0133940000 18:-0.2693760097 19:0.3793210089 20:-0.3347510099 21:0.1476449966 22:-0.2332240045 
-32.0000000000 6:1.0000000000 11:-0.0485799983 12:0.1631159931 13:-0.0704260021 14:-0.0793080032 15:-0.0009440000 16:0.0640679970 17:0.0162530001 18:-0.0231209993 19:-0.1421090066 20:0.0018190000 21:0.0932699963 22:0.0040799999 
-4.4782090187 1:1.0000000000 11:0.2836329937 12:0.0929569975 13:-0.1172719970 14:-0.1604479998 15:-0.1125369966 16:-0.1500030011 17:0.0351159982 18:-0.0893440023 19:-0.1776199937 20:-0.0871239975 21:-0.1369770020 22:0.0927629992 
6.8892765045 4:1.0000000000 11:0.4754930139 12:0.4591679871 13:0.6488590240 14:-0.3855060041 15:0.3206129968 16:-0.1457239985 17:-0.0202270001 18:-0.3445020020 19:0.6001489758 20:-0.2782469988 21:-0.1905010045 22:0.2227980047 
32.0000000000 6:1.0000000000 11:0.2165309936 12:0.1992489994 13:0.0852750018 14:0.0133400001 15:-0.0345910005 16:0.0140319997 17:0.0572080016 18:-0.1346880049 19:-0.2950460017 20:-0.1140689999 21:0.1419049948 22:-0.0966190025 
-4.1291389465 5:1.0000000000 11:0.6173160076 12:0.2333070040 13:0.0705479980 14:-0.1284819990 15:0.1196559966 16:-0.1715590060 17:-0.1475020051 18:0.1358200014 19:-0.1017529964 20:-0.2306530029 21:-0.0577349998 22:0.0896740034 
18.9873466492 7:1.0000000000 11:0.2965559959 12:0.2443850040 13:-0.2596650124 14:-0.0846860036 15:0.1000479981 16:0.2662889957 17:-0.2010599971 18:-0.0981570035 19:-0.0642149970 20:0.3289499879 21:-0.1338350028 22:0.1730100065 
-7.8721199036 5:1.0000000000 11:0.0377410017 12:0.5088499784 13:-0.5575670004 14:-0.2819289863 15:0.0777290016 16:-0.0557870008 17:-0.0207300000 18:-0.0841209963 19:-0.2457579970 20:-0.5387110114 21:0.1643790007 22:0.4599559903 
-27.8045215607 7:1.0000000000 11:-0.5665599704 12:0.0979309976 13:-0.0721099973 14:-0.0733200014 15:-0.0636740029 16:-0.0642869994 17:-0.0743290037 18:-0.0636110008 19:-0.0443510003 20:-0.0550169982 21:-0.0613900013 22:-0.0450390019 
-1.5939083099 7:1.0000000000 11:0.3128519952 12:0.2435909957 13:-0.0163620003 14:-0.0715709999 15:0.0068279998 16:0.3058710098 17:-0.1255840063 18:-0.1940760016 19:0.0986130014 20:-0.3032140136 21:0.0318539999 22:-0.1345849931 
32.0000000000 3:1.0000000000 11:-0.7478899956 12:0.1676940024 13:-0.0735670030 14:-0.0544890016 15:-0.0599699989 16:-0.0001650000 17:0.0153839998 18:-0.0461429991 19:0.0024200000 20:0.0259429999 21:0.0072940001 22:-0.0549390018 
-11.6341800690 4:1.0000000000 11:0.5859709978 12:0.2382510006 13:0.2872749865 14:0.0203040000 15:-0.0991519988 16:0.0991690010 17:-0.1089740023 18:0.0388030000 19:0.3201839924 20:-0.1996539980 21:-0.1383540034 22:-0.2638410032 
32.0000000000 7:1.0000000000 11:0.0445749983 12:0.2255859971 13:0.0700239986 14:-0.0129640000 15:-0.0264240000 16:-0.1285250038 17:-0.1267759949 18:-0.2041960061 19:-0.1628759950 20:0.1309439987 21:-0.0088769998 22:0.0011430000 
-8.3007688522 1:1.0000000000 11:-0.0374099985 12:0.1652220041 13:0.0451940000 14:-0.1099449992 15:0.0276759993 16:0.0934709981 17:0.0021080000 18:-0.0679600015 19:-0.0790439993 20:-0.0319969989 21:0.0722820014 22:0.0242149998 
21.9927883148 4:1.0000000000 11:-0.4167839885 12:0.1915590018 13:-0.0192530006 14:-0.1660899967 15:-0.1342899948 16:0.0191169996 17:0.0074370001 18:-0.0966460034 19:0.0317480005 20:0.0399789996 21:0.0327080004 22:0.0401160009 
23.1877307892 3:1.0000000000 11:0.3095110059 12:0.2574160099 13:0.1446910053 14:0.0634210035 15:-0.0667409971 16:0.0275550000 17:-0.3383669853 18:-0.0214949995 19:-0.1465390027 20:0.3967370093 21:-0.1035389975 22:-0.1818509996 
-3.4404783249 9:1.0000000000 11:0.0244779997 12:0.0477290004 13:-0.0840990022 14:-0.1688109934 15:0.0071160002 16:-0.1571310014 17:-0.1156420037 18:-0.0657849982 19:-0.1562660038 20:-0.0386510007 21:-0.1328050047 22:-0.1036129966 
-32.0000000000 7:1.0000000000 11:-0.0008130000 12:0.3005979955 13:0.0460699983 14:0.0133480001 15:0.0395159982 16:-0.0656529963 17:-0.1033290029 18:-0.3252789974 19:-0.1512130052 20:0.1118279994 21:-0.1612640023 22:-0.0865179971 
32.0000000000 7:1.0000000000 11:0.1013709977 12:0.2135919929 13:0.0918909982 14:-0.0199139994 15:-0.0432499982 16:0.2051399946 17:-0.1248380020 18:-0.1495770067 19:-0.0092099998 20:0.1052500010 21:-0.1780479997 22:-0.0048880000 
2.8713014126 4:1.0000000000 11:0.5470029712 12:0.4096069932 13:0.7045959830 14:-0.4448899925 15:0.3304910064 16:-0.1541959941 17:-0.0468139984 18:-0.3714950085 19:0.5510870218 20:-0.3706539869 21:-0.1296309978 22:0.1164299995 
-4.6595110893 1:1.0000000000 11:0.5801200271 12:0.2344669998 13:-0.1608780026 14:-0.1493999958 15:-0.2544139922 16:0.2785629928 17:-0.0788739994 18:0.0615880005 19:-0.0873399973 20:-0.0206870008 21:-0.0651030019 22:0.5003950000 
-0.3662139177 4:1.0000000000 11:0.6094670296 12:0.2349849939 13:0.2458309978 14:0.0167449992 15:-0.0489879996 16:-0.0001180000 17:-0.0834549963 18:-0.0536749996 19:0.4218440056 20:-0.2719829977 21:-0.0851960033 22:-0.2458360046 
32.0000000000 5:1.0000000000 11:-0.7782459855 12:0.1773380041 13:0.0011100000 14:0.0274509992 15:0.0253219996 16:0.0294380002 17:-0.0241080001 18:-0.0771929994 19:-0.0333160013 20:-0.0749550015 21:0.0153599996 22:0.0238639992 
32.0000000000 4:1.0000000000 11:-0.3803609908 12:0.1533509940 13:0.0593650006 14:0.0005900000 15:0.0078349998 16:0.0244079996 17:-0.0122849997 18:-0.0704170018 19:0.0329159983 20:0.0107859997 21:0.0048000002 22:0.0121799996 
-32.0000000000 5:1.0000000000 11:-0.7244759798 12:0.1700440049 13:-0.0082869995 14:0.0137050003 15:0.0197780002 16:0.0073910002 17:-0.0277379993 18:0.0061889999 19:-0.0079589998 20:0.0005490000 21:0.0100379996 22:-0.0407840014 
-32.0000000000 10:1.0000000000 11:0.0564719997 12:0.2243040055 13:0.0317940004 14:0.0333580002 15:-0.1447950006 16:0.0750510022 17:0.1627600044 18:-0.1007060036 19:-0.0476719998 20:0.0743440017 21:-0.0353589989 22:-0.0213169996 
-6.7978258133 7:1.0000000000 11:-0.1803680062 12:0.5226749778 13:0.0352779999 14:0.0253299996 15:0.0022380000 16:0.0146350004 17:-0.3118219972 18:-0.1849060059 19:0.0386030003 20:-0.2105190009 21:-0.0476169996 22:0.0283640008 
32.0000000000 4:1.0000000000 11:-0.3965789974 12:0.1823119968 13:0.0275470000 14:-0.0220359992 15:-0.0367540009 16:-0.1139430031 17:-0.0567310005 18:-0.1084489971 19:0.0103249997 20:-0.0302269999 21:-0.1180799976 22:0.0004780000 
32.0000000000 6:1.0000000000 11:-0.0441440009 12:0.1667789966 13:-0.0204440001 14:0.0057170000 15:-0.0203850009 16:0.0538499989 17:-0.0610359982 18:0.0082149999 19:-0.1236940026 20:0.0545249991 21:0.1000370011 22:0.0085389996 
-32.0000000000 10:1.0000000000 11:-0.3420790136 12:0.1441040039 13:0.0272780005 14:-0.0032180001 15:-0.0118039995 16:-0.0003080000 17:-0.0513990000 18:-0.0443499982 19:-0.0521150008 20:0.0052129999 21:0.0162279997 22:0.0269360002 
8.0391387939 4:1.0000000000 11:-0.3700940013 12:0.6296079755 13:0.1509030014 14:-0.1032489985 15:-0.1405739933 16:-0.3514679968 17:-0.1693550050 18:-0.4958370030 19:-0.3745389879 20:0.0012990000 21:-0.0248130001 22:-0.3286499977 
9.1500892639 6:1.0000000000 11:-0.3956550062 12:0.6371769905 13:-0.0021750000 14:-0.3097980022 15:0.0498109981 16:0.2374349982 17:0.0982879996 18:-0.3285070062 19:-0.0412309989 20:0.2730439901 21:0.2524400055 22:0.0128480000 
-11.6855611801 9:1.0000000000 11:-0.7175490260 12:0.1747439951 13:-0.0198580008 14:0.0365340002 15:0.0103190001 16:-0.0242480002 17:0.0333679989 18:-0.0082599996 19:0.0169500001 20:0.0011849999 21:0.0097690001 22:0.0403679982 
-3.4611849785 1:1.0000000000 11:0.2089419961 12:0.4424740076 13:-0.1651789993 14:-0.2090470046 15:0.2015320063 16:-0.4473220110 17:-0.3224630058 18:-0.0939550027 19:0.1210500002 20:0.0219829995 21:0.0588230006 22:0.4520730078 
32.0000000000 9:1.0000000000 11:0.0462509990 12:0.2270199955 13:0.0013520001 14:0.2373680025 15:-0.1237889975 16:-0.1785050035 17:-0.0213339999 18:-0.0342620015 19:-0.0480669998 20:-0.0451380014 21:-0.0157370009 22:-0.0547249988 
-32.0000000000 9:1.0000000000 11:0.2005590051 12:0.1995240003 13:-0.0348029993 14:0.1046909988 15:-0.1514679939 16:-0.2553890049 17:-0.0783789977 18:-0.0227620006 19:-0.0595670007 20:0.1346990019 21:-0.0038330001 22:-0.0051030000 
-32.0000000000 2:1.0000000000 11:-0.7194240093 12:0.1748660058 13:0.0116379997 14:0.0242929999 15:-0.0109689999 16:0.0086770002 17:0.0058590001 18:-0.0037839999 19:0.0235970002 20:-0.0046160002 21:0.0492400005 22:-0.0164030008 
32.0000000000 10:1.0000000000 11:-0.0187149998 12:0.2151789963 13:-0.0323829986 14:0.0106870001 15:-0.1634690017 16:0.0858710036 17:0.1258669943 18:-0.1285250038 19:0.0194279999 20:0.0348250009 21:0.0284429993 22:0.1233870015 
-25.3176860809 3:1.0000000000 11:0.0752990022 12:0.0437930003 13:-0.0961859971 14:-0.0415830016 15:-0.2036249936 16:-0.0197509993 17:-0.1483979970 18:-0.1204349995 19:-0.1322519928 20:-0.0023030001 21:-0.1007089987 22:-0.1866849959 
-32.0000000000 10:1.0000000000 11:0.0589529984 12:0.2211609930 13:0.2100989968 14:-0.0479790010 15:-0.1480409950 16:0.1183459982 17:0.1625189930 18:-0.1964340061 19:-0.0977870002 20:0.0024110000 21:-0.0261630006 22:0.0043779998 
32.0000000000 10:1.0000000000 11:-0.0288650002 12:0.1645510048 13:0.0197960008 14:0.0515890010 15:-0.1046629995 16:0.0294879992 17:0.0740950033 18:-0.1322479993 19:-0.0104520004 20:0.0105440002 21:-0.0077930000 22:0.0380799994 
-1.7532393932 10:1.0000000000 11:-0.5265319943 12:0.3782959878 13:-0.0500219986 14:-0.1085830033 15:-0.1121779978 16:-0.0819529966 17:-0.0089649996 18:-0.0416130014 19:-0.0221369993 20:0.0218819994 21:0.0537910014 22:0.0750050023 
32.0000000000 3:1.0000000000 11:-0.3458339870 12:0.1395259947 13:0.0073670000 14:0.0538539998 15:-0.0184460003 16:0.0015420000 17:-0.0107439999 18:-0.0847069994 19:0.0066120001 20:0.0359940007 21:-0.0024969999 22:-0.0031959999 
-16.0642452240 9:1.0000000000 11:0.2354550064 12:0.1982119977 13:0.0393519998 14:0.0703359991 15:-0.0361329988 16:-0.3022809923 17:0.0070750001 18:0.0804909989 19:-0.1096580029 20:0.1522729993 21:-0.0004330000 22:-0.0667679980 
-8.5681343079 4:1.0000000000 11:-0.1691669971 12:0.5480960011 13:-0.2791360021 14:-0.1180500016 15:-0.0075860000 16:0.0658610016 17:0.0163630005 18:-0.0443929993 19:0.1906300038 20:-0.0873659998 21:-0.1078289971 22:0.0865880027 
17.4548549652 2:1.0000000000 11:0.5309900045 12:0.3879700005 13:-0.1620700061 14:-0.0160900000 15:0.5504350066 16:-0.6475539804 17:-0.0211350005 18:-0.4825310111 19:-0.2222110033 20:-0.2746599913 21:0.5200380087 22:-0.3289560080 
-23.5698013306 10:1.0000000000 11:0.0566460006 12:0.2232359946 13:0.1768369973 14:-0.0440529995 15:-0.1430020034 16:0.0713950023 17:0.1590870023 18:-0.0915110037 19:-0.0218959991 20:0.0596779995 21:-0.0354150012 22:0.0154139996 
32.0000000000 10:1.0000000000 11:0.6108059883 12:0.2390439957 13:0.1540209949 14:-0.0817589983 15:-0.2160280049 16:-0.0179409999 17:0.0960419998 18:0.0296710003 19:-0.2054229975 20:0.1302569956 21:-0.0310260002 22:-0.0405430011 
32.0000000000 4:1.0000000000 11:0.0313679986 12:0.2296449989 13:0.1025559977 14:-0.1903740019 15:-0.1775069982 16:-0.0659229979 17:-0.1045759991 18:-0.0797320008 19:0.0490740016 20:0.0848620012 21:-0.1051509976 22:0.0992100015 
32.0000000000 6:1.0000000000 11:-0.3668510020 12:0.1503600031 13:0.0079619996 14:0.0315169990 15:-0.0167200007 16:-0.0795020014 17:-0.0049140002 18:-0.0889440030 19:-0.1157710031 20:0.0210059993 21:0.0639469996 22:-0.0061249998 
-15.8364620209 3:1.0000000000 11:0.5124120116 12:0.4538269937 13:0.1387510002 14:0.4848000109 15:-0.5277600288 16:0.1684110016 17:-0.3563959897 18:-0.0241289996 19:-0.3447009921 20:0.6485249996 21:-0.6922169924 22:0.0455849990 
-2.5942606926 10:1.0000000000 11:0.5147799850 12:0.4118350148 13:0.7029290199 14:-0.4897420108 15:-0.1609780043 16:0.0136040002 17:0.4796029925 18:-0.5823169947 19:0.0755390003 20:-0.4038780034 21:0.0786210001 22:-0.1514099985 
32.0000000000 2:1.0000000000 11:0.6018840075 12:0.2338259965 13:0.0125789996 14:-0.0881149992 15:0.0764200017 16:-0.0548579991 17:-0.1133679971 18:0.0381999984 19:-0.2029760033 20:0.0252739992 21:0.2011380047 22:-0.1710000038 
-19.9027729034 6:1.0000000000 11:-0.3878450096 12:0.1907649934 13:-0.1013799980 14:-0.0033849999 15:0.0278280005 16:0.0400860012 17:0.0414579995 18:-0.0237310007 19:-0.1144049987 20:0.0054839998 21:0.0614520013 22:0.0176800005 
-16.4675674438 2:1.0000000000 11:-0.5179029703 12:0.4767760038 13:-0.0253120009 14:0.0415470004 15:0.1168750003 16:-0.1005780026 17:-0.2006649971 18:-0.1750960052 19:-0.1745560020 20:-0.4101040065 21:0.0534039997 22:0.0370070003 
32.0000000000 2:1.0000000000 11:-0.0684849992 12:0.1615599990 13:-0.0745010003 14:0.0023680001 15:-0.0411400013 16:0.0044089998 17:-0.0394340008 18:-0.0864590034 19:-0.0504890010 20:-0.0664779991 21:0.0416919999 22:0.0489050001 
-3.3907680511 6:1.0000000000 11:0.5920000076 12:0.2345889956 13:-0.2146400064 14:-0.0069140000 15:-0.2253170013 16:-0.0623360015 17:0.2418790013 18:-0.2325650007 19:-0.0574739985 20:-0.1793130040 21:0.3024140000 22:-0.0482789986 
-31.2641582489 4:1.0000000000 11:0.1899490058 12:0.2065429986 13:0.0658269972 14:-0.0774279982 15:0.1050060019 16:-0.0597949997 17:-0.1578889936 18:-0.0185289998 19:0.2634840012 20:-0.0516199991 21:-0.1074979976 22:0.1336099952 
32.0000000000 1:1.0000000000 11:0.0447059982 12:0.2252199948 13:-0.0621320009 14:-0.2302940041 15:-0.1846670061 16:0.1445920020 17:-0.1125629991 18:-0.0558670014 19:0.0074590002 20:0.0039100000 21:0.0372500010 22:0.2153799981 
32.0000000000 3:1.0000000000 11:0.1254519969 12:0.4176940024 13:0.3170709908 14:-0.0881090015 15:-0.3645089865 16:-0.0958070010 17:-0.0248879995 18:-0.2763380110 19:-0.0656360015 20:0.4393959939 21:-0.1363569945 22:-0.2178519964 
6.8514060974 1:1.0000000000 11:0.0805020034 12:0.5204470158 13:-0.5786049962 14:-0.4215500057 15:-0.2403730005 16:0.3964110017 17:-0.3700380027 18:-0.0493570007 19:0.0544629991 20:-0.0530669987 21:0.1249170005 22:0.5485020280 
-18.8166522980 7:1.0000000000 11:0.6147509813 12:0.3341059983 13:-0.2651019990 14:-0.2293639928 15:-0.0544129983 16:0.5835260153 17:-0.4257810116 18:0.0065770000 19:-0.0448569991 20:0.3996669948 21:-0.0816799998 22:-0.0290629994 
-1.7293033600 8:1.0000000000 11:0.4939109981 12:0.4132690132 13:-0.0492400005 14:-0.0735229999 15:0.5793589950 16:-0.7394719720 17:-0.0870150030 18:-0.2312999964 19:0.5720869899 20:-0.3933300078 21:0.0395749994 22:-0.2540900111 
-32.0000000000 3:1.0000000000 11:-0.3595300019 12:0.1422729939 13:0.0110670002 14:0.0328910016 15:-0.0164369997 16:-0.0090920003 17:-0.0089429999 18:-0.0359200016 19:0.0348300003 20:0.0256629996 21:-0.0437790006 22:-0.0956699997 
-14.1402664185 1:1.0000000000 11:0.3120230138 12:0.2558589876 13:-0.1219249964 14:-0.1938650012 15:0.0843480006 16:-0.1026140004 17:-0.1682150066 18:0.1642349958 19:-0.0445819981 20:-0.0674439967 21:0.0246079993 22:0.1235779971 
32.0000000000 2:1.0000000000 11:0.0182210002 12:0.2506409883 13:-0.1228369996 14:0.1109310016 15:0.1933130026 16:-0.0712049976 17:-0.1435369998 18:-0.0829870030 19:-0.1151510030 20:-0.1281599998 21:0.0701169968 22:0.0630720034 
0.9259682298 1:1.0000000000 11:0.2113240063 12:0.4536739886 13:-0.2065490037 14:-0.2176260054 15:0.3252399862 16:0.1767569929 17:-0.4508309960 18:0.0972200036 19:-0.2004770041 20:-0.0441300012 21:0.2324990034 22:0.1198590025 
32.0000000000 6:1.0000000000 11:-0.3579129875 12:0.1446229964 13:0.0063689998 14:0.0236910004 15:-0.0069169998 16:0.0114120003 17:-0.0261640009 18:-0.0752360001 19:-0.0283780005 20:0.0512310006 21:0.0455030017 22:-0.0123429997 
32.0000000000 9:1.0000000000 11:-0.7445260286 12:0.1747439951 13:-0.0855529979 14:-0.0013320000 15:-0.0091639999 16:0.0026750001 17:0.0080890004 18:-0.0750790015 19:0.0022239999 20:-0.0738869980 21:-0.0036609999 22:0.0477899984 
32.0000000000 8:1.0000000000 11:0.2200330049 12:0.2009579986 13:-0.0584670007 14:-0.0377449989 15:0.1126630008 16:-0.1276610047 17:-0.1206419989 18:-0.0463449992 19:0.0990109965 20:-0.1831919998 21:0.1285279989 22:-0.1285939962 
-32.0000000000 3:1.0000000000 11:0.1998119950 12:0.2501220107 13:0.1926340014 14:0.0855420008 15:-0.0571260005 16:0.0649650022 17:-0.0747020021 18:-0.1650349945 19:0.1393620074 20:0.3025879860 21:-0.0769890025 22:-0.1433849931 
-32.0000000000 8:1.0000000000 11:-0.3999359906 12:0.1468199939 13:-0.0006250000 14:0.0057620001 15:0.0071319998 16:-0.0201820005 17:-0.0261010006 18:-0.0141150001 19:-0.0107070003 20:-0.0051219999 21:-0.0122950003 22:0.0030739999 
8.4539508820 8:1.0000000000 11:-0.1448650062 12:0.2589719892 13:0.0395869985 14:-0.1205950007 15:0.0574029982 16:-0.0117279999 17:-0.0396139994 18:-0.0636759996 19:0.2082339972 20:0.1052130014 21:0.0849300027 22:0.0871940032 
4.9964270592 3:1.0000000000 11:-0.3829010129 12:0.6571350098 13:-0.0008940000 14:-0.3163479865 15:-0.0735850036 16:0.1548870057 17:-0.0150640002 18:-0.5055230260 19:-0.4647530019 20:0.1668580025 21:0.1254290044 22:0.0830669999 
3.8757419586 5:1.0000000000 11:-0.0371299982 12:0.5010380149 13:-0.5429990292 14:-0.4012880027 15:-0.0093850000 16:0.1345729977 17:0.0433080010 18:-0.0230160002 19:-0.1827269942 20:-0.1536370069 21:0.1897549927 22:0.4252510071 
-14.8884372711 1:1.0000000000 11:0.5646560192 12:0.3843080103 13:-0.3998610079 14:-0.1155880019 15:-0.0070880000 16:0.1957580000 17:-0.4186390042 18:0.1656569988 19:0.0406510010 20:-0.1088469997 21:0.0996169969 22:0.4570069909 
-32.0000000000 3:1.0000000000 11:-0.7301250100 12:0.1765750051 13:-0.0488950014 14:-0.0040549999 15:0.0097620003 16:-0.0113249999 17:-0.0730080009 18:-0.0127800005 19:-0.0032009999 20:0.0397519991 21:0.0166839994 22:0.0081150001 
-20.7924079895 2:1.0000000000 11:0.2848300040 12:0.1988520026 13:-0.1585309952 14:0.0707639977 15:-0.0006320000 16:0.0516109988 17:0.0366339982 18:-0.0458590016 19:-0.1542229950 20:-0.0989290029 21:0.1860219985 22:-0.0396700017 
-32.0000000000 4:1.0000000000 11:0.2433640063 12:0.2008060068 13:0.0906220004 14:-0.0848790035 15:0.1697430015 16:-0.1125570014 17:-0.1353919953 18:-0.0447259992 19:0.3132030070 20:-0.0544230007 21:-0.1728969961 22:-0.0326009989 
-1.0509678125 1:1.0000000000 11:0.4330349863 12:0.4955439866 13:-0.4869160056 14:-0.0676710010 15:0.2353920043 16:0.5206239820 17:-0.1648550034 18:0.0015400000 19:-0.4071530104 20:-0.4793330133 21:-0.0224099997 22:0.7454680204 
32.0000000000 6:1.0000000000 11:-0.3408240080 12:0.1437070072 13:0.0035110000 14:0.0211769994 15:-0.0043830001 16:0.0195370000 17:-0.0118910000 18:-0.0666569993 19:-0.0215629991 20:0.0181019995 21:0.0508669987 22:-0.0109740002 
32.0000000000 7:1.0000000000 11:-0.0508939996 12:0.1723940074 13:0.0096979998 14:-0.0051910002 15:0.0116379997 16:-0.0781020001 17:-0.0352520011 18:-0.1113620028 19:0.0178410001 20:0.1163360029 21:0.0014740000 22:-0.0285119992 
32.0000000000 10:1.0000000000 11:-0.0472159982 12:0.1650999933 13:-0.1078149974 14:0.0274810009 15:-0.0860010013 16:-0.0787279978 17:0.0672330037 18:-0.1121380031 19:-0.0001550000 20:0.0110179996 21:-0.0064989999 22:0.0481589995 
32.0000000000 2:1.0000000000 11:0.0432120003 12:0.5041499734 13:-0.2842319906 14:0.2140219957 15:0.3540889919 16:-0.3217470050 17:-0.2465150058 18:-0.1030689999 19:-0.1656859964 20:-0.0207690001 21:0.4344480038 22:-0.1491439939 
31.9951667786 7:1.0000000000 11:-0.7373499870 12:0.1739500016 13:0.0321220011 14:0.0274219997 15:-0.0229979996 16:0.0180539992 17:-0.0086549995 18:-0.0739829987 19:0.0124209998 20:0.0185920000 21:0.0037750001 22:0.0134540005 
-32.0000000000 7:1.0000000000 11:-0.0799079984 12:0.1650999933 13:-0.0052339998 14:-0.0194440000 15:0.0213210005 16:-0.0539930016 17:-0.0362569988 18:-0.1141979992 19:0.0005130000 20:-0.0635429993 21:-0.0013260000 22:-0.0045010000 
-11.7513647079 8:1.0000000000 11:-0.5306280255 12:0.3481749892 13:-0.1451819986 14:-0.3694239855 15:0.0255369991 16:-0.0164219998 17:-0.1219779998 18:-0.0893749967 19:0.0547210015 20:0.0741880015 21:0.0350719988 22:0.0190420002 
-3.2361817360 8:1.0000000000 11:0.5653910041 12:0.3843080103 13:0.0649129972 14:-0.1274220049 15:0.6552190185 16:-0.3998610079 17:-0.1155880019 18:-0.0070880000 19:0.1957580000 20:-0.4186390042 21:0.1656569988 22:0.0406510010 
32.0000000000 10:1.0000000000 11:0.6210830212 12:0.3099670112 13:0.4659749866 14:-0.3239049911 15:-0.0600050017 16:-0.0394989997 17:0.2035250068 18:-0.2819280028 19:-0.2480649948 20:-0.0595729984 21:-0.0386600010 22:-0.0552119985 
9.3672428131 9:1.0000000000 11:0.0775239989 12:0.5204470158 13:0.1249170005 14:0.5485020280 15:-0.4592939913 16:-0.3570480049 17:0.1064969972 18:-0.1265410036 19:-0.1866050065 20:0.1356389970 21:0.2903249860 22:-0.0215370003 
1.4543299675 5:1.0000000000 11:-0.2262270004 12:0.2767330110 13:0.0700569972 14:0.0781010017 15:0.1117459983 16:0.0830980018 17:0.0637909994 18:-0.0597359985 19:0.0391380005 20:0.0814580023 21:0.1253709942 22:0.1788540035 
-32.0000000000 3:1.0000000000 11:0.2350080013 12:0.3616029918 13:-0.1064879969 14:0.2510710061 15:-0.0753969997 16:-0.0570739992 17:-0.1346070021 18:-0.2298689932 19:0.1425209939 20:0.3651599884 21:-0.1827780008 22:-0.1522459984 
32.0000000000 1:1.0000000000 11:-0.3695220053 12:0.1485289931 13:-0.0082799997 14:-0.0143759996 15:0.0081430003 16:-0.0678879991 17:-0.0432390012 18:-0.0464119986 19:0.0125940004 20:0.0195250008 21:0.0243679993 22:0.0298229996 
-7.6284799576 4:1.0000000000 11:-0.6443489790 12:0.1099240035 13:-0.0541639999 14:-0.0565380007 15:-0.0441179983 16:-0.0710130036 17:-0.0128739998 18:-0.0913750008 19:-0.1022989973 20:-0.0899320021 21:-0.0452999994 22:-0.0495809987 
-20.3274097443 1:1.0000000000 11:-0.4134689867 12:0.1480100006 13:-0.0021840001 14:-0.0241880007 15:0.0064929998 16:0.0313489996 17:-0.0115000000 18:-0.0385879986 19:-0.0894260034 20:0.0027500000 21:0.0169430003 22:-0.0804739967 
-15.0529794693 4:1.0000000000 11:-0.0864389986 12:0.0502009988 13:-0.0998160020 14:-0.0870390013 15:-0.0936079994 16:-0.0915739983 17:-0.0911369994 18:-0.1256339997 19:-0.0608690009 20:-0.0722680017 21:-0.1252570003 22:-0.0934149995 
32.0000000000 7:1.0000000000 11:0.2194419950 12:0.2004390061 13:-0.1503760070 14:-0.0039369999 15:0.0250720009 16:0.0757450014 17:-0.1135030016 18:-0.2604120076 19:0.0048910002 20:-0.1384049952 21:-0.0189389996 22:-0.0162119996 
-32.0000000000 5:1.0000000000 11:-0.3886849880 12:0.1449889988 13:-0.0032680000 14:-0.0061269999 15:0.0019990001 16:-0.0110820001 17:0.0098460000 18:-0.0447530001 19:-0.0971990004 20:-0.0541969985 21:0.0121219996 22:0.0325619988 
-8.3478164673 3:1.0000000000 11:0.6161530018 12:0.2334289998 13:0.0209899992 14:0.1949809939 15:0.0436940007 16:-0.0621370003 17:0.0463420004 18:-0.0650279969 19:-0.0813440010 20:0.4533419907 21:-0.3339380026 22:0.0198860001 
32.0000000000 5:1.0000000000 11:-0.1165940017 12:0.1687320024 13:0.0116400002 14:0.0084140003 15:-0.0445079990 16:-0.0762740001 17:-0.0272010006 18:-0.0306109991 19:0.0167210009 20:-0.0181409996 21:0.0085140001 22:-0.0377449989 
-32.0000000000 7:1.0000000000 11:0.0473820008 12:0.0437930003 13:-0.1314810067 14:-0.1185019985 15:-0.1527110040 16:-0.0286500007 17:-0.0782649964 18:-0.1803520024 19:-0.1108440012 20:-0.0641580001 21:-0.1538109928 22:-0.0448689982 
32.0000000000 2:1.0000000000 11:-0.0541520007 12:0.1688539982 13:-0.1238640025 14:0.0058769998 15:0.0955289975 16:0.0226339996 17:-0.0777300000 18:-0.0769509971 19:-0.0298050009 20:0.0634460002 21:0.0383009985 22:-0.0190880001 
-14.0963888168 10:1.0000000000 11:0.0814160034 12:0.5204470158 13:0.1765169948 14:-0.5786049962 15:-0.4215500057 16:-0.2403730005 17:0.3964110017 18:-0.3700380027 19:-0.0493570007 20:0.0544629991 21:-0.0530669987 22:0.1249170005 
-1.8186938763 4:1.0000000000 11:-0.5424889922 12:0.4672549963 13:-0.0129650002 14:-0.1563100070 15:-0.0953560024 16:-0.0577640012 17:-0.0894069970 18:-0.1433349997 19:-0.0140859997 20:-0.1285230070 21:-0.2469599992 22:0.1602749974 
-32.0000000000 3:1.0000000000 11:0.2322970033 12:0.2000429928 13:0.0890979990 14:0.0862250030 15:-0.1123230010 16:0.1310970038 17:-0.0328559987 18:-0.1043509990 19:-0.0917920023 20:0.1650429964 21:-0.0419429988 22:-0.1788199991 
-32.0000000000 6:1.0000000000 11:-0.3429509997 12:0.1447450072 13:0.0014759999 14:0.0246510003 15:0.0007270000 16:0.0260129999 17:0.0325619988 18:-0.0393249989 19:-0.0817909986 20:0.0174679998 21:0.0585479997 22:-0.0184080005 
32.0000000000 2:1.0000000000 11:-0.0617589988 12:0.0514830016 13:-0.1231319979 14:-0.0819019973 15:-0.0935179964 16:-0.1115010008 17:-0.0829290003 18:-0.0960389972 19:-0.0866189972 20:-0.1152739972 21:-0.0754709989 22:-0.0633070022 
-32.0000000000 6:1.0000000000 11:-0.3590070009 12:0.1422729939 13:-0.0090920003 14:-0.0089429999 15:-0.0359200016 16:0.0348300003 17:0.0256629996 18:-0.0437790006 19:-0.0956699997 20:-0.0044339998 21:0.0581669994 22:-0.0423250012 
-14.3155450821 7:1.0000000000 11:-0.3867459893 12:0.1855469942 13:-0.0030370001 14:0.0279939994 15:0.0378049985 16:0.0345750004 17:0.0022169999 18:-0.0312799998 19:-0.1263210028 20:0.0215039998 21:0.0190069992 22:0.0205649994 
32.0000000000 2:1.0000000000 11:-0.0822060034 12:0.1769410074 13:-0.0731209964 14:0.0320650004 15:0.1013609990 16:0.0096990000 17:-0.0592069998 18:-0.0719669983 19:-0.0476550013 20:-0.0673950016 21:0.0560690016 22:0.0629639998 
-4.4332041740 2:1.0000000000 11:0.5470690131 12:0.3851009905 13:-0.1538870037 14:0.0234079994 15:0.5094919801 16:-0.6619340181 17:0.1310700029 18:-0.3218330145 19:0.0931219980 20:-0.1904029995 21:0.7664740086 22:-0.5695049763 
-32.0000000000 2:1.0000000000 11:-0.0514849983 12:0.1606449932 13:-0.0539119989 14:0.0151589997 15:0.1157530025 16:-0.0714970008 17:-0.1134300008 18:-0.1017429978 19:-0.0727339983 20:0.0423999988 21:0.0158970002 22:0.0249230005 
-32.0000000000 5:1.0000000000 11:0.2025389969 12:0.2065429986 13:-0.0513530001 14:0.1069590002 15:-0.0308619998 16:-0.0049109999 17:0.0017020000 18:0.2103659958 19:-0.2008489966 20:-0.0927829966 21:0.0086270003 22:0.1280850023 
-12.7023725510 9:1.0000000000 11:0.3075900078 12:0.2550660074 13:-0.0517870001 14:0.3147619963 15:-0.0575020015 16:-0.2336760014 17:-0.0420279987 18:0.1048699990 19:-0.0903860033 20:0.1767310053 21:-0.0057470002 22:-0.0388920009 
-32.0000000000 7:1.0000000000 11:-0.0594949983 12:0.1709599942 13:0.0207499992 14:0.0151629997 15:0.0615309998 16:0.0270399991 17:0.0345810018 18:-0.1163709983 19:-0.0938170031 20:0.1092699990 21:0.0334380008 22:-0.0047360002 
-32.0000000000 1:1.0000000000 11:-0.7215589881 12:0.1699219942 13:-0.0019610000 14:0.0158399995 15:0.0353199989 16:0.0059830002 17:0.0102909999 18:-0.0135410000 19:-0.0033620000 20:0.0187240001 21:-0.0094720004 22:0.0236479994 
32.0000000000 8:1.0000000000 11:0.2341510057 12:0.1982119977 13:-0.0703530014 14:0.0393519998 15:0.0703359991 16:-0.0361329988 17:-0.3022809923 18:0.0070750001 19:0.0804909989 20:-0.1096580029 21:0.1522729993 22:-0.0004330000 
31.9947547913 7:1.0000000000 11:-0.3470200002 12:0.1438290030 13:0.0099729998 14:0.0003420000 15:0.0333580002 16:0.0358089991 17:-0.0360370018 18:-0.0873899981 19:0.0064929998 20:0.0489430018 21:-0.0069340002 22:0.0040500001 
-15.6159238815 8:1.0000000000 11:0.3001990020 12:0.2488099933 13:-0.0002390000 14:0.0073350002 15:0.0839120001 16:-0.1969230026 17:-0.4035679996 18:0.0552119985 19:0.2212640047 20:-0.1654970050 21:0.2193029970 22:-0.0439889990 
-0.9166810513 2:1.0000000000 11:0.5580800176 12:0.3707579970 13:-0.0673699975 14:-0.4775060117 15:0.5635610223 16:-0.6418870091 17:0.3539890051 18:-0.3224909902 19:0.2308139950 20:-0.1494929940 21:0.8176929951 22:-0.4520899951 
-32.0000000000 6:1.0000000000 11:-0.6553339958 12:0.1099240035 13:-0.0441179983 14:-0.0710130036 15:-0.0128739998 16:-0.0913750008 17:-0.1022989973 18:-0.0899320021 19:-0.0452999994 20:-0.0495809987 21:-0.0606309995 22:-0.0435849987 
-1.9846243858 7:1.0000000000 11:0.5301839709 12:0.2486879975 13:-0.2095050067 14:0.0912190005 15:-0.1146249995 16:0.5408170223 17:-0.3870449960 18:0.0146450000 19:-0.0095570004 20:0.3726510108 21:-0.1318269968 22:0.0293540005 
2.9059655666 8:1.0000000000 11:-0.5522630215 12:0.5625920296 13:-0.1104239970 14:-0.3935689926 15:0.1441960037 16:0.0928170010 17:-0.1636919975 18:-0.2771950066 19:0.3129540086 20:0.2831749916 21:0.0295759998 22:0.0256060008 
32.0000000000 1:1.0000000000 11:-0.3480019867 12:0.1453859955 13:-0.0038550000 14:-0.0010040000 15:0.0161210001 16:0.0438640006 17:-0.0485449992 18:-0.0709189996 19:0.0054950002 20:0.0060629998 21:0.0027540000 22:-0.0621219985 
32.0000000000 5:1.0000000000 11:-0.7326149940 12:0.1710810065 13:0.0103439996 14:0.0155959995 15:0.0239109993 16:0.0116100004 17:-0.0423780009 18:-0.0719100013 19:-0.0321060009 20:0.0166720003 21:0.0211469997 22:-0.0017100000 
-3.2070326805 9:1.0000000000 11:0.5807290077 12:0.2345889956 13:-0.0651030019 14:0.5003950000 15:-0.3525269926 16:-0.0133180004 17:-0.0269189999 18:0.1129579991 19:-0.0050120000 20:-0.3260009885 21:-0.0746029988 22:-0.2336850017 
-19.9240875244 1:1.0000000000 11:0.0679079965 12:0.2298890054 13:-0.0294979997 14:-0.1603939980 15:0.1523640007 16:0.0840409994 17:-0.1769669950 18:-0.1077150032 19:0.1309030056 20:0.0219599996 21:-0.0081500001 22:0.0858549997 
32.0000000000 7:1.0000000000 11:-0.3436819911 12:0.1404419988 13:-0.0081860004 14:-0.0770929977 15:0.0194520000 16:0.0221439991 17:-0.0395449996 18:-0.0766170025 19:0.0122370003 20:0.0575570017 21:-0.0122680003 22:0.0007030000 
32.0000000000 7:1.0000000000 11:0.0400209986 12:0.2221989930 13:0.0615889989 14:-0.0052450001 15:0.0301339999 16:-0.0823590010 17:-0.1114230007 18:-0.2640390098 19:0.0129039995 20:0.1164610013 21:-0.1672289968 22:-0.0219800007 
-32.0000000000 3:1.0000000000 11:0.0489309989 12:0.2287289947 13:0.0657360032 14:0.1586370021 15:-0.1040859967 16:-0.1207439974 17:-0.0633789971 18:-0.1449549943 19:-0.1670539975 20:0.0268680006 21:-0.0416209996 22:-0.2007270008 
6.3422775269 7:1.0000000000 11:-0.4098120034 12:0.6845089793 13:0.1210469976 14:-0.3871980011 15:-0.3468039930 16:0.2924399972 17:0.0971049964 18:-0.1913730055 19:0.1435749978 20:0.4048460126 21:0.2213049978 22:0.0879649967 
32.0000000000 1:1.0000000000 11:-0.1226179972 12:0.5327150226 13:-0.0500550009 14:-0.1144070029 15:0.1177219972 16:0.2771579921 17:-0.2185789943 18:-0.2835089862 19:-0.1898760051 20:-0.2520520091 21:0.0253919996 22:0.3734900057 
-32.0000000000 1:1.0000000000 11:0.0271210000 12:0.2289730012 13:0.0507449992 14:-0.1234880015 15:0.0823360011 16:0.1725050062 17:-0.0347510017 18:-0.1052379981 19:-0.0491480008 20:-0.0341649987 21:0.0654409975 22:0.0753030032 
-6.7621326447 1:1.0000000000 11:0.1362130046 12:0.4921570122 13:-0.2406290025 14:-0.4715799987 15:0.3858000040 16:0.3780600131 17:-0.3929699957 18:0.0317029990 19:-0.0892700031 20:-0.3180339932 21:0.1131130010 22:0.6050580144 
-32.0000000000 2:1.0000000000 11:0.0080739995 12:0.2550660074 13:-0.1740220040 14:0.0974999964 15:0.1486939937 16:-0.1784979999 17:-0.1558029950 18:-0.0372649990 19:-0.0138870003 20:0.0603079982 21:0.0593339987 22:-0.0107490001 
-32.0000000000 6:1.0000000000 11:-0.0348820016 12:0.1645510048 13:-0.0303360000 14:0.0117050000 15:-0.0074300002 16:0.0139499996 17:-0.0918100029 18:0.0356799997 19:-0.0796289966 20:0.0501799993 21:0.1066830009 22:0.0050769998 
-7.0901947021 6:1.0000000000 11:-0.1621820033 12:0.5718380213 13:0.1094060019 14:0.1487450004 15:0.0959210023 16:0.0513789989 17:0.2598010004 18:-0.2779279947 19:-0.3576869965 20:0.0682310015 21:0.3656949997 22:0.0413499996 
32.0000000000 5:1.0000000000 11:-0.3507519960 12:0.1447450072 13:0.0051560001 14:0.0077920002 15:0.0224610008 16:-0.0056840000 17:0.0031780000 18:-0.1114580035 19:-0.1193599999 20:-0.0926870033 21:0.0294100009 22:0.0720430017 
-32.0000000000 4:1.0000000000 11:-0.1715939939 12:0.0529169999 13:-0.0848440006 14:-0.0915940031 15:-0.1054750010 16:-0.1024129987 17:-0.0909359977 18:-0.1135630012 19:-0.0573399998 20:-0.0728980005 21:-0.1004910022 22:-0.0914309993 
-32.0000000000 1:1.0000000000 11:-0.3347620070 12:0.1408389956 13:-0.0067920000 14:-0.0004630000 15:0.0184080005 16:0.0455229990 17:-0.0170779992 18:-0.0316810012 19:-0.0724690035 20:-0.0008440000 21:0.0360350013 22:0.0296870004 
32.0000000000 1:1.0000000000 11:0.0457989983 12:0.2261050045 13:0.0340749994 14:-0.1673139930 15:0.0901110023 16:0.1366090029 17:-0.1834529936 18:-0.0882539973 19:-0.0211399999 20:-0.0407310016 21:-0.0036700000 22:0.1966670007 
-32.0000000000 9:1.0000000000 11:0.1791349947 12:0.2026370019 13:0.0188410003 14:0.2114759982 15:-0.1076169983 16:-0.1375419945 17:0.1452919990 18:-0.0785939991 19:-0.0678469986 20:-0.0124479998 21:-0.0066479999 22:-0.0187069997 
-10.1547698975 9:1.0000000000 11:0.2091650069 12:0.4561769962 13:0.1036209986 14:0.3756150007 15:-0.2737010121 16:-0.2393610030 17:-0.2003280073 18:-0.0158089995 19:-0.2248560041 20:-0.0822589993 21:0.1634780020 22:0.0082599996 
-14.3580217361 6:1.0000000000 11:-0.4062919915 12:0.1918330044 13:0.0361149982 14:0.0707949996 15:0.0591740012 16:0.0460290015 17:0.0564510003 18:-0.0203629993 19:-0.1171230003 20:0.0013660000 21:0.0706959963 22:0.0240610000 
-2.6181707382 5:1.0000000000 11:-0.0091180000 12:0.3135069907 13:-0.0449049994 14:-0.0462229997 15:0.0479299985 16:0.0196100008 17:0.0875450000 18:-0.0754029974 19:-0.1068520024 20:-0.3109300137 21:-0.1517300010 22:0.1222959980 
32.0000000000 2:1.0000000000 11:0.2514779866 12:0.1937869936 13:-0.0927060023 14:-0.1688389927 15:0.1832990050 16:-0.1226390004 17:0.0435459986 18:-0.0615409985 19:-0.1313309968 20:0.0423449986 21:0.2324730009 22:-0.0608469993 
32.0000000000 4:1.0000000000 11:0.2808839977 12:0.1988520026 13:-0.0006320000 14:0.0516109988 15:0.0366339982 16:-0.0458590016 17:-0.1542229950 18:-0.0989290029 19:0.1860219985 20:-0.0396700017 21:-0.1445489973 22:0.0639640018 
32.0000000000 1:1.0000000000 11:-0.3574219942 12:0.1477359980 13:0.0257859994 14:0.0156140001 15:0.0358109996 16:0.0496250018 17:-0.0451320000 18:-0.0779040009 19:-0.0006620000 20:0.0140009997 21:0.0309480000 22:0.0452909991 
-7.9481096268 6:1.0000000000 11:0.4185400009 12:0.1131900027 13:-0.1487530023 14:-0.1760240048 15:-0.0993560031 16:-0.1386609972 17:0.1831279993 18:-0.2459210008 19:-0.1158770025 20:-0.1110140011 21:-0.0480660014 22:0.0391459987 
32.0000000000 3:1.0000000000 11:-0.0725630000 12:0.1727900058 13:0.0416180007 14:0.0995889977 15:-0.0702489987 16:-0.0631889999 17:-0.0580449998 18:-0.0686620027 19:0.0237949993 20:0.0715439990 21:0.0425180010 22:-0.0806770027 
32.0000000000 9:1.0000000000 11:-0.0878690034 12:0.1764219999 13:0.0391179994 14:0.0399519987 15:0.0322280005 16:-0.0588969998 17:0.0127370004 18:-0.0379259996 19:-0.0606480017 20:-0.0555460006 21:0.0053829998 22:0.0339710005 
32.0000000000 2:1.0000000000 11:0.0261649992 12:0.2289730012 13:-0.1234880015 14:0.0823360011 15:0.1725050062 16:-0.0347510017 17:-0.1052379981 18:-0.0491480008 19:-0.0341649987 20:0.0654409975 21:0.0753030032 22:0.0511629991 
-32.0000000000 7:1.0000000000 11:0.1783960015 12:0.2019959986 13:0.0320449993 14:-0.1039239988 15:-0.0016930000 16:0.2275249958 17:-0.0897829980 18:-0.2021719962 19:-0.0085589997 20:0.0162870008 21:-0.0346469991 22:0.0925270021 
32.0000000000 3:1.0000000000 11:-0.0292889997 12:0.1667789966 13:0.0380829982 14:0.1129280031 15:-0.0002220000 16:-0.0493299998 17:-0.0311750006 18:-0.0939560011 19:0.0294979997 20:0.0526329987 21:0.0255510006 22:-0.1229820028 
3.3280115128 9:1.0000000000 11:-0.3934949934 12:0.6481320262 13:0.0827369988 14:0.2360180020 15:0.0499190018 16:0.0572119989 17:0.0357660018 18:-0.4610329866 19:-0.5852140188 20:-0.3296810091 21:0.1523000002 22:0.0970489979 
-1.6341875792 8:1.0000000000 11:0.5525540113 12:0.3707579970 13:-0.0067929998 14:-0.1913439929 15:0.4398669899 16:-0.8208010197 17:0.1398739964 18:-0.3117229939 19:0.6939889789 20:-0.4727509916 21:0.3166100085 22:-0.0726900026 
-6.6006207466 3:1.0000000000 11:-0.2976889908 12:0.0655819997 13:-0.0679830015 14:-0.0621340014 15:-0.0888380036 16:-0.0798010007 17:-0.0698570013 18:-0.0809670016 19:-0.0732399970 20:-0.0537770018 21:-0.0752820000 22:-0.0790980011 
-32.0000000000 1:1.0000000000 11:0.4879159927 12:0.1453859955 13:-0.2731829882 14:-0.0237819999 15:-0.1093939990 16:0.0738530010 17:-0.0362249985 18:-0.1526580006 19:-0.1318009943 20:-0.0054939999 21:-0.2020619959 22:0.2343830019 
-8.9489049911 5:1.0000000000 11:0.3074850142 12:0.4629519880 13:-0.1852799952 14:0.1037660018 15:-0.0584339984 16:-0.1018029973 17:-0.0205140002 18:0.0419239998 19:-0.4728980064 20:-0.6991609931 21:0.1218679994 22:0.0053190002 
-6.2312598228 4:1.0000000000 11:0.5213720202 12:0.4075320065 13:0.6901260018 14:-0.4602650106 15:0.2975080013 16:-0.1129600033 17:0.1570300013 18:-0.2283339947 19:0.7399569750 20:-0.4732770026 21:-0.1297679991 22:-0.0309670009 
-3.9134154320 4:1.0000000000 11:0.0553469993 12:0.4989320040 13:0.3441259861 14:-0.3723300099 15:-0.0773420036 16:0.1508309990 17:-0.1228199974 18:-0.1022680029 19:0.3429709971 20:-0.1949869990 21:-0.3303799927 22:0.1902129948 
-7.0021271706 2:1.0000000000 11:0.4252460003 12:0.4886470139 13:-0.1271730065 14:-0.2810850143 15:0.6937519908 16:-0.4775539935 17:0.3608700037 18:-0.4008210003 19:-0.1496630013 20:-0.2510769963 21:0.8174089789 22:-0.3588649929 
-16.1554889679 3:1.0000000000 11:0.5784419775 12:0.3674930036 13:0.0717070028 14:0.4224869907 15:-0.1288329959 16:-0.1731989980 17:-0.0813670009 18:-0.1625330001 19:-0.0160319991 20:0.5814970136 21:-0.6305480003 22:0.0358849987 
-32.0000000000 6:1.0000000000 11:-0.3409599960 12:0.1426700056 13:-0.0068750000 14:0.0369019993 15:-0.0037930000 16:0.0198860001 17:0.0279270001 18:-0.0225360002 19:-0.0112669999 20:0.0185589995 21:0.0428059995 22:-0.0069309999 
-14.6558380127 1:1.0000000000 11:0.4121499956 12:0.2755430043 13:-0.2063869983 14:-0.1266980022 15:0.1009609997 16:0.3424549997 17:-0.2330739945 18:0.1925839931 19:-0.0220720004 20:-0.0480099991 21:0.0404380001 22:0.3699510098 
32.0000000000 1:1.0000000000 11:0.2324739993 12:0.2000429928 13:-0.0331530012 14:-0.2750859857 15:0.1660719961 16:-0.0871319994 17:-0.1182549968 18:-0.0155950002 19:-0.0824439973 20:-0.0015490000 21:0.0277180001 22:0.2241279930 
-1.3512120247 2:1.0000000000 11:0.2582769990 12:0.3708800077 13:-0.2437379956 14:-0.4195219874 15:0.3403199911 16:-0.1016300023 17:0.1649069935 18:0.0778789967 19:-0.0687580034 20:0.1262689978 21:0.3484230042 22:-0.1560840011 
32.0000000000 3:1.0000000000 11:0.6056900024 12:0.3434750140 13:0.0665529966 14:0.5293909907 15:-0.1848279983 16:0.0419019982 17:-0.1042530015 18:-0.0889030024 19:-0.2070910037 20:0.6245399714 21:-0.3224079907 22:-0.0586659983 
12.8116884232 10:1.0000000000 11:-0.0945340022 12:0.5072939992 13:0.2037200034 14:-0.2577410042 15:-0.5088549852 16:-0.4370270073 17:0.0705640018 18:-0.1870860010 19:-0.0618220009 20:0.0981179997 21:0.0886970013 22:0.0799869969 
-32.0000000000 1:1.0000000000 11:0.0498160012 12:0.2257380038 13:0.0952299982 14:-0.1025030017 15:0.0867019966 16:0.1877759993 17:-0.0595359989 18:-0.1017140001 19:-0.0231229998 20:-0.0450140014 21:0.0013520001 22:0.2373680025 
-2.4935741425 9:1.0000000000 11:-0.5286059976 12:0.4839479923 13:0.0421280004 14:0.0462529995 15:-0.0124430005 16:-0.0558729991 17:-0.0993380025 18:-0.0796160027 19:-0.1245850027 20:-0.1171550006 21:-0.0780659989 22:-0.0599859990 
-32.0000000000 2:1.0000000000 11:0.5701730251 12:0.2345889956 13:-0.0194300003 14:-0.0684510022 15:0.1608150005 16:-0.0176509991 17:-0.2737889886 18:0.0351170003 19:-0.2127919942 20:-0.0023200000 21:0.4046170115 22:-0.2251539975 
32.0000000000 2:1.0000000000 11:-0.3493070006 12:0.1447450072 13:-0.1152769998 14:0.0223210007 15:0.0661550015 16:-0.0449259989 17:-0.0989629999 18:-0.0777769983 19:0.0112469997 20:0.0122800004 21:-0.0541660003 22:0.0041950000 
-4.0467133522 9:1.0000000000 11:-0.0607349984 12:0.1730349958 13:0.0562560000 14:0.0295449998 15:-0.0164770000 16:-0.1442140043 17:-0.0055040000 18:0.0586629994 19:-0.1009360030 20:0.0014950000 21:0.0450929999 22:-0.0106629999 
-28.0339698792 8:1.0000000000 11:0.2725839913 12:0.0929569975 13:-0.0871239975 14:-0.1369770020 15:0.0927629992 16:-0.0950879976 17:-0.2043170035 18:-0.0982149988 19:-0.1468600035 20:0.0202900004 21:-0.0875340030 22:-0.2038120031 
0.2381761223 10:1.0000000000 11:-0.2894720137 12:0.6292110085 13:0.1391189992 14:-0.0547819994 15:-0.0853129998 16:0.0618490018 17:-0.0166999996 18:-0.6117659807 19:-0.4836510122 20:-0.0070030000 21:0.1014610007 22:0.0869460031 
-32.0000000000 6:1.0000000000 11:-0.7333189845 12:0.1731870025 13:0.0061450000 14:0.0196400005 15:0.0152099999 16:-0.0075759999 17:0.0218090005 18:-0.0355999991 19:-0.0202089995 20:0.0207599998 21:-0.0171620008 22:-0.0093569998 
-32.0000000000 1:1.0000000000 11:-0.3347490132 12:0.1451420039 13:-0.0100109996 14:0.0014230000 15:0.0162109993 16:0.0169929992 17:-0.0930219963 18:-0.0146150002 19:0.0351179987 20:0.0115310000 21:0.0290099997 22:0.0293279998 
-32.0000000000 5:1.0000000000 11:-0.0749379992 12:0.1570129991 13:-0.0691960007 14:-0.0240150001 15:-0.0101910001 16:-0.0157830007 17:0.0324340016 18:-0.0097030001 19:0.0007340000 20:-0.0744490027 21:-0.0082630003 22:0.0557800010 
32.0000000000 3:1.0000000000 11:0.2500129938 12:0.1937869936 13:0.1074960008 14:-0.0220209993 15:0.0336799994 16:0.0591370016 17:-0.1201160029 18:-0.1131440029 19:-0.1157810017 20:0.1640470028 21:-0.1094530001 22:-0.1219149977 
32.0000000000 10:1.0000000000 11:-0.0157890003 12:0.3206790090 13:0.2359620035 14:-0.0715489984 15:-0.1501909941 16:0.1120539978 17:0.1527190059 18:-0.2136330009 19:-0.1006840020 20:0.0616630018 21:0.0448819995 22:0.0073370002 
-24.3933429718 4:1.0000000000 11:-0.5277799964 12:0.4104000032 13:0.0312939994 14:-0.0703419968 15:-0.0656030029 16:-0.0492610000 17:-0.0164250005 18:-0.0755349994 19:0.0324510001 20:0.0000430000 21:-0.0240180008 22:0.0398119986 
14.6590585709 1:1.0000000000 11:0.5174310207 12:0.4538269937 13:-0.4390229881 14:-0.2204280049 15:0.1387510002 16:0.4848000109 17:-0.5277600288 18:0.1684110016 19:-0.3563959897 20:-0.0241289996 21:-0.3447009921 22:0.6485249996 
30.1694469452 3:1.0000000000 11:0.6026340127 12:0.3570559919 13:0.0472420007 14:0.4190019965 15:-0.1586380005 16:0.0222709998 17:-0.1688189954 18:-0.1721439958 19:-0.1799670011 20:0.5303900242 21:-0.5965970159 22:-0.0324530005 
-6.3831467628 3:1.0000000000 11:0.1193099990 12:0.2231139988 13:0.1419270039 14:0.1501920074 15:-0.1049700007 16:0.0290709995 17:0.1230179965 18:-0.1097849980 19:-0.1857309937 20:0.2287900001 21:-0.1263629943 22:-0.1506099999 
32.0000000000 9:1.0000000000 11:0.0530579984 12:0.2243040055 13:0.0556120016 14:0.0515329987 15:0.0311999992 16:-0.1129880026 17:0.0546940006 18:-0.0208999999 19:-0.1012850031 20:0.0107549997 21:0.1062809974 22:0.0108559998 
-3.8731918335 3:1.0000000000 11:0.2250310034 12:0.4409179986 13:0.1506589949 14:-0.2897909880 15:-0.1803019941 16:0.1285649985 17:0.0139020002 18:-0.2033849955 19:-0.2091419995 20:0.2669630051 21:-0.1651789993 22:-0.2090470046 
32.0000000000 8:1.0000000000 11:-0.5397830009 12:0.0920410007 13:-0.0351530015 14:-0.0658579990 15:-0.0672959983 16:-0.0751980022 17:-0.0731130019 18:-0.0836990029 19:-0.0389799997 20:-0.0686969981 21:-0.0792199969 22:-0.0721099973 
32.0000000000 3:1.0000000000 11:-0.0479759984 12:0.1674190015 13:-0.0026940000 14:-0.0349830016 15:-0.0473770015 16:-0.0531160012 17:-0.0514510013 18:-0.0673639998 19:-0.0259479992 20:-0.0562280007 21:0.0413560010 22:-0.0549889989 
-32.0000000000 6:1.0000000000 11:-0.4056409895 12:0.1464229971 13:-0.0075849998 14:0.0077950000 15:-0.0140030002 16:-0.0289580002 17:-0.0836019963 18:-0.0243570004 19:0.0078889998 20:-0.0043370002 21:0.0213259999 22:0.0017690000 
-2.5937714577 1:1.0000000000 11:0.1998690069 12:0.2060240060 13:-0.0656350031 14:-0.0905909985 15:0.1033509970 16:-0.0661339983 17:-0.0407099985 18:-0.0114320004 19:-0.0065529998 20:0.0058430000 21:0.0043230001 22:0.2517049909 
32.0000000000 10:1.0000000000 11:-0.3617529869 12:0.1469729990 13:-0.0069320002 14:-0.0898080021 15:-0.1321309954 16:-0.0918740034 17:0.0191619992 18:-0.0561849996 19:0.0006660000 20:0.0368579999 21:0.0278389994 22:0.0368679985 
-31.9994621277 2:1.0000000000 11:-0.4061500132 12:0.1912840009 13:0.0007240000 14:0.0173439998 15:0.0213389993 16:-0.0674069971 17:-0.1261129975 18:-0.0213580001 19:0.0216109995 20:0.0262690000 21:0.0153029999 22:0.0003540000 
32.0000000000 3:1.0000000000 11:0.0135450000 12:0.1547850072 13:0.0476469994 14:0.0939470008 15:-0.0144280000 16:-0.0516019985 17:-0.0445370004 18:-0.1010869965 19:-0.0187650006 20:0.0537699983 21:0.0498340018 22:-0.1259129941 
-11.3601970673 10:1.0000000000 11:-0.4035809934 12:0.1834719926 13:0.0087409997 14:0.0090920003 15:-0.0249010008 16:-0.1481689960 17:-0.1091160029 18:-0.0011640000 19:0.0343150012 20:0.0325229988 21:0.0307539999 22:0.0592130013 
-30.2833347321 2:1.0000000000 11:0.5318700075 12:0.2445069999 13:0.0377260000 14:-0.1461459994 15:0.2619479895 16:-0.2850129902 17:-0.1284859926 18:-0.0866310000 19:-0.1611409932 20:-0.0645989999 21:0.4289819896 22:-0.2072450072 
-19.0865116119 6:1.0000000000 11:-0.5286939740 12:0.4706420004 13:-0.0452959985 14:-0.0365319997 15:-0.0335530005 16:-0.1034490019 17:0.0088780001 18:-0.1460819989 19:-0.3199700117 20:0.0440410003 21:-0.0706180036 22:0.1540489942 
-4.7840952873 7:1.0000000000 11:0.0514129996 12:0.2252199948 13:0.0599859990 14:-0.0412270017 15:-0.1521639973 16:0.0134290000 17:-0.1172040030 18:-0.1035389975 19:0.0801350027 20:0.1655360013 21:-0.1038250029 22:-0.0420279987 
-18.2360095978 3:1.0000000000 11:-0.5273699760 12:0.4539490044 13:-0.0092780003 14:-0.0748609975 15:-0.2841039896 16:0.0451750010 17:0.0820949972 18:-0.0165689997 19:0.0375799984 20:0.1472350061 21:0.1087469980 22:0.0210640002 
-32.0000000000 7:1.0000000000 11:-0.0368809998 12:0.1670529991 13:0.0257859994 14:-0.0130519997 15:0.0533589981 16:-0.0568559989 17:0.0133269997 18:-0.1344549954 19:0.0417339988 20:0.1220249981 21:0.0219790004 22:-0.0402190015 
32.0000000000 6:1.0000000000 11:0.4821909964 12:0.1131900027 13:-0.1526580006 14:-0.1318009943 15:-0.0054939999 16:-0.2020619959 17:0.2343830019 18:-0.3203580081 19:-0.0592410006 20:-0.1623079926 21:0.0129079996 22:-0.0866329968 
32.0000000000 10:1.0000000000 11:-0.1084019989 12:0.4216000140 13:0.2038220018 14:-0.1525979936 15:-0.3121590018 16:0.0061420002 17:0.1394719929 18:-0.1668960005 19:-0.0597979985 20:-0.0316700004 21:-0.2035319954 22:-0.0606260002 
-8.6635046005 9:1.0000000000 11:0.6312590241 12:0.2990109921 13:-0.0597399995 14:0.5274270177 15:-0.5640640259 16:-0.0883049965 17:-0.4211559892 18:0.2119150013 19:0.0325089991 20:0.0056039998 21:0.0617409982 22:-0.0953859985 
-32.0000000000 4:1.0000000000 11:-0.3520610034 12:0.1492920071 13:0.0716079995 14:-0.0014730000 15:0.0090100002 16:0.0327889994 17:0.0099050002 18:0.0198909994 19:0.0321820006 20:0.0165570006 21:0.0002540000 22:0.0266830008 
32.0000000000 9:1.0000000000 11:-0.0310590006 12:0.1690060049 13:-0.0460520014 14:0.0266360007 15:0.0496019982 16:-0.1038839966 17:0.0165529996 18:-0.0287820008 19:-0.0061400002 20:0.0036980000 21:0.0033189999 22:-0.0445550010 
32.0000000000 2:1.0000000000 11:-0.7315980196 12:0.1718750000 13:0.0074870000 14:0.0201069992 15:-0.0330200009 16:0.0083149998 17:0.0049239998 18:-0.0789109990 19:-0.0033390000 20:-0.0169949997 21:0.0238630008 22:-0.0787729993 
-23.7156620026 2:1.0000000000 11:-0.0563849993 12:0.1622309983 13:-0.0544430017 14:0.0071990001 15:-0.0738890022 16:-0.0080859996 17:-0.0362059996 18:-0.0263069998 19:-0.0818350017 20:-0.0866729990 21:0.0034739999 22:0.0368230008 
-32.0000000000 1:1.0000000000 11:0.2675029933 12:0.2913210094 13:-0.1975599974 14:-0.2463469952 15:0.1139699966 16:0.0199989993 17:-0.2342399955 18:0.0939520001 19:-0.1142859980 20:-0.1556950063 21:-0.0738660023 22:0.4178169966 
-32.0000000000 3:1.0000000000 11:0.3038550019 12:0.2425539941 13:0.1730290055 14:0.1150420010 15:-0.1178430021 16:0.1757220030 17:-0.0476710014 18:-0.1461129934 19:-0.1543779969 20:0.1999550015 21:-0.0467909984 22:-0.2304490060 
3.3159806728 3:1.0000000000 11:-0.3581300080 12:0.5389710069 13:-0.2843349874 14:0.0203380007 15:-0.4118939936 16:-0.3208560050 17:0.0062239999 18:-0.2213129997 19:0.1007750034 20:0.1043689996 21:-0.2198649943 22:0.0187740009 
-15.5247936249 2:1.0000000000 11:0.6238570213 12:0.3094480038 13:-0.0529920012 14:0.0871149972 15:0.3359239995 16:-0.0086700004 17:-0.0488420017 18:0.1140379980 19:-0.1332480013 20:0.1033639982 21:0.1652600020 22:-0.0890630037 
7.3015456200 8:1.0000000000 11:-0.3942449987 12:0.6636660099 13:-0.3826020062 14:0.0207499992 15:0.0429250002 16:-0.3145309985 17:-0.1992560029 18:-0.2994279861 19:0.1712629944 20:-0.0762690008 21:-0.2748950124 22:0.0652690008 
32.0000000000 8:1.0000000000 11:0.6127309799 12:0.3099670112 13:-0.0386600010 14:-0.0552119985 15:0.3279890120 16:-0.3402380049 17:-0.0857840031 18:-0.1762659997 19:0.2998740077 20:0.0370640010 21:0.0039349999 22:0.0795530006 
0.4711450934 1:1.0000000000 11:-0.5809479952 12:0.6958619952 13:0.0164810009 14:0.2917880118 15:0.3022029996 16:0.0863230005 17:-0.1842830032 18:-0.2892169952 19:0.1291709989 20:-0.2586010098 21:-0.0379370004 22:0.1783809960 
5.9414587021 5:1.0000000000 11:0.6191970110 12:0.3069759905 13:-0.0017969999 14:-0.1091649979 15:0.1278849989 16:-0.2074470073 17:-0.2360910028 18:-0.0817470029 19:-0.1681189984 20:-0.3297550082 21:0.0670190006 22:0.4590260088 
1.9662359953 2:1.0000000000 11:-0.3991949856 12:0.6521610022 13:-0.4863019884 14:-0.4404189885 15:0.1918939948 16:0.0745010003 17:-0.0348340012 18:-0.3315820098 19:0.0235259999 20:0.2043360025 21:0.2102279961 22:0.0157639999 
32.0000000000 7:1.0000000000 11:0.2340359986 12:0.2009579986 13:0.0232129991 14:-0.0520570017 15:0.0040589999 16:0.2057279944 17:-0.1929939985 18:-0.1006779969 19:-0.0340379998 20:0.1421390027 21:-0.1185199991 22:0.1257759929 
-32.0000000000 10:1.0000000000 11:0.6188700199 12:0.3228760064 13:0.5429660082 14:-0.3293479979 15:-0.1329690069 16:0.0207800008 17:0.0103780003 18:-0.0486270003 19:-0.0621629991 20:0.0996970013 21:-0.0456169993 22:-0.0160070006 
32.0000000000 6:1.0000000000 11:-0.0994649976 12:0.1694030017 13:-0.0189720001 14:-0.0086580003 15:0.0047439998 16:0.0225280002 17:-0.0374520011 18:-0.0487009995 19:-0.1008810028 20:0.0457330011 21:0.0782900006 22:-0.0111370003 
-32.0000000000 7:1.0000000000 11:0.1819259971 12:0.4677729905 13:0.0064500002 14:-0.1237630025 15:0.0938389972 16:0.3554300070 17:-0.2854560018 18:-0.3031930029 19:-0.1426569968 20:0.1445900053 21:-0.2013529986 22:-0.0303339995 
32.0000000000 7:1.0000000000 11:-0.0605730005 12:0.1696469933 13:-0.0169760007 14:0.0255919993 15:0.0394529998 16:0.0231699999 17:-0.0151600000 18:-0.1316889971 19:-0.0107699996 20:-0.0458719991 21:0.0433729999 22:0.0132950004 
32.0000000000 1:1.0000000000 11:-0.3380680084 12:0.1443479955 13:-0.0173080005 14:0.0114080003 15:0.0027910001 16:0.0572099984 17:-0.0467730016 18:-0.0692080036 19:0.0067790002 20:0.0114540001 21:-0.0076270001 22:-0.0610519983 
-10.6210327148 6:1.0000000000 11:-0.0911720023 12:0.5332340002 13:-0.3534480035 14:-0.3979580104 15:-0.2196040004 16:0.0237429999 17:0.1327680051 18:-0.3902440071 19:-0.5046910048 20:-0.1503670067 21:0.1786810011 22:-0.1304029971 
32.0000000000 7:1.0000000000 11:-0.0279479995 12:0.1652220041 13:-0.0153339999 14:0.0050180000 15:0.0569400005 16:0.0185940005 17:-0.0074319998 18:-0.1409810036 19:-0.0164689999 20:0.1128539965 21:0.0199669991 22:-0.0146859996 
32.0000000000 8:1.0000000000 11:0.2290779948 12:0.1997680068 13:-0.1043509990 14:-0.0917920023 15:0.1650429964 16:-0.0419429988 17:-0.1788199991 18:-0.0508649983 19:-0.0503499992 20:0.0332640000 21:-0.0534229986 22:0.0487269983 
-32.0000000000 2:1.0000000000 11:0.5858309865 12:0.2384950072 13:-0.0132950004 14:-0.1100500003 15:-0.0114890002 16:-0.0607450008 17:-0.2615399957 18:0.0615769997 19:-0.3258090019 20:-0.0165410005 21:0.2612150013 22:-0.1051980034 
32.0000000000 10:1.0000000000 11:0.2242420018 12:0.1948239952 13:0.2320190072 14:-0.1893119961 15:-0.0985750034 16:-0.0527350008 17:0.0336580016 18:0.0011890000 19:-0.1075360030 20:0.0709050000 21:-0.1011129990 22:-0.1225100011 
-32.0000000000 4:1.0000000000 11:0.2314669937 12:0.1984860003 13:-0.0964099988 14:0.0343570001 15:-0.0538129993 16:-0.0623980016 17:-0.0898950025 18:-0.1037139967 19:0.3212609887 20:-0.0862770006 21:-0.1593209952 22:0.1511050016 
32.0000000000 10:1.0000000000 11:0.0998789966 12:0.2135919929 13:0.2051399946 14:-0.1248380020 15:-0.1495770067 16:-0.0092099998 17:0.1052500010 18:-0.1780479997 19:-0.0048880000 20:0.0578150004 21:-0.0029130001 22:-0.0032450000 
32.0000000000 6:1.0000000000 11:-0.3583639860 12:0.1510010064 13:-0.0041339998 14:0.0159089994 15:0.0098430002 16:0.0313300006 17:0.0063809999 18:-0.0696770027 19:-0.0270860009 20:0.0312779993 21:0.0540560000 22:-0.0160569996 
-32.0000000000 2:1.0000000000 11:-0.0311299991 12:0.3304440081 13:-0.0964559987 14:0.1260460019 15:0.2519699931 16:-0.0132179996 17:-0.0219010003 18:-0.0708660036 19:-0.1828919947 20:0.0561150014 21:0.1578429937 22:0.0494309999 
-5.4565558434 4:1.0000000000 11:-0.2057369947 12:0.5672910213 13:0.1097790003 14:-0.3007020056 15:-0.5451999903 16:-0.4699819982 17:-0.0294150002 18:-0.1003450006 19:0.2648259997 20:-0.1280180067 21:-0.1610440016 22:0.0219620001 
12.9367685318 8:1.0000000000 11:0.0809290037 12:0.5204470158 13:-0.0993290022 14:-0.0428010002 15:0.1765169948 16:-0.5786049962 17:-0.4215500057 18:-0.2403730005 19:0.3964110017 20:-0.3700380027 21:-0.0493570007 22:0.0544629991 
6.7974548340 6:1.0000000000 11:-0.3780089915 12:0.6573789716 13:0.0957790017 14:-0.0359690003 15:-0.3826020062 16:0.0207499992 17:0.0429250002 18:-0.3145309985 19:-0.1992560029 20:-0.2994279861 21:0.1712629944 22:-0.0762690008 
32.0000000000 6:1.0000000000 11:0.0582939982 12:0.2262569964 13:-0.0673670024 14:-0.0068430002 15:-0.1404539943 16:-0.1399399936 17:-0.0437610000 18:-0.0850109980 19:-0.2482890040 20:0.1062510014 21:0.2184589952 22:-0.0622039996 
-23.9531898499 6:1.0000000000 11:-0.3842729926 12:0.5152279735 13:-0.1116259992 14:-0.2724649906 15:0.0572789982 16:0.1771489978 17:0.1323429942 18:-0.1578900069 19:-0.2487740070 20:0.2295839936 21:0.3824239969 22:-0.0575190000 
32.0000000000 1:1.0000000000 11:0.2292519957 12:0.1990049928 13:-0.1386030018 14:-0.2480549961 15:0.0247339997 16:0.1815260053 17:-0.2157900035 18:0.1001330018 19:-0.1658059955 20:-0.0732650012 21:-0.0180200003 22:0.2202060074 
32.0000000000 10:1.0000000000 11:-0.0865769982 12:0.1589660048 13:-0.1124200001 14:-0.0021639999 15:-0.0774509981 16:0.0199239999 17:0.0285509992 18:-0.1340280026 19:-0.0285420008 20:-0.0052230000 21:-0.0122309998 22:0.0059549999 
-32.0000000000 6:1.0000000000 11:-0.0046910001 12:0.3107599914 13:-0.0576970018 14:0.0554430000 15:0.0212399997 16:0.0329260007 17:-0.1338690072 18:-0.0636859983 19:-0.1021310017 20:0.1706659943 21:0.2728109956 22:-0.0537069999 
15.9088535309 6:1.0000000000 11:0.5929509997 12:0.2345889956 13:-0.3021659851 14:0.1004649997 15:-0.1862529963 16:0.0573659986 17:0.1657489985 18:-0.0302380007 19:-0.2844600081 20:0.0408530012 21:0.0762040019 22:0.1656039953 
-11.6139364243 2:1.0000000000 11:0.6002010107 12:0.3502810001 13:-0.3241199851 14:-0.2292930037 15:0.0699779987 16:0.0733560026 17:-0.2989659905 18:0.1340579987 19:-0.1511680037 20:0.2232809961 21:0.1182209998 22:0.0345700011 
-32.0000000000 4:1.0000000000 11:-0.3657180071 12:0.1414799988 13:-0.0499580018 14:-0.0985530019 15:-0.0430710018 16:0.0058530001 17:-0.0973879993 18:-0.0642250031 19:-0.0623649992 20:0.0008040000 21:0.0151079996 22:0.0204380006 
-30.6815395355 9:1.0000000000 11:-0.6644780040 12:0.1148680001 13:-0.0913750008 14:-0.1022989973 15:-0.0899320021 16:-0.0452999994 17:-0.0495809987 18:-0.0606309995 19:-0.0435849987 20:-0.0723169968 21:-0.0377120003 22:-0.0315370001 
7.2205209732 1:1.0000000000 11:-0.3199200034 12:0.6468200088 13:-0.0599329993 14:-0.0408249982 15:0.0622950010 16:0.1793709993 17:-0.2445040047 18:-0.5358830094 19:-0.6365320086 20:-0.4604859948 21:0.0691839978 22:0.2616060078 
32.0000000000 3:1.0000000000 11:-0.0872720033 12:0.1659850031 13:-0.1279450059 14:0.0788139999 15:0.0117870001 16:-0.0142270001 17:-0.0700879991 18:-0.0910940021 19:-0.0011800000 20:0.0388219990 21:-0.0416329987 22:-0.1213300005 
12.8950014114 6:1.0000000000 11:-0.0145070003 12:0.5001220107 13:-0.2953020036 14:-0.1915829927 15:-0.0615670010 16:0.1348460019 17:0.0518440008 18:-0.2131980062 19:-0.3725090027 20:0.1488550007 21:0.4387460053 22:-0.1155650020 
-5.3414897919 10:1.0000000000 11:-0.1408459991 12:0.5202029943 13:0.2101289928 14:-0.1164809987 15:-0.1589200050 16:0.0695099980 17:0.1967339963 18:-0.2591589987 19:-0.3392139971 20:-0.0753649995 21:0.0281770006 22:-0.0161460005 
5.6290121078 1:1.0000000000 11:0.4505220056 12:0.4750669897 13:-0.3497500122 14:-0.6830180287 15:0.4693309963 16:0.1110280007 17:0.0070239999 18:-0.2887069881 19:-0.4217579961 20:-0.1479360014 21:0.1333629936 22:0.7380999923 
-32.0000000000 3:1.0000000000 11:-0.0497570001 12:0.1631159931 13:0.0018190000 14:0.0932699963 15:0.0040799999 16:-0.0043239999 17:0.0082069999 18:-0.0170729998 19:0.0452799983 20:0.0175609998 21:0.0645840019 22:-0.1172289997 
-32.0000000000 1:1.0000000000 11:0.0272860005 12:0.1781309992 13:0.0634720027 14:-0.1247389987 15:0.0522789992 16:0.0675880015 17:-0.1453209966 18:-0.0372699983 19:0.0390760005 20:0.0062870001 21:0.0368410014 22:0.0315649994 
-25.6546077728 9:1.0000000000 11:0.1801770031 12:0.2019959986 13:0.0444069989 14:0.2411600053 15:-0.0925709978 16:-0.1770630032 17:-0.0317940004 18:0.0392719992 19:-0.0679600015 20:0.1005880013 21:0.0320449993 22:-0.1039239988 
-2.3391106129 2:1.0000000000 11:0.5659419894 12:0.3843080103 13:-0.1099269986 14:-0.0313429981 15:0.2504599988 16:-0.1684660017 17:-0.3195129931 18:0.1546549946 19:-0.1150539964 20:0.0817210004 21:0.1318510026 22:-0.3369849920 
-25.1843051910 10:1.0000000000 11:0.3139240146 12:0.2540279925 13:0.3366479874 14:-0.1871470064 15:-0.2021030039 16:0.0348000005 17:-0.0040440001 18:-0.0950480029 19:-0.0434660017 20:-0.0977519974 21:-0.1378660053 22:-0.0698510036 
32.0000000000 5:1.0000000000 11:0.2738279998 12:0.3543089926 13:-0.0661400035 14:0.1567440033 15:-0.0286909994 16:-0.0431829989 17:-0.0379270017 18:0.1362800002 19:-0.2709639966 20:-0.2071589977 21:-0.0832590014 22:0.1214990020 
-0.0861661434 8:1.0000000000 11:-0.0271339994 12:0.1669010073 13:-0.0021299999 14:0.0553740002 15:0.0155680003 16:0.0561329983 17:-0.1265490055 18:0.0309490003 19:0.0813829973 20:-0.1396439970 21:-0.0118690003 22:0.0076919999 
-29.5918807983 4:1.0000000000 11:0.6212729812 12:0.3016360104 13:0.2982240021 14:-0.0621600002 15:-0.0218400005 16:-0.1276450008 17:-0.1672790051 18:-0.1831859946 19:0.5127909780 20:-0.2972880006 21:-0.1537010074 22:-0.1725600064 
32.0000000000 6:1.0000000000 11:-0.4051110148 12:0.1878969967 13:0.0315879993 14:0.0275090002 15:-0.0284109991 16:-0.1053849980 17:-0.0281709991 18:-0.0874679983 19:-0.0322180018 20:0.0496059991 21:0.0744849965 22:0.0215949994 
-32.0000000000 1:1.0000000000 11:-0.3475759923 12:0.1442259997 13:-0.0316639990 14:-0.0928239971 15:0.0060549998 16:0.0603980012 17:-0.0380109996 18:-0.0574720018 19:0.0129140001 20:0.0012690000 21:0.0201159995 22:0.0161569994 
16.2779541016 2:1.0000000000 11:0.6165480018 12:0.3074949980 13:-0.0528399982 14:-0.0582070015 15:0.4598770142 16:-0.1215590015 17:-0.1548780054 18:-0.0595199987 19:-0.2163749933 20:0.0306499992 21:0.4989539981 22:-0.2742899954 
32.0000000000 3:1.0000000000 11:0.2372049987 12:0.2002869993 13:-0.0376029983 14:0.1728709936 15:-0.1165900007 16:0.1006980017 17:-0.0540379994 18:-0.1237860024 19:-0.0639339983 20:0.2566869855 21:-0.0599719994 22:-0.1311739981 
32.0000000000 2:1.0000000000 11:-0.7480289936 12:0.1712040007 13:-0.0148900002 14:-0.0614119992 15:-0.0254490003 16:-0.0219410006 17:-0.0792199969 18:-0.0946500003 19:0.0023119999 20:-0.0114669995 21:0.0476999991 22:0.0047550001 
32.0000000000 1:1.0000000000 11:0.2332819998 12:0.1997680068 13:-0.0776100010 14:-0.1246130019 15:0.1251759976 16:-0.1051020026 17:-0.0862070024 18:-0.0448869988 19:-0.0708869994 20:0.0159499999 21:-0.0423419997 22:0.1039069965 
6.4366416931 10:1.0000000000 11:0.5165020227 12:0.4525150061 13:0.3883250058 14:-0.5178599954 15:-0.0188379996 16:0.1656000018 17:0.2377180010 18:-0.0906409994 19:-0.5850250125 20:-0.0510290004 21:-0.5768730044 22:0.1533990055 
32.0000000000 9:1.0000000000 11:0.2387980074 12:0.1974180043 13:0.0242880005 14:0.0597280003 15:-0.0241039991 16:-0.3216800094 17:-0.0170479994 18:-0.0586550012 19:-0.1014859974 20:0.1866399944 21:-0.0212469995 22:-0.0586859994 
32.0000000000 5:1.0000000000 11:0.6075710058 12:0.2482910007 13:-0.0290740002 14:-0.1719039977 15:0.1421229988 16:-0.0563520007 17:-0.0783310011 18:0.2615529895 19:-0.2626839876 20:0.0320210010 21:-0.1141560003 22:0.3346889913 
32.0000000000 10:1.0000000000 11:-0.0434300005 12:0.1667789966 13:0.0373630002 14:0.0566320010 15:-0.0974820033 16:0.0398739986 17:0.0719290003 18:-0.1366820037 19:-0.0190709997 20:0.0262630004 21:-0.0149630001 22:0.0552680008 
17.8032875061 7:1.0000000000 11:0.2672060132 12:0.2343440056 13:0.0512910001 14:-0.0646580011 15:0.0264769997 16:0.2883870006 17:-0.2317170054 18:-0.0763029978 19:-0.0390530005 20:0.2430029958 21:-0.1297390014 22:0.1427489966 
32.0000000000 7:1.0000000000 11:-0.7328090072 12:0.1686100066 13:-0.0159210004 14:0.0126050003 15:-0.0943759978 16:-0.0197930001 17:-0.0198529996 18:-0.0661559999 19:0.0003270000 20:-0.0047120000 21:0.0092460001 22:0.0104230000 
-32.0000000000 10:1.0000000000 11:0.0659340024 12:0.2262569964 13:0.1857939959 14:-0.0521639995 15:-0.1353009939 16:0.0765810013 17:0.1701840013 18:-0.1105370000 19:-0.0520819984 20:0.0974199995 21:-0.0255159996 22:0.0244720001 
32.0000000000 8:1.0000000000 11:-0.3498480022 12:0.1472170055 13:0.0078059998 14:0.0250589997 15:-0.0122119999 16:-0.0753009990 17:-0.0363009982 18:-0.0717160031 19:0.0466989987 20:0.0086059999 21:0.0147340000 22:0.0299050007 
32.0000000000 6:1.0000000000 11:-0.0430850014 12:0.5347899795 13:-0.0245229993 14:0.0904159993 15:0.0673189983 16:0.1022790000 17:0.1127990037 18:-0.2691259980 19:-0.3911510110 20:0.1710000038 21:0.4546740055 22:-0.0188209992 
32.0000000000 6:1.0000000000 11:0.5961319804 12:0.2333070040 13:0.0216080006 14:-0.1482689977 15:-0.0809490010 16:-0.1912280023 17:0.1425309926 18:-0.2211949974 19:-0.1213259995 20:-0.0035710000 21:0.1904300004 22:-0.0546990000 
-3.2567639351 5:1.0000000000 11:0.1843010038 12:0.4676510096 13:-0.2288600057 14:0.0819969997 15:0.0292339996 16:-0.1362770051 17:0.0799890012 18:0.3763589859 19:-0.5384290218 20:-0.2693539858 21:0.0397600010 22:0.2434030026 
-32.0000000000 6:1.0000000000 11:0.2163459957 12:0.2023929954 13:0.1050999984 14:-0.1025300026 15:0.0078419996 16:0.0028450000 17:0.0457499996 18:-0.0781859979 19:-0.0964410007 20:0.1626169980 21:0.0422040001 22:-0.0780310035 
32.0000000000 1:1.0000000000 11:-0.3503459990 12:0.1453859955 13:-0.0348189995 14:-0.1012799963 15:-0.1116949990 16:-0.0637390018 17:-0.0328060016 18:-0.0439179987 19:0.0234789997 20:0.0073609999 21:0.0312290005 22:0.0406490006 
32.0000000000 7:1.0000000000 11:-0.4855389893 12:0.0814820006 13:-0.0818670020 14:-0.0845040008 15:-0.0674149990 16:-0.0671290010 17:-0.0848089978 18:-0.0875929967 19:-0.0777970031 20:-0.0687050000 21:-0.0794870034 22:-0.0582659990 
-31.5295352936 10:1.0000000000 11:-0.4394789934 12:0.0758970007 13:-0.0376579985 14:-0.0572549999 15:-0.0790370032 16:-0.0605290011 17:-0.0546649992 18:-0.0684840009 19:-0.0589589998 20:-0.0653589964 21:-0.0591810010 22:-0.0694120005 
-2.0770089626 9:1.0000000000 11:0.4322359860 12:0.4886470139 13:-0.2510769963 14:0.8174089789 15:-0.3588649929 16:-0.2169370055 17:0.2165160030 18:0.4407440126 19:-0.1959300041 20:0.0881130025 21:-0.2235070020 22:-0.3312599957 
-31.9965496063 7:1.0000000000 11:-0.3546800017 12:0.1457830071 13:-0.0135030001 14:-0.0746560022 15:0.0254270006 16:-0.0001320000 17:-0.0697169974 18:-0.0297260005 19:0.0208330005 20:0.0308010001 21:-0.0094619999 22:-0.0002220000 
-32.0000000000 5:1.0000000000 11:-0.3858239949 12:0.1881709993 13:-0.0246990006 14:-0.0141040003 15:0.0144269997 16:-0.0003760000 17:0.0051170001 18:-0.0380290002 19:-0.1176860034 20:-0.0388659984 21:0.0214130003 22:0.0304150004 
32.0000000000 4:1.0000000000 11:0.2024960071 12:0.1986079961 13:0.0338880010 14:-0.1121769994 15:0.0958940014 16:-0.0230310000 17:-0.1260630041 18:-0.1320260018 19:0.1768510044 20:-0.1612969935 21:-0.1450459957 22:-0.1559340060 
-32.0000000000 9:1.0000000000 11:-0.4370380044 12:0.0758970007 13:-0.0460009985 14:-0.0376579985 15:-0.0572549999 16:-0.0790370032 17:-0.0605290011 18:-0.0546649992 19:-0.0684840009 20:-0.0589589998 21:-0.0653589964 22:-0.0591810010 
-7.2484602928 3:1.0000000000 11:0.5670009851 12:0.4066160023 13:0.0650369972 14:0.3842540085 15:-0.3020739853 16:-0.0010600000 17:-0.3026970029 18:0.1190579981 19:-0.1101050004 20:0.7064809799 21:-0.5403730273 22:-0.0133570004 
-31.9902286530 2:1.0000000000 11:0.2728579938 12:0.1948239952 13:-0.0833019987 14:0.0566730015 15:0.0070529999 16:0.0622290000 17:0.0345950015 18:-0.0254529994 19:-0.0785589963 20:0.0102589997 21:0.2041459978 22:-0.1977159977 
-32.0000000000 6:1.0000000000 11:-0.4042899907 12:0.1847839952 13:0.0544870012 14:0.0375589989 15:0.0213309992 16:0.0047960002 17:-0.1011559963 18:-0.0171809997 19:0.0481970012 20:0.0554269999 21:0.0628139973 22:0.0179699995 
32.0000000000 1:1.0000000000 11:0.0572450012 12:0.2178950012 13:-0.0648619980 14:-0.1334899962 15:0.0981199965 16:0.1571339965 17:-0.1985560060 18:-0.1163790002 19:-0.0123830000 20:-0.0298330002 21:0.0080680000 22:0.2004839927 
32.0000000000 1:1.0000000000 11:0.5803539753 12:0.2382510006 13:-0.2218919992 14:0.0174749997 15:-0.0268009994 16:0.3285810053 17:-0.1961130053 18:0.0246939994 19:-0.1058750004 20:0.0039349999 21:-0.0345260017 22:0.4452480078 
27.3635940552 10:1.0000000000 11:0.2975229919 12:0.2758179903 13:0.2643780112 14:-0.3115069866 15:-0.1442230046 16:-0.0996610001 17:0.0559599996 18:-0.2158019990 19:-0.2674440145 20:-0.2117460072 21:-0.0795880035 22:0.0022060000 
32.0000000000 6:1.0000000000 11:-0.0283129998 12:0.1737059951 13:-0.0319320001 14:0.0277830008 15:0.0065090000 16:0.0582100004 17:-0.0662539974 18:-0.0003950000 19:-0.1296570003 20:0.0407890007 21:0.0937390029 22:0.0053920001 
1.2707943916 1:1.0000000000 11:0.3875760138 12:0.4483340085 13:-0.5599939823 14:-0.2190819979 15:-0.2114329934 16:0.0281440001 17:-0.2592670023 18:-0.2623000145 19:-0.1425250024 20:0.1021369994 21:0.0535250008 22:0.7185990214 
-32.0000000000 8:1.0000000000 11:0.3103690147 12:0.2438659966 13:-0.0469119996 14:-0.0109529998 15:0.3029179871 16:-0.2965449989 17:-0.1367959976 18:-0.0992380008 19:0.2643499970 20:-0.1759990007 21:0.0660199970 22:-0.1434890032 
-20.0822143555 4:1.0000000000 11:0.6216840148 12:0.2964169979 13:0.3892309964 14:-0.0353210010 15:-0.0555189997 16:0.0671619996 17:0.0071789999 18:-0.1499560028 19:0.3452549875 20:-0.4365690053 21:0.0068250000 22:-0.0923729986 
7.6477785110 1:1.0000000000 11:-0.3104160130 12:0.4612430036 13:-0.0635849983 14:-0.0474510007 15:0.0293080006 16:0.1226779968 17:-0.2100840062 18:-0.3014189899 19:-0.1547590047 20:-0.2714259923 21:-0.0118530001 22:0.1799200028 
-31.9939327240 1:1.0000000000 11:0.0146380002 12:0.1873780042 13:0.0747440010 14:-0.1134359986 15:0.1165700033 16:0.0892169997 17:-0.1621149927 18:-0.0465399995 19:0.0194019992 20:0.0148959998 21:0.0741589963 22:0.0380799994 
32.0000000000 7:1.0000000000 11:-0.7259879708 12:0.1687320024 13:-0.0033620000 14:0.0187240001 15:-0.0094720004 16:0.0236479994 17:-0.0066280002 18:-0.0841619968 19:-0.0136000002 20:0.0015950000 21:0.0175870005 22:0.0064909998 
7.1787476540 1:1.0000000000 11:-0.3535119891 12:0.6422730088 13:-0.2111199945 14:-0.4240329862 15:0.0078070001 16:0.2318550050 17:-0.1946479976 18:-0.3395549953 19:-0.0116189998 20:0.1042959988 21:0.0922610015 22:0.1641589999 
12.6005191803 8:1.0000000000 11:0.5586799979 12:0.3707579970 13:-0.0492909998 14:0.0217950009 15:0.5616160035 16:-0.6296430230 17:-0.0673699975 18:-0.4775060117 19:0.5635610223 20:-0.6418870091 21:0.3539890051 22:-0.3224909902 
-6.9712066650 7:1.0000000000 11:0.0548130013 12:0.5019530058 13:0.1648630053 14:-0.1181669980 15:-0.0957719982 16:0.3643850088 17:-0.1982609928 18:-0.3274770081 19:0.2083369941 20:0.3441259861 21:-0.3723300099 22:-0.0773420036 
-32.0000000000 2:1.0000000000 11:-0.4152860045 12:0.1481319964 13:-0.0270729996 14:0.0275270008 15:0.0346329994 16:0.0063560000 17:0.0058559999 18:-0.0022970000 19:-0.0044570002 20:0.0188570004 21:0.0192540009 22:-0.0085209999 
-32.0000000000 2:1.0000000000 11:-0.0339699984 12:0.1686100066 13:-0.1002219990 14:0.0462529995 15:0.1017490029 16:-0.0685380027 17:-0.0671660006 18:-0.0348929986 19:0.0094959997 20:0.0491680019 21:0.0362059996 22:0.0533760004 
32.0000000000 5:1.0000000000 11:0.0601099990 12:0.2270199955 13:-0.0716710016 14:-0.0330310017 15:0.0975999981 16:-0.0005310000 17:-0.0777150020 18:0.0305269994 19:-0.0627750009 20:-0.1198640019 21:0.0643849969 22:-0.0877939984 
10.7118568420 6:1.0000000000 11:0.0812330022 12:0.5204470158 13:0.0586309992 14:0.2025630027 15:-0.1665879935 16:-0.2320320010 17:-0.2360790074 18:-0.3888039887 19:-0.4198650122 20:0.4646050036 21:0.3955500126 22:-0.5640869737 
-26.3167266846 1:1.0000000000 11:-0.0020190000 12:0.3107599914 13:-0.0636859983 14:-0.1021310017 15:0.1706659943 16:0.2728109956 17:-0.0537069999 18:-0.1546590030 19:-0.1260879934 20:-0.0573780015 21:0.1113530025 22:0.1887750030 
-3.1483197212 7:1.0000000000 11:0.5123729706 12:0.4525150061 13:-0.1942240000 14:-0.1716690063 15:-0.0338720009 16:0.3883250058 17:-0.5178599954 18:-0.0188379996 19:0.1656000018 20:0.2377180010 21:-0.0906409994 22:-0.5850250125 
21.6527328491 1:1.0000000000 11:-0.7799900174 12:0.2632749975 13:0.0226470008 14:0.0091909999 15:0.0435740016 16:0.0477619991 17:0.0078220004 18:-0.0907699987 19:0.0381879993 20:0.0729909986 21:0.0386019982 22:0.0533460006 
-32.0000000000 2:1.0000000000 11:-0.0195990000 12:0.1644289941 13:-0.1204639971 14:0.0430839993 15:0.0960329995 16:0.0090589998 17:-0.0515710004 18:-0.0628520027 19:-0.1141749993 20:-0.0955990031 21:0.0449169986 22:0.0496030003 
0.9974012375 2:1.0000000000 11:-0.5372629762 12:0.4405210018 13:0.0845580027 14:0.0933599994 15:0.0507819988 16:-0.1534229964 17:-0.3509339988 18:-0.1754650027 19:0.1458169967 20:0.0816339999 21:0.0085169999 22:0.0684200004 
-7.7633638382 4:1.0000000000 11:-0.5262230039 12:0.4894100130 13:0.1458799988 14:0.0512900017 15:-0.0136850001 16:-0.0687120035 17:-0.1735929996 18:-0.1940509975 19:-0.0741029978 20:-0.1752569973 21:-0.1619389951 22:-0.1013780013 
-10.4946479797 5:1.0000000000 11:-0.3686999977 12:0.4448240101 13:-0.1796610057 14:-0.2241829932 15:0.0396290012 16:0.0678249970 17:0.0289050005 18:0.0345689990 19:-0.0294739995 20:-0.0367389992 21:-0.1726669967 22:0.1833409965 
32.0000000000 10:1.0000000000 11:0.2100380063 12:0.1968989968 13:0.0761599988 14:-0.0555489995 15:-0.2827430069 16:0.1526950002 17:-0.0717599988 18:-0.0882069990 19:-0.0081690000 20:0.0545659997 21:-0.0778300017 22:-0.0323540010 
-10.2532157898 2:1.0000000000 11:0.4771479964 12:0.4591679871 13:-0.2297160029 14:0.1209599972 15:0.4722900093 16:-0.2134130001 17:0.0974960029 18:-0.2564469874 19:-0.2507930100 20:-0.1708450019 21:0.6808890104 22:-0.4076189995 
-13.1275043488 5:1.0000000000 11:0.5881929994 12:0.2378540039 13:-0.0544009991 14:-0.0057520000 15:-0.0133060003 16:-0.0337449983 17:0.0326830000 18:0.3065519929 19:-0.1991550028 20:-0.0694200024 21:-0.0027230000 22:0.3130260110 
-32.0000000000 4:1.0000000000 11:-0.7224969864 12:0.1763000041 13:-0.0200389996 14:0.0222890005 15:0.0220829993 16:0.0176890008 17:0.0114280004 18:-0.0333570018 19:0.0298529994 20:0.0053160000 21:0.0238920003 22:0.0558569990 
-20.4421520233 10:1.0000000000 11:-0.1286630034 12:0.5354610085 13:0.1846269965 14:-0.0775320008 15:-0.1550610065 16:0.0615510009 17:0.2073130012 18:-0.2572079897 19:-0.3400270045 20:-0.0614360012 21:0.0509990007 22:0.0333580002 
-5.8679237366 2:1.0000000000 11:-0.5178009868 12:0.4470520020 13:0.0024019999 14:-0.0131360004 15:0.1113289967 16:0.0840599984 17:-0.0328949988 18:-0.1752050072 19:-0.3377789855 20:0.0611060001 21:0.0874280035 22:-0.0626470000 
32.0000000000 9:1.0000000000 11:-0.3477489948 12:0.1469729990 13:0.0270240009 14:0.0317789987 15:0.0022650000 16:0.0143370004 17:-0.0018400000 18:-0.0677589998 19:-0.0534889996 20:-0.0515529998 21:0.0246900003 22:0.0193959996 
29.1535644531 7:1.0000000000 11:0.0301660001 12:0.5470579863 13:0.0164039992 14:-0.3515329957 15:-0.1092609987 16:0.3396730125 17:-0.2753010094 18:-0.3839449883 19:0.0575940013 20:0.4232040048 21:-0.1294319928 22:0.0076509998 
31.9941444397 6:1.0000000000 11:-0.3465360105 12:0.1474909931 13:0.0114529999 14:0.0301890001 15:0.0078059998 16:0.0250589997 17:-0.0122119999 18:-0.0753009990 19:-0.0363009982 20:-0.0717160031 21:0.0466989987 22:0.0086059999 
32.0000000000 10:1.0000000000 11:0.2440800071 12:0.1995240003 13:0.2043139935 14:-0.0573710017 15:-0.1572529972 16:0.0728790015 17:-0.0658359975 18:0.0294620004 19:-0.1412000060 20:-0.0602140017 21:-0.1005820036 22:0.0393440016 
17.0632877350 9:1.0000000000 11:0.5386099815 12:0.4482119977 13:-0.2480210066 14:0.7910900116 15:-0.6736869812 16:-0.1099319980 17:-0.0497150011 18:0.2620480061 19:-0.3302299976 20:-0.0269579999 21:-0.0247000009 22:-0.2179580033 
-12.9085187912 8:1.0000000000 11:0.6186869740 12:0.3016360104 13:-0.1197180003 14:-0.0031920001 15:0.4998430014 16:-0.5713509917 17:0.0468670018 18:-0.2254039943 19:0.3090940118 20:-0.0486520007 21:0.0044880002 22:0.0135559998 
-14.2374343872 2:1.0000000000 11:0.6221259832 12:0.3018800020 13:0.0468670018 14:-0.2254039943 15:0.3090940118 16:-0.0486520007 17:0.0044880002 18:0.0135559998 19:-0.1260199994 20:0.0301569998 21:0.4251509905 22:-0.2364950031 
32.0000000000 7:1.0000000000 11:-0.0471309982 12:0.1695249975 13:-0.0547069982 14:-0.0928229988 15:0.0170230009 16:0.0670979992 17:-0.0327450000 18:-0.1536130011 19:-0.1129420027 20:0.0964120030 21:0.0203939993 22:-0.0595749989 
32.0000000000 4:1.0000000000 11:0.2326039970 12:0.2000429928 13:0.1070640013 14:-0.1157440022 15:0.1290290058 16:-0.0536749996 17:-0.0990670025 18:-0.1011750028 19:0.1894149929 20:-0.0537770018 21:-0.1004929990 22:0.1011530012 
-26.8409175873 2:1.0000000000 11:0.6198250055 12:0.3099670112 13:-0.1132619977 14:0.0473240018 15:0.3303889930 16:-0.2290260047 17:-0.0621890016 18:-0.1665029973 19:-0.0523420013 20:0.0170270000 21:0.4304890037 22:-0.2760170102 
-29.4877643585 7:1.0000000000 11:-0.7389180064 12:0.1730349958 13:-0.0789109990 14:-0.0033390000 15:-0.0169949997 16:0.0238630008 17:-0.0787729993 18:-0.0216889996 19:0.0392259993 20:-0.0063390001 21:0.0298699997 22:0.0277810004 
32.0000000000 10:1.0000000000 11:-0.3496699929 12:0.1484069973 13:-0.0636499971 14:-0.0134150004 15:0.0089189997 16:0.0385629982 17:0.0174930003 18:-0.0863329992 19:-0.0043720002 20:0.0352110006 21:0.0064989999 22:0.0222210009 
3.4612793922 7:1.0000000000 11:-0.2103170007 12:0.5711979866 13:0.2230360061 14:0.1338589936 15:0.0885950029 16:0.0357390009 17:-0.5254089832 18:-0.4619019926 19:0.1140159965 20:0.4426380098 21:0.1164529994 22:0.0485780016 
2.2729868889 5:1.0000000000 11:-0.4046010077 12:0.5057370067 13:-0.1789889932 14:-0.0847399980 15:-0.1588400006 16:-0.3550859988 17:-0.0991260037 18:-0.1312569976 19:0.0307819992 20:-0.0006510000 21:-0.1968110055 22:0.2615160048 
-6.4617323875 2:1.0000000000 11:-0.5070480108 12:0.4354250133 13:0.0577029996 14:0.0771080032 15:0.1300970018 16:0.0120540000 17:-0.0990369990 18:-0.1065479964 19:-0.0931089967 20:-0.1748050004 21:-0.1679410040 22:-0.3447059989 
32.0000000000 1:1.0000000000 11:-0.1041319966 12:0.1749880016 13:-0.0257469993 14:-0.0876569971 15:0.0578959994 16:0.1051049978 17:-0.0541950017 18:-0.1114780009 19:-0.0938090011 20:0.0094520003 21:0.0459519997 22:0.0897890031 
15.8600807190 7:1.0000000000 11:0.1489990056 12:0.3719179928 13:0.0488549992 14:-0.2924169898 15:-0.0227949992 16:0.4072929919 17:-0.3264000118 18:-0.1784110069 19:0.1555819958 20:0.2717120051 21:-0.2807089984 22:0.0557760000 
